{"learner":{"attributes":{},"feature_names":[],"feature_types":[],"gradient_booster":{"model":{"cats":{"enc":[],"feature_segments":[],"sorted_idx":[]},"gbtree_model_param":{"num_parallel_tree":"1","num_trees":"50"},"iteration_indptr":[0,1,2,3,4,5,6,7,8,9,10,11,12,13,14,15,16,17,18,19,20,21,22,23,24,25,26,27,28,29,30,31,32,33,34,35,36,37,38,39,40,41,42,43,44,45,46,47,48,49,50],"tree_info":[0,0,0,0,0,0,0,0,0,0,0,0,0,0,0,0,0,0,0,0,0,0,0,0,0,0,0,0,0,0,0,0,0,0,0,0,0,0,0,0,0,0,0,0,0,0,0,0,0,0],"trees":[{"base_weights":[-0E0,-1.238931E2,6.0859768E1,-3.0912495E1,-2.3388931E1,-1.1195804E-1,1.2631234E2,-1.2229579E1,8.193618E0,-3.0591072E1,6.493705E1,4.564924E1,1.4824008E2,-1.1260923E1,6.24566E0,2.9834116E0,1.873502E1,1.4287523E1,-2.6158206E0,7.3846335E0,3.3133915E1],"categories":[],"categories_nodes":[],"categories_segments":[],"categories_sizes":[],"default_left":[0,0,0,0,0,0,0,0,0,0,0,0,0,0,0,0,0,0,0,0,0],"id":0,"left_children":[1,3,5,-1,7,9,11,-1,-1,13,15,17,19,-1,-1,-1,-1,-1,-1,-1,-1],"loss_changes":[1.2818179E6,1.5418325E5,4.552693E5,0E0,5.873695E4,1.367525E5,6.3058688E4,0E0,0E0,8.355259E4,2.4420523E4,3.356408E4,4.8557688E4,0E0,0E0,0E0,0E0,0E0,0E0,0E0,0E0],"parents":[2147483647,0,0,1,1,2,2,4,4,5,5,6,6,9,9,10,10,11,11,12,12],"right_children":[2,4,6,-1,8,10,12,-1,-1,14,16,18,20,-1,-1,-1,-1,-1,-1,-1,-1],"split_conditions":[-4.8943943E-1,6.860515E-1,1.7086543E-1,-3.0912495E1,-3.3612564E-2,5.972282E-1,-1.0399059E0,-1.2229579E1,8.193618E0,5.70613E-1,6.699072E-2,4.4947392E-1,-1.2995813E0,-1.1260923E1,6.24566E0,2.9834116E0,1.873502E1,1.4287523E1,-2.6158206E0,7.3846335E0,3.3133915E1],"split_indices":[13,9,8,0,14,13,3,0,0,4,14,11,14,0,0,0,0,0,0,0,0],"split_type":[0,0,0,0,0,0,0,0,0,0,0,0,0,0,0,0,0,0,0,0,0],"sum_hessian":[1.6E2,5.1E1,1.09E2,3.7E1,1.4E1,5.9E1,5E1,9E0,5E0,4.2E1,1.7E1,1.4E1,3.6E1,3E1,1.2E1,9E0,8E0,9E0,5E0,7E0,2.9E1],"tree_param":{"num_deleted":"0","num_feature":"20","num_nodes":"21","size_leaf_vector":"1"}},{"base_weights":[1.0237867E0,-9.747297E1,5.4720936E1,-1.13672874E2,8.0326E0,5.307672E0,1.0732504E2,-1.25978004E2,-1.40156E0,-3.0715185E1,4.6349106E1,3.1507475E1,1.2124686E2,-3.1876795E1,-1.3139777E1,-1.07279825E1,4.8647275E0,1.3457572E1,1.1133139E0,1.1606233E0,8.251619E0,5.4094844E0,2.6006002E1],"categories":[],"categories_nodes":[],"categories_segments":[],"categories_sizes":[],"default_left":[0,0,0,0,0,0,0,0,0,0,0,0,0,0,0,0,0,0,0,0,0,0,0],"id":1,"left_children":[1,3,5,7,-1,9,11,13,-1,15,17,19,21,-1,-1,-1,-1,-1,-1,-1,-1,-1,-1],"loss_changes":[8.992677E5,1.5675562E5,2.8285397E5,6.750894E4,0E0,9.8812016E4,3.6536062E4,4.58635E4,0E0,5.2005223E4,2.4453484E4,2.468252E3,1.7677812E4,0E0,0E0,0E0,0E0,0E0,0E0,0E0,0E0,0E0,0E0],"parents":[2147483647,0,0,1,1,2,2,3,3,5,5,6,6,7,7,9,9,10,10,11,11,12,12],"right_children":[2,4,6,8,-1,10,12,14,-1,16,18,20,22,-1,-1,-1,-1,-1,-1,-1,-1,-1,-1],"split_conditions":[-3.8397127E-1,1.1218579E0,1.7086543E-1,1.1254348E0,8.0326E0,2.0115966E-1,-9.8960483E-1,-2.4606249E-1,-1.40156E0,5.2112246E-1,-3.143917E-2,5.9740007E-1,-1.1510141E0,-3.1876795E1,-1.3139777E1,-1.07279825E1,4.8647275E0,1.3457572E1,1.1133139E0,1.1606233E0,8.251619E0,5.4094844E0,2.6006002E1],"split_indices":[13,0,8,7,0,9,14,8,0,13,16,0,9,0,0,0,0,0,0,0,0,0,0],"split_type":[0,0,0,0,0,0,0,0,0,0,0,0,0,0,0,0,0,0,0,0,0,0,0],"sum_hessian":[1.6E2,5.5E1,1.05E2,5E1,5E0,5.7E1,4.8E1,4.4E1,6E0,3.1E1,2.6E1,1E1,3.8E1,2.3E1,2.1E1,2.2E1,9E0,1.5E1,1.1E1,5E0,5E0,5E0,3.3E1],"tree_param":{"num_deleted":"0","num_feature":"20","num_nodes":"23","size_leaf_vector":"1"}},{"base_weights":[1.1641747E0,-6.6538734E1,5.5862053E1,-1.0703438E2,-7.155421E-1,2.414512E1,9.744425E1,-2.8121918E1,-4.548113E1,-4.3642815E1,4.9453926E1,-5.334079E0,6.656281E1,4.4535065E0,2.324387E1,-1.2613068E1,-2.050957E0,-1.2409133E1,1.4846299E0,3.177372E-1,1.4511586E1,-5.98381E0,7.3220034E0,9.19833E-1,1.6962942E1],"categories":[],"categories_nodes":[],"categories_segments":[],"categories_sizes":[],"default_left":[0,0,0,0,0,0,0,0,0,0,0,0,0,0,0,0,0,0,0,0,0,0,0,0,0],"id":2,"left_children":[1,3,5,7,9,11,13,-1,15,17,19,21,23,-1,-1,-1,-1,-1,-1,-1,-1,-1,-1,-1,-1],"loss_changes":[6.295925E5,2.0198356E5,1.1196566E5,6.4785625E4,8.400363E4,7.692409E4,4.182997E4,0E0,1.1486012E4,2.2147059E4,1.9181164E4,4.6711074E4,2.614464E4,0E0,0E0,0E0,0E0,0E0,0E0,0E0,0E0,0E0,0E0,0E0,0E0],"parents":[2147483647,0,0,1,1,2,2,3,3,4,4,5,5,6,6,8,8,9,9,10,10,11,11,12,12],"right_children":[2,4,6,8,10,12,14,-1,16,18,20,22,24,-1,-1,-1,-1,-1,-1,-1,-1,-1,-1,-1,-1],"split_conditions":[-9.338686E-2,3.868085E-1,7.472936E-1,9.1752484E-2,2.858654E-1,5.629692E-1,-1.1430049E0,-2.8121918E1,-1.8150316E-1,3.1313214E-1,1.0519476E0,2.6712665E-1,-6.022121E-1,4.4535065E0,2.324387E1,-1.2613068E1,-2.050957E0,-1.2409133E1,1.4846299E0,3.177372E-1,1.4511586E1,-5.98381E0,7.3220034E0,9.19833E-1,1.6962942E1],"split_indices":[13,4,13,8,14,7,7,0,3,3,4,14,8,0,0,0,0,0,0,0,0,0,0,0,0],"split_type":[0,0,0,0,0,0,0,0,0,0,0,0,0,0,0,0,0,0,0,0,0,0,0,0,0],"sum_hessian":[1.6E2,7.1E1,8.9E1,4.2E1,2.9E1,5.5E1,3.4E1,2.3E1,1.9E1,1.6E1,1.3E1,3.5E1,2E1,9E0,2.5E1,1E1,9E0,1.1E1,5E0,6E0,7E0,2.3E1,1.2E1,6E0,1.4E1],"tree_param":{"num_deleted":"0","num_feature":"20","num_nodes":"25","size_leaf_vector":"1"}},{"base_weights":[1.1797402E0,-7.95779E1,3.5757397E1,-9.505925E1,6.245047E0,2.9017034E-1,7.4275246E1,-2.642554E1,-5.3201466E1,-2.600167E1,3.929356E1,2.3945398E1,9.094721E1,-1.3080955E1,7.4150354E-1,2.9236513E-1,-1.161003E1,1.2930307E0,1.27642565E1,-3.252739E0,8.343629E0,3.8551705E0,2.0561914E1],"categories":[],"categories_nodes":[],"categories_segments":[],"categories_sizes":[],"default_left":[0,0,0,0,0,0,0,0,0,0,0,0,0,0,0,0,0,0,0,0,0,0,0],"id":3,"left_children":[1,3,5,7,-1,9,11,-1,13,15,17,19,21,-1,-1,-1,-1,-1,-1,-1,-1,-1,-1],"loss_changes":[4.7488753E5,1.02453375E5,1.6231155E5,3.5856156E4,0E0,7.3841625E4,3.6709938E4,0E0,2.2170164E4,3.8384492E4,2.1147328E4,1.8450512E4,2.4704969E4,0E0,0E0,0E0,0E0,0E0,0E0,0E0,0E0,0E0,0E0],"parents":[2147483647,0,0,1,1,2,2,3,3,5,5,6,6,8,8,9,9,10,10,11,11,12,12],"right_children":[2,4,6,8,-1,10,12,-1,14,16,18,20,22,-1,-1,-1,-1,-1,-1,-1,-1,-1,-1],"split_conditions":[-5.487249E-1,1.1254348E0,1.7086543E-1,-1.0444922E-1,6.245047E0,2.6712665E-1,-5.482003E-1,-2.642554E1,4.7323763E-1,3.2910678E-1,5.963037E-2,-7.0689255E-1,-1.2946814E0,-1.3080955E1,7.4150354E-1,2.9236513E-1,-1.161003E1,1.2930307E0,1.27642565E1,-3.252739E0,8.343629E0,3.8551705E0,2.0561914E1],"split_indices":[13,7,8,4,0,14,9,0,14,11,13,4,14,0,0,0,0,0,0,0,0,0,0],"split_type":[0,0,0,0,0,0,0,0,0,0,0,0,0,0,0,0,0,0,0,0,0,0,0],"sum_hessian":[1.6E2,4.6E1,1.14E2,4.1E1,5E0,6.2E1,5.2E1,1.6E1,2.5E1,3.8E1,2.4E1,1.6E1,3.6E1,2E1,5E0,2.3E1,1.5E1,1.3E1,1.1E1,5E0,1.1E1,7E0,2.9E1],"tree_param":{"num_deleted":"0","num_feature":"20","num_nodes":"23","size_leaf_vector":"1"}},{"base_weights":[9.4281214E-1,-6.684271E1,2.9970943E1,-8.026099E1,5.620542E0,4.4255662E-1,6.2015633E1,-3.5690605E1,-2.1521078E1,-2.421766E1,3.1261179E1,1.45419235E1,7.573476E1,-1.28909445E1,-1.9080346E0,-1.1315372E1,3.531633E-1,8.350753E0,-2.4998755E0,-3.0978005E0,7.7360764E0,4.3680024E0,1.7346085E1],"categories":[],"categories_nodes":[],"categories_segments":[],"categories_sizes":[],"default_left":[0,0,0,0,0,0,0,0,0,0,0,0,0,0,0,0,0,0,0,0,0,0,0],"id":4,"left_children":[1,3,5,7,-1,9,11,13,-1,15,17,19,21,-1,-1,-1,-1,-1,-1,-1,-1,-1,-1],"loss_changes":[3.3461134E5,7.6356266E4,1.12339E5,3.6573438E4,0E0,5.4719047E4,3.1436766E4,1.55823125E4,0E0,3.4241324E4,1.7361148E4,1.681509E4,1.5794047E4,0E0,0E0,0E0,0E0,0E0,0E0,0E0,0E0,0E0,0E0],"parents":[2147483647,0,0,1,1,2,2,3,3,5,5,6,6,7,7,9,9,10,10,11,11,12,12],"right_children":[2,4,6,8,-1,10,12,14,-1,16,18,20,22,-1,-1,-1,-1,-1,-1,-1,-1,-1,-1],"split_conditions":[-5.487249E-1,1.1254348E0,1.7086543E-1,1.3074058E-1,5.620542E0,2.0115966E-1,-1.0399059E0,-1.3481854E0,-2.1521078E1,-3.8713065E-1,9.190765E-1,3.003148E-2,-9.8960483E-1,-1.28909445E1,-1.9080346E0,-1.1315372E1,3.531633E-1,8.350753E0,-2.4998755E0,-3.0978005E0,7.7360764E0,4.3680024E0,1.7346085E1],"split_indices":[13,7,8,10,0,9,3,13,0,14,6,18,14,0,0,0,0,0,0,0,0,0,0],"split_type":[0,0,0,0,0,0,0,0,0,0,0,0,0,0,0,0,0,0,0,0,0,0,0],"sum_hessian":[1.6E2,4.6E1,1.14E2,4.1E1,5E0,6.2E1,5.2E1,2E1,2.1E1,3.5E1,2.7E1,1.4E1,3.8E1,6E0,1.4E1,1.3E1,2.2E1,2.2E1,5E0,7E0,7E0,9E0,2.9E1],"tree_param":{"num_deleted":"0","num_feature":"20","num_nodes":"23","size_leaf_vector":"1"}},{"base_weights":[4.652047E-1,-3.8430977E1,3.756931E1,-1.9845995E1,-1.7693703E1,2.230078E1,1.7248137E1,-3.6980427E1,3.4181446E1,-5.9401264E0,4.511565E1,-1.3296649E1,-4.10009E-1,-9.339981E-1,1.0282404E1,-4.4269547E0,3.900996E0,-2.7313616E0,1.10461645E1],"categories":[],"categories_nodes":[],"categories_segments":[],"categories_sizes":[],"default_left":[0,0,0,0,0,0,0,0,0,0,0,0,0,0,0,0,0,0,0],"id":5,"left_children":[1,3,5,-1,7,9,-1,11,13,15,17,-1,-1,-1,-1,-1,-1,-1,-1],"loss_changes":[2.4534673E5,9.563429E4,5.4819945E4,0E0,7.435993E4,4.845313E4,0E0,5.276979E4,1.5352035E4,1.7410709E4,2.8228781E4,0E0,0E0,0E0,0E0,0E0,0E0,0E0,0E0],"parents":[2147483647,0,0,1,1,2,2,4,4,5,5,7,7,8,8,9,9,10,10],"right_children":[2,4,6,-1,8,10,-1,12,14,16,18,-1,-1,-1,-1,-1,-1,-1,-1],"split_conditions":[-2.4354592E-2,-1.3481854E0,1.5475053E0,-1.9845995E1,5.5314916E-1,7.814306E-2,1.7248137E1,2.3204994E-1,5.583269E-1,5.70613E-1,-1.600904E0,-1.3296649E1,-4.10009E-1,-9.339981E-1,1.0282404E1,-4.4269547E0,3.900996E0,-2.7313616E0,1.10461645E1],"split_indices":[13,13,13,0,14,9,0,3,4,4,14,0,0,0,0,0,0,0,0],"split_type":[0,0,0,0,0,0,0,0,0,0,0,0,0,0,0,0,0,0,0],"sum_hessian":[1.6E2,7.8E1,8.2E1,1.5E1,6.3E1,6.8E1,1.4E1,4.7E1,1.6E1,3.2E1,3.6E1,2.3E1,2.4E1,6E0,1E1,2E1,1.2E1,5E0,3.1E1],"tree_param":{"num_deleted":"0","num_feature":"20","num_nodes":"19","size_leaf_vector":"1"}},{"base_weights":[3.9012527E-1,-3.772783E1,2.7727741E1,-6.957719E1,-4.2974243E0,1.5012848E0,5.6541985E1,-1.9376E1,-1.9548365E1,-2.5076513E1,2.2650793E1,-1.3564532E1,3.8022926E1,2.4346844E1,8.224007E1,-7.50723E0,2.7751049E-2,-8.697127E0,3.116226E-1,6.5440307E0,-5.5750728E-2,-6.411199E0,6.8163306E-2,2.2298753E0,9.329493E0,-1.0833084E-1,9.246153E0,1.8222565E1,4.812359E0],"categories":[],"categories_nodes":[],"categories_segments":[],"categories_sizes":[],"default_left":[0,0,0,0,0,0,0,0,0,0,0,0,0,0,0,0,0,0,0,0,0,0,0,0,0,0,0,0,0],"id":6,"left_children":[1,3,5,7,9,11,13,-1,15,17,19,21,23,25,27,-1,-1,-1,-1,-1,-1,-1,-1,-1,-1,-1,-1,-1,-1],"loss_changes":[1.7714945E5,7.395357E4,7.427334E4,3.9471297E4,2.5243242E4,3.399075E4,2.8661E4,0E0,6.829262E3,1.2680635E4,4.728204E3,1.1431787E4,1.4558496E3,1.5467004E4,1.1967969E3,0E0,0E0,0E0,0E0,0E0,0E0,0E0,0E0,0E0,0E0,0E0,0E0,0E0,0E0],"parents":[2147483647,0,0,1,1,2,2,3,3,4,4,5,5,6,6,8,8,9,9,10,10,11,11,12,12,13,13,14,14],"right_children":[2,4,6,8,10,12,14,-1,16,18,20,22,24,26,28,-1,-1,-1,-1,-1,-1,-1,-1,-1,-1,-1,-1,-1,-1],"split_conditions":[-2.3415338E-1,-2.4896415E-1,3.1745327E-1,3.868085E-1,2.6712665E-1,6.8626016E-1,1.4488783E-1,-1.9376E1,-3.6702785E-1,-3.8851845E-1,-3.143917E-2,-6.9190806E-1,-1.9033867E-1,-9.917586E-2,8.407345E-1,-7.50723E0,2.7751049E-2,-8.697127E0,3.116226E-1,6.5440307E0,-5.5750728E-2,-6.411199E0,6.8163306E-2,2.2298753E0,9.329493E0,-1.0833084E-1,9.246153E0,1.8222565E1,4.812359E0],"split_indices":[8,13,4,4,14,13,14,0,9,2,16,9,15,7,6,0,0,0,0,0,0,0,0,0,0,0,0,0,0],"split_type":[0,0,0,0,0,0,0,0,0,0,0,0,0,0,0,0,0,0,0,0,0,0,0,0,0,0,0,0,0],"sum_hessian":[1.6E2,6.6E1,9.4E1,3.1E1,3.5E1,5.2E1,4.2E1,1.7E1,1.4E1,2E1,1.5E1,3.9E1,1.3E1,2.3E1,1.9E1,5E0,9E0,1E1,1E1,9E0,6E0,1.4E1,2.5E1,6E0,7E0,1.3E1,1E1,1.4E1,5E0],"tree_param":{"num_deleted":"0","num_feature":"20","num_nodes":"29","size_leaf_vector":"1"}},{"base_weights":[5.786569E-1,-3.1435022E1,2.6452553E1,-4.696544E1,2.0326885E1,-4.1187654E0,4.0439663E1,-6.669107E1,-1.9222527E1,-7.697281E0,9.896796E0,-2.6681677E1,2.0610289E1,7.101976E0,5.055993E1,-1.681916E1,-3.5280266E0,-5.068859E0,7.605604E-1,1.2675241E0,-3.6167085E0,-7.060064E0,-4.257496E-2,6.5619617E0,-1.3148354E0,-3.3476303E0,3.9815376E0,-1.07806854E-1,1.1294668E1],"categories":[],"categories_nodes":[],"categories_segments":[],"categories_sizes":[],"default_left":[0,0,0,0,0,0,0,0,0,0,0,0,0,0,0,0,0,0,0,0,0,0,0,0,0,0,0,0,0],"id":7,"left_children":[1,3,5,7,9,11,13,15,17,19,-1,21,23,25,27,-1,-1,-1,-1,-1,-1,-1,-1,-1,-1,-1,-1,-1,-1],"loss_changes":[1.4082028E5,6.5921766E4,4.110025E4,2.625311E4,1.9147205E4,2.173235E4,2.0019414E4,2.0551906E4,5.0355635E3,2.7830774E3,0E0,4.4539033E3,7.4320684E3,8.0835146E3,1.5070367E4,0E0,0E0,0E0,0E0,0E0,0E0,0E0,0E0,0E0,0E0,0E0,0E0,0E0,0E0],"parents":[2147483647,0,0,1,1,2,2,3,3,4,4,5,5,6,6,7,7,8,8,9,9,11,11,12,12,13,13,14,14],"right_children":[2,4,6,8,10,12,14,16,18,20,-1,22,24,26,28,-1,-1,-1,-1,-1,-1,-1,-1,-1,-1,-1,-1,-1,-1],"split_conditions":[-9.338686E-2,9.784221E-1,-2.6265952E-1,-2.3415338E-1,2.3924686E-1,1.9791079E-1,-1.0399059E0,1.7847666E-1,7.674347E-1,-3.4090787E-1,9.896796E0,6.2962884E-1,-1.314726E-1,-8.2849705E-1,-1.5255252E0,-1.681916E1,-3.5280266E0,-5.068859E0,7.605604E-1,1.2675241E0,-3.6167085E0,-7.060064E0,-4.257496E-2,6.5619617E0,-1.3148354E0,-3.3476303E0,3.9815376E0,-1.07806854E-1,1.1294668E1],"split_indices":[13,4,8,8,7,2,3,9,9,11,0,1,6,9,14,0,0,0,0,0,0,0,0,0,0,0,0,0,0],"split_type":[0,0,0,0,0,0,0,0,0,0,0,0,0,0,0,0,0,0,0,0,0,0,0,0,0,0,0,0,0],"sum_hessian":[1.6E2,7.1E1,8.9E1,5.5E1,1.6E1,2.9E1,6E1,2.8E1,2.7E1,1E1,6E0,1.5E1,1.4E1,1.6E1,4.4E1,1.8E1,1E1,2.1E1,6E0,5E0,5E0,1E1,5E0,9E0,5E0,5E0,1.1E1,5E0,3.9E1],"tree_param":{"num_deleted":"0","num_feature":"20","num_nodes":"29","size_leaf_vector":"1"}},{"base_weights":[2.3678584E-1,-6.143518E1,1.0380233E1,-1.4112459E1,-2.6352153E0,-4.108534E0,3.9522133E1,-3.170716E1,1.3317017E1,1.3936228E1,6.31874E1,-9.222205E0,-9.910683E-1,-4.1087403E0,4.5561705E0,-5.1684165E-1,6.29028E0,2.51138E0,1.6044882E1],"categories":[],"categories_nodes":[],"categories_segments":[],"categories_sizes":[],"default_left":[0,0,0,0,0,0,0,0,0,0,0,0,0,0,0,0,0,0,0],"id":8,"left_children":[1,3,5,-1,-1,7,9,11,13,15,17,-1,-1,-1,-1,-1,-1,-1,-1],"loss_changes":[1.0630489E5,5.755039E3,6.252832E4,0E0,0E0,5.1201973E4,2.5112148E4,1.4553902E4,2.3494344E4,9.144867E3,1.5479797E4,0E0,0E0,0E0,0E0,0E0,0E0,0E0,0E0],"parents":[2147483647,0,0,1,1,2,2,5,5,6,6,7,7,8,8,9,9,10,10],"right_children":[2,4,6,-1,-1,8,10,12,14,16,18,-1,-1,-1,-1,-1,-1,-1,-1],"split_conditions":[-1.122722E0,9.2617756E-1,6.3278186E-1,-1.4112459E1,-2.6352153E0,-1.285375E-1,1.4488783E-1,2.3836899E-1,-1.0851505E0,4.086073E-1,7.5955264E-2,-9.222205E0,-9.910683E-1,-4.1087403E0,4.5561705E0,-5.1684165E-1,6.29028E0,2.51138E0,1.6044882E1],"split_indices":[13,4,13,0,0,4,14,3,8,8,4,0,0,0,0,0,0,0,0],"split_type":[0,0,0,0,0,0,0,0,0,0,0,0,0,0,0,0,0,0,0],"sum_hessian":[1.6E2,1.9E1,1.41E2,1.4E1,5E0,9.7E1,4.4E1,3.6E1,6.1E1,2.5E1,1.9E1,2.1E1,1.5E1,1.2E1,4.9E1,1.5E1,1E1,7E0,1.2E1],"tree_param":{"num_deleted":"0","num_feature":"20","num_nodes":"19","size_leaf_vector":"1"}},{"base_weights":[1.1597922E-1,-1.1849546E1,8.040607E0,-4.5106187E0,3.6068893E1,-1.7942095E1,2.8673357E1,-9.4344693E-1,4.384612E1,-6.9278293E0,1.003538E0,-4.0297142E-1,7.795311E0,3.190606E-2,1.0294647E1],"categories":[],"categories_nodes":[],"categories_segments":[],"categories_sizes":[],"default_left":[0,0,0,0,0,0,0,0,0,0,0,0,0,0,0],"id":9,"left_children":[1,-1,3,5,7,9,11,-1,13,-1,-1,-1,-1,-1,-1],"loss_changes":[7.990135E4,0E0,5.364498E4,5.0687496E4,1.6020965E4,3.1597143E4,1.090075E4,0E0,1.3183789E4,0E0,0E0,0E0,0E0,0E0,0E0],"parents":[2147483647,0,0,2,2,3,3,4,4,5,5,6,6,8,8],"right_children":[2,-1,4,6,8,10,12,-1,14,-1,-1,-1,-1,-1,-1],"split_conditions":[-1.3481854E0,-1.1849546E1,5.629692E-1,6.8626016E-1,-9.600463E-1,2.3836899E-1,-1.293273E0,-9.4344693E-1,-1.1790398E0,-6.9278293E0,1.003538E0,-4.0297142E-1,7.795311E0,3.190606E-2,1.0294647E1],"split_indices":[13,0,7,13,3,3,7,0,8,0,0,0,0,0,0],"split_type":[0,0,0,0,0,0,0,0,0,0,0,0,0,0,0],"sum_hessian":[1.6E2,1.5E1,1.45E2,1.03E2,4.2E1,7.5E1,2.8E1,7E0,3.5E1,4.2E1,3.3E1,8E0,2E1,6E0,2.9E1],"tree_param":{"num_deleted":"0","num_feature":"20","num_nodes":"15","size_leaf_vector":"1"}},{"base_weights":[6.0104653E-2,-2.3492197E1,1.6968315E1,-1.3541766E1,-1.1581005E1,3.3797848E0,4.616577E1,-3.1766275E1,2.5829463E0,-6.5494328E0,2.3833769E1,1.3729111E1,1.1649546E1,-7.803966E0,-9.0135E-2,-5.138203E0,2.448194E0,-2.4781244E0,2.449024E0,-1.0436624E0,6.897323E0,6.8908066E-1,3.3896527E0],"categories":[],"categories_nodes":[],"categories_segments":[],"categories_sizes":[],"default_left":[0,0,0,0,0,0,0,0,0,0,0,0,0,0,0,0,0,0,0,0,0,0,0],"id":10,"left_children":[1,3,5,-1,7,9,11,13,15,17,19,21,-1,-1,-1,-1,-1,-1,-1,-1,-1,-1,-1],"loss_changes":[6.768757E4,3.3314504E4,3.839906E4,0E0,1.8194617E4,1.5640777E4,8.0064453E3,5.7390176E3,1.2741409E4,6.5773887E3,8.695528E3,1.638169E2,0E0,0E0,0E0,0E0,0E0,0E0,0E0,0E0,0E0,0E0,0E0],"parents":[2147483647,0,0,1,1,2,2,4,4,5,5,6,6,7,7,8,8,9,9,10,10,11,11],"right_children":[2,4,6,-1,8,10,12,14,16,18,20,22,-1,-1,-1,-1,-1,-1,-1,-1,-1,-1,-1],"split_conditions":[-2.3415338E-1,-7.9252076E-1,5.376299E-1,-1.3541766E1,-3.8713065E-1,7.0900375E-1,-1.2791759E-1,6.78947E-1,-8.049665E-1,9.183166E-1,-4.114266E-1,-4.152879E-1,1.1649546E1,-7.803966E0,-9.0135E-2,-5.138203E0,2.448194E0,-2.4781244E0,2.449024E0,-1.0436624E0,6.897323E0,6.8908066E-1,3.3896527E0],"split_indices":[8,4,14,0,14,7,4,6,9,13,13,18,0,0,0,0,0,0,0,0,0,0,0],"split_type":[0,0,0,0,0,0,0,0,0,0,0,0,0,0,0,0,0,0,0,0,0,0,0],"sum_hessian":[1.6E2,6.6E1,9.4E1,9E0,5.7E1,6.8E1,2.6E1,2.1E1,3.6E1,4.8E1,2E1,1E1,1.6E1,1.6E1,5E0,7E0,2.9E1,3.8E1,1E1,6E0,1.4E1,5E0,5E0],"tree_param":{"num_deleted":"0","num_feature":"20","num_nodes":"23","size_leaf_vector":"1"}},{"base_weights":[-8.069489E-3,-2.050403E1,1.467126E1,-1.1800682E1,-1.0124813E1,3.0972905E0,3.9495243E1,-2.3081675E1,5.566255E0,-5.2347445E0,2.0221746E1,1.23695345E1,4.937188E1,-8.758315E0,-1.7523564E0,2.669127E0,-2.1565394E0,1.9228251E0,-2.3697941E0,-1.6097918E0,5.8803325E0,6.201727E-1,3.0506876E0,1.1610831E1,3.7008545E0],"categories":[],"categories_nodes":[],"categories_segments":[],"categories_sizes":[],"default_left":[0,0,0,0,0,0,0,0,0,0,0,0,0,0,0,0,0,0,0,0,0,0,0,0,0],"id":11,"left_children":[1,3,5,-1,7,9,11,13,15,17,19,21,23,-1,-1,-1,-1,-1,-1,-1,-1,-1,-1,-1,-1],"loss_changes":[5.1158812E4,2.5245885E4,2.774706E4,0E0,1.3282457E4,1.0975006E4,5.128215E3,8.356156E3,4.7945454E3,5.7793877E3,7.714036E3,1.2774634E2,1.0366406E2,0E0,0E0,0E0,0E0,0E0,0E0,0E0,0E0,0E0,0E0,0E0,0E0],"parents":[2147483647,0,0,1,1,2,2,4,4,5,5,6,6,7,7,8,8,9,9,10,10,11,11,12,12],"right_children":[2,4,6,-1,8,10,12,14,16,18,20,22,24,-1,-1,-1,-1,-1,-1,-1,-1,-1,-1,-1,-1],"split_conditions":[-2.3415338E-1,-7.9252076E-1,5.376299E-1,-1.1800682E1,2.1471319E-1,7.0900375E-1,-1.2791759E-1,-4.749453E-1,8.66977E-2,-3.9755777E-1,-1.1196699E0,-4.152879E-1,3.4272534E-1,-8.758315E0,-1.7523564E0,2.669127E0,-2.1565394E0,1.9228251E0,-2.3697941E0,-1.6097918E0,5.8803325E0,6.201727E-1,3.0506876E0,1.1610831E1,3.7008545E0],"split_indices":[8,4,14,0,9,7,4,14,12,2,3,18,6,0,0,0,0,0,0,0,0,0,0,0,0],"split_type":[0,0,0,0,0,0,0,0,0,0,0,0,0,0,0,0,0,0,0,0,0,0,0,0,0],"sum_hessian":[1.6E2,6.6E1,9.4E1,9E0,5.7E1,6.8E1,2.6E1,3E1,2.7E1,4.8E1,2E1,1E1,1.6E1,8E0,2.2E1,1.9E1,8E0,1.4E1,3.4E1,5E0,1.5E1,5E0,5E0,9E0,7E0],"tree_param":{"num_deleted":"0","num_feature":"20","num_nodes":"25","size_leaf_vector":"1"}},{"base_weights":[4.67717E-3,-5.694308E0,4.5400642E1,-2.1983799E1,6.8660007E0,3.1349287E0,1.1208609E1,-3.7003212E1,-6.405346E0,-1.4888717E0,2.6401054E1,-8.853023E0,-1.7304337E0,-7.420097E0,1.2087332E0,1.5972441E0,-2.9145045E0,1.6029652E0,8.593028E0],"categories":[],"categories_nodes":[],"categories_segments":[],"categories_sizes":[],"default_left":[0,0,0,0,0,0,0,0,0,0,0,0,0,0,0,0,0,0,0],"id":12,"left_children":[1,3,5,7,9,-1,-1,11,13,15,17,-1,-1,-1,-1,-1,-1,-1,-1],"loss_changes":[4.405934E4,3.1679695E4,1.4750508E3,1.4404699E4,1.4772309E4,0E0,0E0,4.7733438E3,1.6086068E4,8.9009795E3,6.399129E3,0E0,0E0,0E0,0E0,0E0,0E0,0E0,0E0],"parents":[2147483647,0,0,1,1,2,2,3,3,4,4,7,7,8,8,9,9,10,10],"right_children":[2,4,6,8,10,-1,-1,12,14,16,18,-1,-1,-1,-1,-1,-1,-1,-1],"split_conditions":[1.5475053E0,-2.3415338E-1,-3.705081E-1,-3.0920908E-1,5.376299E-1,3.1349287E0,1.1208609E1,4.8247242E-1,-8.049665E-1,1.11372605E-1,2.3924686E-1,-8.853023E0,-1.7304337E0,-7.420097E0,1.2087332E0,1.5972441E0,-2.9145045E0,1.6029652E0,8.593028E0],"split_indices":[13,8,14,14,14,0,0,7,9,11,7,0,0,0,0,0,0,0,0],"split_type":[0,0,0,0,0,0,0,0,0,0,0,0,0,0,0,0,0,0,0],"sum_hessian":[1.6E2,1.46E2,1.4E1,6.2E1,8.4E1,7E0,7E0,2.8E1,3.4E1,6.2E1,2.2E1,2E1,8E0,7E0,2.7E1,3.7E1,2.5E1,1.4E1,8E0],"tree_param":{"num_deleted":"0","num_feature":"20","num_nodes":"19","size_leaf_vector":"1"}},{"base_weights":[2.0093723E-1,-3.586687E1,6.136709E0,-9.109926E-1,-4.280291E1,9.981219E-1,4.0116184E1,-9.762179E0,-2.5580564E0,-5.821074E0,2.0046682E1,2.769187E0,9.900938E0,-3.8510609E0,1.953474E0,-1.106889E0,5.2303967E0],"categories":[],"categories_nodes":[],"categories_segments":[],"categories_sizes":[],"default_left":[0,0,0,0,0,0,0,0,0,0,0,0,0,0,0,0,0],"id":13,"left_children":[1,3,5,-1,7,9,11,-1,-1,13,15,-1,-1,-1,-1,-1,-1],"loss_changes":[3.6365965E4,4.142791E3,2.5210115E4,0E0,1.8126172E2,1.7758172E4,1.1322344E3,0E0,0E0,2.2110637E4,6.387416E3,0E0,0E0,0E0,0E0,0E0,0E0],"parents":[2147483647,0,0,1,1,2,2,4,4,5,5,6,6,9,9,10,10],"right_children":[2,4,6,-1,8,10,12,-1,-1,14,16,-1,-1,-1,-1,-1,-1],"split_conditions":[-1.122722E0,-3.425492E-1,1.5475053E0,-9.109926E-1,3.7976763E-1,7.0900375E-1,-3.705081E-1,-9.762179E0,-2.5580564E0,2.3836899E-1,-1.2995813E0,2.769187E0,9.900938E0,-3.8510609E0,1.953474E0,-1.106889E0,5.2303967E0],"split_indices":[13,6,13,0,15,7,14,0,0,3,14,0,0,0,0,0,0],"split_type":[0,0,0,0,0,0,0,0,0,0,0,0,0,0,0,0,0],"sum_hessian":[1.6E2,1.9E1,1.41E2,5E0,1.4E1,1.27E2,1.4E1,9E0,5E0,9.6E1,3.1E1,7E0,7E0,5.1E1,4.5E1,6E0,2.5E1],"tree_param":{"num_deleted":"0","num_feature":"20","num_nodes":"17","size_leaf_vector":"1"}},{"base_weights":[2.0635001E-1,-8.0490675E0,2.120904E1,-3.899207E1,-1.5203087E0,6.364236E0,3.464463E1,-1.511453E0,-1.0373519E1,-6.868759E0,2.467227E1,-3.98005E0,3.495784E0,7.9752195E-1,9.195527E0,-5.2332244E0,-4.627545E-1,6.204625E-1,7.1590896E0,-2.644683E0,7.801885E-1],"categories":[],"categories_nodes":[],"categories_segments":[],"categories_sizes":[],"default_left":[0,0,0,0,0,0,0,0,0,0,0,0,0,0,0,0,0,0,0,0,0],"id":14,"left_children":[1,3,5,7,9,11,13,-1,-1,15,17,19,-1,-1,-1,-1,-1,-1,-1,-1,-1],"loss_changes":[2.948857E4,2.4268941E4,8.389086E3,6.420797E3,1.5661242E4,3.709063E3,7.321836E3,0E0,0E0,7.727057E3,3.9255645E3,1.6606547E3,0E0,0E0,0E0,0E0,0E0,0E0,0E0,0E0,0E0],"parents":[2147483647,0,0,1,1,2,2,3,3,4,4,5,5,6,6,9,9,10,10,11,11],"right_children":[2,4,6,8,10,12,14,-1,-1,16,18,20,-1,-1,-1,-1,-1,-1,-1,-1,-1],"split_conditions":[6.3472146E-1,-9.2423314E-1,1.4488783E-1,-9.139956E-2,1.2210337E0,4.086073E-1,7.5955264E-2,-1.511453E0,-1.0373519E1,-9.594392E-1,3.695672E-3,-9.600463E-1,3.495784E0,7.9752195E-1,9.195527E0,-5.2332244E0,-4.627545E-1,6.204625E-1,7.1590896E0,-2.644683E0,7.801885E-1],"split_indices":[13,9,14,17,4,8,4,0,0,7,3,3,0,0,0,0,0,0,0,0,0],"split_type":[0,0,0,0,0,0,0,0,0,0,0,0,0,0,0,0,0,0,0,0,0],"sum_hessian":[1.6E2,1.17E2,4.3E1,1.6E1,1.01E2,2.4E1,1.9E1,7E0,9E0,8.7E1,1.4E1,1.4E1,1E1,7E0,1.2E1,1.2E1,7.5E1,7E0,7E0,5E0,9E0],"tree_param":{"num_deleted":"0","num_feature":"20","num_nodes":"21","size_leaf_vector":"1"}},{"base_weights":[2.2032043E-1,-3.305151E1,4.4127917E0,-1.7629074E0,-7.683333E0,3.9922622E-1,3.2086185E1,-5.8112617E0,1.7396452E1,1.9280049E0,7.7168818E0,-2.952195E0,1.1399479E0,1.3900894E0,6.535746E0],"categories":[],"categories_nodes":[],"categories_segments":[],"categories_sizes":[],"default_left":[0,0,0,0,0,0,0,0,0,0,0,0,0,0,0],"id":15,"left_children":[1,3,5,-1,-1,7,9,11,13,-1,-1,-1,-1,-1,-1],"loss_changes":[2.3688016E4,6.830801E2,1.6642396E4,0E0,0E0,1.4990514E4,8.1511914E2,1.1152887E4,4.8513555E3,0E0,0E0,0E0,0E0,0E0,0E0],"parents":[2147483647,0,0,1,1,2,2,5,5,6,6,7,7,8,8],"right_children":[2,4,6,-1,-1,8,10,12,14,-1,-1,-1,-1,-1,-1],"split_conditions":[-1.3985676E0,-3.3513778E-1,1.5475053E0,-1.7629074E0,-7.683333E0,5.8392817E-1,-7.737892E-1,2.3836899E-1,2.3924686E-1,1.9280049E0,7.7168818E0,-2.952195E0,1.1399479E0,1.3900894E0,6.535746E0],"split_indices":[13,6,13,0,0,14,14,3,7,0,0,0,0,0,0],"split_type":[0,0,0,0,0,0,0,0,0,0,0,0,0,0,0],"sum_hessian":[1.6E2,1.4E1,1.46E2,5E0,9E0,1.32E2,1.4E1,9.9E1,3.3E1,6E0,8E0,5.5E1,4.4E1,2.4E1,9E0],"tree_param":{"num_deleted":"0","num_feature":"20","num_nodes":"15","size_leaf_vector":"1"}},{"base_weights":[3.6995962E-1,-1.1772335E1,1.0188732E1,-7.6713753E0,-5.3089733E0,1.2487726E0,2.3146465E1,-1.250638E1,7.5957737E0,-3.0931804E0,5.2685256E0,9.317839E0,7.47414E0,-3.420063E0,1.8568213E0,-1.8519471E0,4.440521E0,-6.646728E-1,2.4952402E0,4.2362237E0,-1.04311645E-1],"categories":[],"categories_nodes":[],"categories_segments":[],"categories_sizes":[],"default_left":[0,0,0,0,0,0,0,0,0,0,0,0,0,0,0,0,0,0,0,0,0],"id":16,"left_children":[1,3,5,-1,7,9,11,13,15,-1,17,19,-1,-1,-1,-1,-1,-1,-1,-1,-1],"loss_changes":[2.026826E4,1.19532295E4,1.0695798E4,0E0,6.7078076E3,4.485538E3,5.640213E3,5.314121E3,7.7013867E3,0E0,3.5077803E3,3.1314702E3,0E0,0E0,0E0,0E0,0E0,0E0,0E0,0E0,0E0],"parents":[2147483647,0,0,1,1,2,2,4,4,5,5,6,6,7,7,8,8,10,10,11,11],"right_children":[2,4,6,-1,8,10,12,14,16,-1,18,20,-1,-1,-1,-1,-1,-1,-1,-1,-1],"split_conditions":[-1.7280173E-1,-7.9252076E-1,3.7640953E-1,-7.6713753E0,5.963037E-2,-1.1533324E0,4.7635776E-1,1.2389463E0,3.82989E-1,-3.0931804E0,3.3802348E-1,-3.177151E-1,7.47414E0,-3.420063E0,1.8568213E0,-1.8519471E0,4.440521E0,-6.646728E-1,2.4952402E0,4.2362237E0,-1.04311645E-1],"split_indices":[8,4,4,0,13,4,19,9,10,0,12,15,0,0,0,0,0,0,0,0,0],"split_type":[0,0,0,0,0,0,0,0,0,0,0,0,0,0,0,0,0,0,0,0,0],"sum_hessian":[1.6E2,7.1E1,8.9E1,9E0,6.2E1,5.6E1,3.3E1,4E1,2.2E1,8E0,4.8E1,2.1E1,1.2E1,3.4E1,6E0,1.1E1,1.1E1,2.3E1,2.5E1,7E0,1.4E1],"tree_param":{"num_deleted":"0","num_feature":"20","num_nodes":"21","size_leaf_vector":"1"}},{"base_weights":[4.0316206E-1,-1.0485301E1,8.796187E0,-1.6466642E1,6.270422E0,-7.0222535E0,1.4288454E1,-2.668153E1,-2.2870018E0,-2.9477176E-1,2.3836248E0,-1.2610786E1,1.1033902E0,3.1943438E0,2.4033773E1,-7.5554795E0,-1.8085871E0,-2.3119354E0,1.7468891E0,-3.5630774E-1,-3.243061E0,-6.395132E-1,3.2699757E0,-2.3082303E-1,5.6171184E0],"categories":[],"categories_nodes":[],"categories_segments":[],"categories_sizes":[],"default_left":[0,0,0,0,0,0,0,0,0,0,0,0,0,0,0,0,0,0,0,0,0,0,0,0,0],"id":17,"left_children":[1,3,5,7,9,11,13,15,17,-1,-1,19,-1,21,23,-1,-1,-1,-1,-1,-1,-1,-1,-1,-1],"loss_changes":[1.5536655E4,7.9530635E3,8.856611E3,7.7481924E3,1.1146765E3,2.3241743E3,7.454124E3,4.461162E3,3.4742385E3,0E0,0E0,6.392842E2,0E0,3.6512634E3,4.0940898E3,0E0,0E0,0E0,0E0,0E0,0E0,0E0,0E0,0E0,0E0],"parents":[2147483647,0,0,1,1,2,2,3,3,4,4,5,5,6,6,7,7,8,8,11,11,13,13,14,14],"right_children":[2,4,6,8,10,12,14,16,18,-1,-1,20,-1,22,24,-1,-1,-1,-1,-1,-1,-1,-1,-1,-1],"split_conditions":[1.05894454E-1,5.049873E-1,-6.292634E-1,2.3836899E-1,3.891592E-1,5.1378596E-1,3.800348E-2,-2.3415338E-1,-3.0920908E-1,-2.9477176E-1,2.3836248E0,-1.8565898E-1,1.1033902E0,4.535343E-1,-1.1196175E0,-7.5554795E0,-1.8085871E0,-2.3119354E0,1.7468891E0,-3.5630774E-1,-3.243061E0,-6.395132E-1,3.2699757E0,-2.3082303E-1,5.6171184E0],"split_indices":[4,13,8,3,18,9,14,8,14,0,0,18,0,12,10,0,0,0,0,0,0,0,0,0,0],"split_type":[0,0,0,0,0,0,0,0,0,0,0,0,0,0,0,0,0,0,0,0,0,0,0,0,0],"sum_hessian":[1.6E2,6.9E1,9.1E1,5.1E1,1.8E1,2.3E1,6.8E1,2.7E1,2.4E1,9E0,9E0,1.6E1,7E0,3.5E1,3.3E1,1.3E1,1.4E1,1.3E1,1.1E1,6E0,1E1,2.6E1,9E0,5E0,2.8E1],"tree_param":{"num_deleted":"0","num_feature":"20","num_nodes":"25","size_leaf_vector":"1"}},{"base_weights":[2.4254602E-1,-4.3922453E0,1.692402E1,-1.8554974E1,2.2283711E0,9.0271395E-1,2.3451744E1,-6.4843483E0,-8.659876E0,-3.7802632E0,1.3623312E1,1.0977485E0,-8.786549E-1,1.0812958E0,2.8571978E1,-2.7331815E0,7.517807E-1,-1.7500002E0,1.9475268E0,4.161136E0,-1.1654624E0,1.2498797E0,6.833908E0],"categories":[],"categories_nodes":[],"categories_segments":[],"categories_sizes":[],"default_left":[0,0,0,0,0,0,0,0,0,0,0,0,0,0,0,0,0,0,0,0,0,0,0],"id":18,"left_children":[1,3,5,7,9,11,13,-1,15,17,19,-1,-1,-1,21,-1,-1,-1,-1,-1,-1,-1,-1],"loss_changes":[1.3153736E4,1.2710268E4,3.714997E3,4.414157E3,6.781648E3,5.1135956E2,1.5619707E3,0E0,2.2660598E3,4.857953E3,5.3860137E3,0E0,0E0,0E0,1.2255566E3,0E0,0E0,0E0,0E0,0E0,0E0,0E0,0E0],"parents":[2147483647,0,0,1,1,2,2,3,3,4,4,5,5,6,6,8,8,9,9,10,10,14,14],"right_children":[2,4,6,8,10,12,14,-1,16,18,20,-1,-1,-1,22,-1,-1,-1,-1,-1,-1,-1,-1],"split_conditions":[9.7157097E-1,-5.698329E-1,-1.8319662E-1,-6.1432314E-1,5.583269E-1,1.3728485E0,-7.128458E-1,-6.4843483E0,2.3924686E-1,9.218015E-1,4.847328E-1,1.0977485E0,-8.786549E-1,1.0812958E0,-5.5055195E-1,-2.7331815E0,7.517807E-1,-1.7500002E0,1.9475268E0,4.161136E0,-1.1654624E0,1.2498797E0,6.833908E0],"split_indices":[7,13,9,4,4,7,8,0,7,8,17,0,0,0,3,0,0,0,0,0,0,0,0],"split_type":[0,0,0,0,0,0,0,0,0,0,0,0,0,0,0,0,0,0,0,0,0,0,0],"sum_hessian":[1.6E2,1.28E2,3.2E1,3.8E1,9E1,1.1E1,2.1E1,1.1E1,2.7E1,6.1E1,2.9E1,6E0,5E0,7E0,1.4E1,1.9E1,8E0,4.6E1,1.5E1,2.1E1,8E0,5E0,9E0],"tree_param":{"num_deleted":"0","num_feature":"20","num_nodes":"23","size_leaf_vector":"1"}},{"base_weights":[3.2105628E-1,-1.7982908E1,3.7798097E0,-0E0,-2.8605072E1,8.541466E-1,5.322068E0,-4.3604738E-1,4.5100173E-1,-7.010817E0,-1.2727445E0,-1.2788364E0,4.5766983E0,-1.2213755E0,1.4121225E0],"categories":[],"categories_nodes":[],"categories_segments":[],"categories_sizes":[],"default_left":[0,0,0,0,0,0,0,0,0,0,0,0,0,0,0],"id":19,"left_children":[1,3,5,7,9,11,-1,-1,-1,-1,-1,13,-1,-1,-1],"loss_changes":[1.0757422E4,5.1788584E3,9.383031E3,9.8384964E1,1.2401816E3,6.391975E3,0E0,0E0,0E0,0E0,0E0,5.246584E3,0E0,0E0,0E0],"parents":[2147483647,0,0,1,1,2,2,3,3,4,4,5,5,11,11],"right_children":[2,4,6,8,10,12,-1,-1,-1,-1,-1,14,-1,-1,-1],"split_conditions":[-1.0777447E0,-1.1676592E-1,1.5475053E0,-2.788834E-1,-2.4606249E-1,1.9541575E0,5.322068E0,-4.3604738E-1,4.5100173E-1,-7.010817E0,-1.2727445E0,2.858654E-1,4.5766983E0,-1.2213755E0,1.4121225E0],"split_indices":[9,17,13,4,8,4,0,0,0,0,0,14,0,0,0],"split_type":[0,0,0,0,0,0,0,0,0,0,0,0,0,0,0],"sum_hessian":[1.6E2,2.2E1,1.38E2,1E1,1.2E1,1.27E2,1.1E1,5E0,5E0,7E0,5E0,1.2E2,7E0,7.7E1,4.3E1],"tree_param":{"num_deleted":"0","num_feature":"20","num_nodes":"15","size_leaf_vector":"1"}},{"base_weights":[3.0959883E-1,-5.7350125E0,9.608808E0,-1.92482E1,5.179073E-2,-3.2125165E0,1.3975684E1,-5.0536284E0,1.2902063E-1,-3.851295E0,1.3085235E1,-1.0068325E0,1.7863125E1,-2.3855746E0,4.467443E-1,-6.146075E-1,4.791599E0,2.9257333E-1,4.1395445E0],"categories":[],"categories_nodes":[],"categories_segments":[],"categories_sizes":[],"default_left":[0,0,0,0,0,0,0,0,0,0,0,0,0,0,0,0,0,0,0],"id":20,"left_children":[1,3,5,7,9,-1,11,-1,-1,13,15,-1,17,-1,-1,-1,-1,-1,-1],"loss_changes":[9.557947E3,8.097785E3,8.629209E3,3.8432021E3,4.1874834E3,0E0,4.9092637E3,0E0,0E0,3.2488105E3,3.7479033E3,0E0,2.1751855E3,0E0,0E0,0E0,0E0,0E0,0E0],"parents":[2147483647,0,0,1,1,2,2,3,3,4,4,6,6,9,9,10,10,12,12],"right_children":[2,4,6,8,10,-1,12,-1,-1,14,16,-1,18,-1,-1,-1,-1,-1,-1],"split_conditions":[2.502002E-1,-5.698329E-1,-1.5311075E0,5.9134924E-1,1.1143217E0,-3.2125165E0,-9.600463E-1,-5.0536284E0,1.2902063E-1,-3.8713065E-1,7.5955264E-2,-1.0068325E0,-7.424842E-1,-2.3855746E0,4.467443E-1,-6.146075E-1,4.791599E0,2.9257333E-1,4.1395445E0],"split_indices":[7,13,8,15,9,0,3,0,0,14,4,0,5,0,0,0,0,0,0],"split_type":[0,0,0,0,0,0,0,0,0,0,0,0,0,0,0,0,0,0,0],"sum_hessian":[1.6E2,9.8E1,6.2E1,2.6E1,7.2E1,7E0,5.5E1,1.9E1,7E0,5.8E1,1.4E1,9E0,4.6E1,2.3E1,3.5E1,7E0,7E0,8E0,3.8E1],"tree_param":{"num_deleted":"0","num_feature":"20","num_nodes":"19","size_leaf_vector":"1"}},{"base_weights":[1.7029548E-1,-1.8617655E1,2.5419483E0,-7.021753E-1,-4.5232387E0,-1.2289596E0,1.220248E1,7.2863975E0,-5.06752E0,-1.574452E0,1.850156E1,-4.360221E-1,4.751997E0,-2.4804707E0,2.4508451E-1,9.242837E-1,-1.8083715E0,6.8537056E-1,5.01644E0],"categories":[],"categories_nodes":[],"categories_segments":[],"categories_sizes":[],"default_left":[0,0,0,0,0,0,0,0,0,0,0,0,0,0,0,0,0,0,0],"id":21,"left_children":[1,3,5,-1,-1,7,9,11,13,15,17,-1,-1,-1,-1,-1,-1,-1,-1],"loss_changes":[7.556627E3,6.9842773E2,5.597704E3,0E0,0E0,3.8737808E3,3.9111294E3,6.0722085E3,3.8371165E3,1.0505792E3,2.489253E3,0E0,0E0,0E0,0E0,0E0,0E0,0E0,0E0],"parents":[2147483647,0,0,1,1,2,2,5,5,6,6,7,7,8,8,9,9,10,10],"right_children":[2,4,6,-1,-1,8,10,12,14,16,18,-1,-1,-1,-1,-1,-1,-1,-1],"split_conditions":[-1.3985676E0,-3.3513778E-1,5.868571E-1,-7.021753E-1,-4.5232387E0,-3.5962966E-1,-9.206736E-1,5.820977E-1,-3.8713065E-1,4.4947392E-1,-5.8275867E-1,-4.360221E-1,4.751997E0,-2.4804707E0,2.4508451E-1,9.242837E-1,-1.8083715E0,6.8537056E-1,5.01644E0],"split_indices":[13,6,8,0,0,0,7,18,14,11,3,0,0,0,0,0,0,0,0],"split_type":[0,0,0,0,0,0,0,0,0,0,0,0,0,0,0,0,0,0,0],"sum_hessian":[1.6E2,1.4E1,1.46E2,5E0,9E0,1.08E2,3.8E1,3.2E1,7.6E1,1.3E1,2.5E1,2.3E1,9E0,3.3E1,4.3E1,8E0,5E0,1E1,1.5E1],"tree_param":{"num_deleted":"0","num_feature":"20","num_nodes":"19","size_leaf_vector":"1"}},{"base_weights":[1.8450548E-1,-2.0449133E0,1.7959227E1,-1.35744E1,1.3580338E0,7.5933474E-1,4.303694E0,-4.2093596E0,-5.9206986E0,-2.1149964E0,1.1000507E1,-1.7621844E0,6.792206E-1,-1.2173246E0,8.2264656E-1,4.4668713E0,3.333677E-2],"categories":[],"categories_nodes":[],"categories_segments":[],"categories_sizes":[],"default_left":[0,0,0,0,0,0,0,0,0,0,0,0,0,0,0,0,0],"id":22,"left_children":[1,3,5,7,9,-1,-1,11,-1,13,15,-1,-1,-1,-1,-1,-1],"loss_changes":[6.7539575E3,6.040974E3,4.9862842E2,4.563274E3,4.1862227E3,0E0,0E0,1.1403599E3,0E0,2.4295916E3,3.9884187E3,0E0,0E0,0E0,0E0,0E0,0E0],"parents":[2147483647,0,0,1,1,2,2,3,3,4,4,7,7,9,9,10,10],"right_children":[2,4,6,8,10,-1,-1,12,-1,14,16,-1,-1,-1,-1,-1,-1],"split_conditions":[1.5475053E0,-9.594392E-1,-5.312143E-1,5.866938E-1,7.674347E-1,7.5933474E-1,4.303694E0,3.8406545E-1,-5.9206986E0,5.3450567E-1,-2.950899E-1,-1.7621844E0,6.792206E-1,-1.2173246E0,8.2264656E-1,4.4668713E0,3.333677E-2],"split_indices":[13,7,4,17,9,0,0,4,0,5,2,0,0,0,0,0,0],"split_type":[0,0,0,0,0,0,0,0,0,0,0,0,0,0,0,0,0],"sum_hessian":[1.6E2,1.46E2,1.4E1,3E1,1.16E2,5E0,9E0,2.3E1,7E0,8.8E1,2.8E1,1.4E1,9E0,5.4E1,3.4E1,1.1E1,1.7E1],"tree_param":{"num_deleted":"0","num_feature":"20","num_nodes":"17","size_leaf_vector":"1"}},{"base_weights":[2.1805586E-1,-1.3201879E1,2.7582514E0,-1.8819302E1,6.682659E-1,6.7871416E-1,1.8927479E1,-2.3816751E-1,-5.068082E0,-3.4279232E0,6.5937867E0,1.1795038E0,4.7193394E0,-1.2230748E0,1.5131518E0,-2.0142124E0,1.9281349E0],"categories":[],"categories_nodes":[],"categories_segments":[],"categories_sizes":[],"default_left":[0,0,0,0,0,0,0,0,0,0,0,0,0,0,0,0,0],"id":23,"left_children":[1,3,5,7,-1,9,11,-1,-1,13,15,-1,-1,-1,-1,-1,-1],"loss_changes":[5.7859106E3,2.8544785E3,4.704861E3,2.2101548E3,0E0,3.3257666E3,2.186372E2,0E0,0E0,2.62158E3,3.32805E3,0E0,0E0,0E0,0E0,0E0,0E0],"parents":[2147483647,0,0,1,1,2,2,3,3,5,5,6,6,9,9,10,10],"right_children":[2,4,6,8,-1,10,12,-1,-1,14,16,-1,-1,-1,-1,-1,-1],"split_conditions":[-1.0777447E0,6.4768857E-1,1.5475053E0,-1.2754913E-1,6.682659E-1,2.502002E-1,1.252245E-1,-2.3816751E-1,-5.068082E0,1.0800481E0,-1.5311075E0,1.1795038E0,4.7193394E0,-1.2230748E0,1.5131518E0,-2.0142124E0,1.9281349E0],"split_indices":[9,13,13,17,0,7,4,0,0,3,8,0,0,0,0,0,0],"split_type":[0,0,0,0,0,0,0,0,0,0,0,0,0,0,0,0,0],"sum_hessian":[1.6E2,2.2E1,1.38E2,1.6E1,6E0,1.27E2,1.1E1,6E0,1E1,7.6E1,5.1E1,6E0,5E0,6.3E1,1.3E1,6E0,4.5E1],"tree_param":{"num_deleted":"0","num_feature":"20","num_nodes":"17","size_leaf_vector":"1"}},{"base_weights":[2.188346E-1,-5.6083937E0,4.939847E0,4.7680932E-1,-1.3254352E1,1.668624E0,1.6526217E1,-4.2577667E0,6.9155927E0,-2.1583376E1,-2.864151E0,-3.750967E-2,2.4829001E0,4.5377383E0,1.9786625E-1,-1.4566581E0,1.0469851E0,2.5689E0,-1.8336381E-1,-7.803959E-1,-5.345861E0,-1.7787279E0,1.2955896E0,-4.6447167E-1,1.2995858E0],"categories":[],"categories_nodes":[],"categories_segments":[],"categories_sizes":[],"default_left":[0,0,0,0,0,0,0,0,0,0,0,0,0,0,0,0,0,0,0,0,0,0,0,0,0],"id":24,"left_children":[1,3,5,7,9,11,13,15,17,19,21,23,-1,-1,-1,-1,-1,-1,-1,-1,-1,-1,-1,-1,-1],"loss_changes":[4.676404E3,3.5932217E3,3.3884797E3,1.5853313E3,2.5843828E3,1.4754604E3,1.7553247E3,1.0563451E3,1.1043639E3,1.0550215E3,1.4757838E3,1.1571731E3,0E0,0E0,0E0,0E0,0E0,0E0,0E0,0E0,0E0,0E0,0E0,0E0,0E0],"parents":[2147483647,0,0,1,1,2,2,3,3,4,4,5,5,6,6,7,7,8,8,9,9,10,10,11,11],"right_children":[2,4,6,8,10,12,14,16,18,20,22,24,-1,-1,-1,-1,-1,-1,-1,-1,-1,-1,-1,-1,-1],"split_conditions":[-1.7280173E-1,1.4125714E-1,1.1143217E0,-6.506426E-1,-4.5411218E-2,1.8820245E0,1.8947983E-1,4.8206672E-1,5.113457E-3,-2.5890496E-1,2.8555408E-1,1.1059004E0,2.4829001E0,4.5377383E0,1.9786625E-1,-1.4566581E0,1.0469851E0,2.5689E0,-1.8336381E-1,-7.803959E-1,-5.345861E0,-1.7787279E0,1.2955896E0,-4.6447167E-1,1.2995858E0],"split_indices":[8,17,9,8,9,13,2,6,0,10,18,8,0,0,0,0,0,0,0,0,0,0,0,0,0],"split_type":[0,0,0,0,0,0,0,0,0,0,0,0,0,0,0,0,0,0,0,0,0,0,0,0,0],"sum_hessian":[1.6E2,7.1E1,8.9E1,4.2E1,2.9E1,7.4E1,1.5E1,2.5E1,1.7E1,1.3E1,1.6E1,6.8E1,6E0,9E0,6E0,2E1,5E0,8E0,9E0,5E0,8E0,1E1,6E0,5.3E1,1.5E1],"tree_param":{"num_deleted":"0","num_feature":"20","num_nodes":"25","size_leaf_vector":"1"}},{"base_weights":[2.7870724E-1,-1.4022045E1,2.082156E0,-4.072631E0,-8.683905E-1,-2.8615515E0,3.2675233E0,-9.291683E0,4.7650337E0,-2.4904861E0,-1.30589E-1,3.7926874E-1,2.3795612E0],"categories":[],"categories_nodes":[],"categories_segments":[],"categories_sizes":[],"default_left":[0,0,0,0,0,0,0,0,0,0,0,0,0],"id":25,"left_children":[1,3,5,-1,-1,-1,7,9,11,-1,-1,-1,-1],"loss_changes":[4.377562E3,6.747783E2,3.1453125E3,0E0,0E0,0E0,2.9394163E3,3.9731824E2,2.5810073E3,0E0,0E0,0E0,0E0],"parents":[2147483647,0,0,1,1,2,2,6,6,7,7,8,8],"right_children":[2,4,6,-1,-1,-1,8,10,12,-1,-1,-1,-1],"split_conditions":[-1.3985676E0,-9.37825E-1,-1.4153707E0,-4.072631E0,-8.683905E-1,-2.8615515E0,-1.4218106E0,2.3836899E-1,7.0900375E-1,-2.4904861E0,-1.30589E-1,3.7926874E-1,2.3795612E0],"split_indices":[13,3,4,0,0,0,14,3,7,0,0,0,0],"split_type":[0,0,0,0,0,0,0,0,0,0,0,0,0],"sum_hessian":[1.6E2,1.4E1,1.46E2,5E0,9E0,6E0,1.4E2,1.2E1,1.28E2,7E0,5E0,9.6E1,3.2E1],"tree_param":{"num_deleted":"0","num_feature":"20","num_nodes":"13","size_leaf_vector":"1"}},{"base_weights":[-0E0,-2.243496E0,9.279514E0,-6.2267013E0,4.6191983E0,1.3659409E1,-1.1014558E0,-1.4915059E1,-1.8406111E0,1.3690441E1,-0E0,1.5430404E1,5.4670304E-1,-5.830331E-1,-4.0716763E0,-2.3499932E0,6.675818E-2,1.6039276E-2,3.748092E0,-6.7531437E-1,1.6375364E0,1.275405E0,3.818316E0],"categories":[],"categories_nodes":[],"categories_segments":[],"categories_sizes":[],"default_left":[0,0,0,0,0,0,0,0,0,0,0,0,0,0,0,0,0,0,0,0,0,0,0],"id":26,"left_children":[1,3,5,7,9,11,-1,13,15,17,19,21,-1,-1,-1,-1,-1,-1,-1,-1,-1,-1,-1],"loss_changes":[3.531168E3,3.8919932E3,2.5296667E3,3.2208296E3,2.2428464E3,2.7521826E2,0E0,1.5509707E3,1.4429923E3,1.19202E3,1.2363354E3,6.95376E1,0E0,0E0,0E0,0E0,0E0,0E0,0E0,0E0,0E0,0E0,0E0],"parents":[2147483647,0,0,1,1,2,2,3,3,4,4,5,5,7,7,8,8,9,9,10,10,11,11],"right_children":[2,4,6,8,10,12,-1,14,16,18,20,22,-1,-1,-1,-1,-1,-1,-1,-1,-1,-1,-1],"split_conditions":[9.192289E-1,4.9671414E-1,3.8897872E-1,-4.622753E-1,-4.937566E-1,1.6087809E0,-1.1014558E0,-1.0015408E-1,-1.2803044E0,-7.122208E-1,4.086073E-1,1.5475053E0,5.4670304E-1,-5.830331E-1,-4.0716763E0,-2.3499932E0,6.675818E-2,1.6039276E-2,3.748092E0,-6.7531437E-1,1.6375364E0,1.275405E0,3.818316E0],"split_indices":[13,4,16,7,2,8,0,17,4,15,8,13,0,0,0,0,0,0,0,0,0,0,0],"split_type":[0,0,0,0,0,0,0,0,0,0,0,0,0,0,0,0,0,0,0,0,0,0,0],"sum_hessian":[1.6E2,1.32E2,2.8E1,8.4E1,4.8E1,2.2E1,6E0,2.4E1,6E1,1.3E1,3.5E1,1.7E1,5E0,1E1,1.4E1,7E0,5.3E1,5E0,8E0,2.7E1,8E0,9E0,8E0],"tree_param":{"num_deleted":"0","num_feature":"20","num_nodes":"23","size_leaf_vector":"1"}},{"base_weights":[5.7750363E-2,-1.0836691E1,1.7739639E0,-1.6480864E1,-4.7578078E-4,-2.2353458E0,6.625614E0,-8.5359734E-1,-4.050662E0,4.0369315E0,-4.8188095E0,3.41557E0,3.5289018E0,1.6324657E0,-3.701659E-1,-1.4628762E0,7.641512E-1,-2.6772836E-1,1.8744324E0],"categories":[],"categories_nodes":[],"categories_segments":[],"categories_sizes":[],"default_left":[0,0,0,0,0,0,0,0,0,0,0,0,0,0,0,0,0,0,0],"id":27,"left_children":[1,3,5,7,-1,9,11,-1,-1,13,15,17,-1,-1,-1,-1,-1,-1,-1],"loss_changes":[3.16303E3,1.3733044E3,2.942243E3,2.098396E2,0E0,1.4599828E3,2.0617869E3,0E0,0E0,7.4397095E2,1.48348E3,1.7496118E3,0E0,0E0,0E0,0E0,0E0,0E0,0E0],"parents":[2147483647,0,0,1,1,2,2,3,3,5,5,6,6,9,9,10,10,11,11],"right_children":[2,4,6,8,-1,10,12,-1,-1,14,16,18,-1,-1,-1,-1,-1,-1,-1],"split_conditions":[-1.1300694E0,6.4648956E-1,2.0706492E-4,-4.5209032E-1,-4.7578078E-4,-2.676411E-1,1.2446796E0,-8.5359734E-1,-4.050662E0,-6.717829E-2,8.474217E-1,6.167985E-2,3.5289018E0,1.6324657E0,-3.701659E-1,-1.4628762E0,7.641512E-1,-2.6772836E-1,1.8744324E0],"split_indices":[9,10,14,12,0,1,9,0,0,19,12,7,0,0,0,0,0,0,0],"split_type":[0,0,0,0,0,0,0,0,0,0,0,0,0,0,0,0,0,0,0],"sum_hessian":[1.6E2,1.8E1,1.42E2,1E1,8E0,7.9E1,6.3E1,5E0,5E0,2.2E1,5.7E1,5.4E1,9E0,1.2E1,1E1,4.5E1,1.2E1,3.2E1,2.2E1],"tree_param":{"num_deleted":"0","num_feature":"20","num_nodes":"19","size_leaf_vector":"1"}},{"base_weights":[6.300198E-2,-1.1142727E1,1.4841533E0,-3.2336464E0,-6.8613577E-1,-2.2641935E0,2.6103477E0,-6.7560065E-1,7.662445E0,-5.7514316E-1,1.6626364E0,-4.2373967E-1,1.9032754E0],"categories":[],"categories_nodes":[],"categories_segments":[],"categories_sizes":[],"default_left":[0,0,0,0,0,0,0,0,0,0,0,0,0],"id":28,"left_children":[1,3,5,-1,-1,-1,7,9,11,-1,-1,-1,-1],"loss_changes":[2.6910012E3,4.1984375E2,2.3079165E3,0E0,0E0,0E0,2.4137905E3,1.9083052E3,1.1492205E3,0E0,0E0,0E0,0E0],"parents":[2147483647,0,0,1,1,2,2,6,6,7,7,8,8],"right_children":[2,4,6,-1,-1,-1,8,10,12,-1,-1,-1,-1],"split_conditions":[-1.3985676E0,-9.37825E-1,-1.6548874E0,-3.2336464E0,-6.8613577E-1,-2.2641935E0,2.502002E-1,1.1143217E0,-9.600463E-1,-5.7514316E-1,1.6626364E0,-4.2373967E-1,1.9032754E0],"split_indices":[13,3,8,0,0,0,7,9,3,0,0,0,0],"split_type":[0,0,0,0,0,0,0,0,0,0,0,0,0],"sum_hessian":[1.6E2,1.4E1,1.46E2,5E0,9E0,8E0,1.38E2,8.6E1,5.2E1,7.2E1,1.4E1,8E0,4.4E1],"tree_param":{"num_deleted":"0","num_feature":"20","num_nodes":"13","size_leaf_vector":"1"}},{"base_weights":[-4.4657324E-2,-2.870877E0,4.9763465E0,-5.1370063E0,5.6907187E0,1.3602724E0,3.2974708E0,-1.2539885E1,-1.8993611E0,9.817341E-2,2.3083475E0,9.342758E0,-1.8719503E0,-3.1558857E0,-1.5360788E-1,-7.6532745E-1,9.7806025E-1,-7.371189E-1,7.384777E-1,-4.779238E-2,2.7977045E0,-7.472764E-1,9.458801E-1],"categories":[],"categories_nodes":[],"categories_segments":[],"categories_sizes":[],"default_left":[0,0,0,0,0,0,0,0,0,0,0,0,0,0,0,0,0,0,0,0,0,0,0],"id":29,"left_children":[1,3,5,7,9,11,-1,13,15,17,-1,19,21,-1,-1,-1,-1,-1,-1,-1,-1,-1,-1],"loss_changes":[2.4086475E3,2.2598423E3,2.3912725E3,1.985175E3,7.8910693E2,1.4440483E3,0E0,8.9782983E2,9.8125745E2,3.1285098E2,0E0,7.564436E2,5.909867E2,0E0,0E0,0E0,0E0,0E0,0E0,0E0,0E0,0E0,0E0],"parents":[2147483647,0,0,1,1,2,2,3,3,4,4,5,5,7,7,8,8,9,9,11,11,12,12],"right_children":[2,4,6,8,10,12,-1,14,16,18,-1,20,22,-1,-1,-1,-1,-1,-1,-1,-1,-1,-1],"split_conditions":[4.9671414E-1,9.192289E-1,7.368439E-1,-6.469368E-1,5.144388E-1,-4.1346517E-1,3.2974708E0,7.796605E-1,7.0117277E-1,3.891592E-1,2.3083475E0,-2.264841E-1,9.3757015E-1,-3.1558857E0,-1.5360788E-1,-7.6532745E-1,9.7806025E-1,-7.371189E-1,7.384777E-1,-4.779238E-2,2.7977045E0,-7.472764E-1,9.458801E-1],"split_indices":[4,13,8,7,10,0,0,12,1,18,0,13,10,0,0,0,0,0,0,0,0,0,0],"split_type":[0,0,0,0,0,0,0,0,0,0,0,0,0,0,0,0,0,0,0,0,0,0,0],"sum_hessian":[1.6E2,1.04E2,5.6E1,8.4E1,2E1,4.7E1,9E0,2.1E1,6.3E1,1.3E1,7E0,1.1E1,3.6E1,1.5E1,6E0,5.1E1,1.2E1,6E0,7E0,5E0,6E0,3E1,6E0],"tree_param":{"num_deleted":"0","num_feature":"20","num_nodes":"23","size_leaf_vector":"1"}},{"base_weights":[1.07877985E-1,1.30646E0,-1.0593442E1,-2.772526E-1,9.550519E0,2.2367573E-1,-3.2212052E0,-9.008064E0,9.443182E-1,1.3305602E1,1.6258067E-1,-2.233763E0,-3.422265E-1,-4.4352016E-1,8.1260747E-1,4.9222907E-1,3.3263962E0],"categories":[],"categories_nodes":[],"categories_segments":[],"categories_sizes":[],"default_left":[0,0,0,0,0,0,0,0,0,0,0,0,0,0,0,0,0],"id":30,"left_children":[1,3,5,7,9,-1,-1,11,13,15,-1,-1,-1,-1,-1,-1,-1],"loss_changes":[2.1669832E3,2.029388E3,1.2175992E3,1.4771454E3,7.3794385E2,0E0,0E0,1.4671997E2,1.2419395E3,3.7038232E2,0E0,0E0,0E0,0E0,0E0,0E0,0E0],"parents":[2147483647,0,0,1,1,2,2,3,3,4,4,7,7,8,8,9,9],"right_children":[2,4,6,8,10,-1,-1,12,14,16,-1,-1,-1,-1,-1,-1,-1],"split_conditions":[1.2374381E0,1.011463E0,-1.1165245E0,-1.046911E0,1.8947983E-1,2.2367573E-1,-3.2212052E0,-5.969743E-1,8.614388E-2,-1.5127328E-1,1.6258067E-1,-2.233763E0,-3.422265E-1,-4.4352016E-1,8.1260747E-1,4.9222907E-1,3.3263962E0],"split_indices":[17,14,5,4,2,0,0,13,10,9,0,0,0,0,0,0,0],"split_type":[0,0,0,0,0,0,0,0,0,0,0,0,0,0,0,0,0],"sum_hessian":[1.6E2,1.48E2,1.2E1,1.28E2,2E1,5E0,7E0,1.2E1,1.16E2,1.2E1,8E0,7E0,5E0,5.8E1,5.8E1,5E0,7E0],"tree_param":{"num_deleted":"0","num_feature":"20","num_nodes":"17","size_leaf_vector":"1"}},{"base_weights":[4.923523E-2,-3.7956595E0,3.1765313E0,-2.7578552E0,-1.5766108E0,1.3214338E0,1.23729E1,2.2275531E0,-5.118958E0,-1.4381508E0,5.447445E0,3.1494544E0,5.2241576E-1,-4.878071E-1,1.2473583E0,-1.3117617E0,2.1675675E-1,2.2361818E-1,-8.965934E-1,-7.920193E-1,2.260715E0],"categories":[],"categories_nodes":[],"categories_segments":[],"categories_sizes":[],"default_left":[0,0,0,0,0,0,0,0,0,0,0,0,0,0,0,0,0,0,0,0,0],"id":31,"left_children":[1,3,5,-1,7,9,11,13,15,17,19,-1,-1,-1,-1,-1,-1,-1,-1,-1,-1],"loss_changes":[2.0430275E3,1.5459669E3,1.4945165E3,0E0,9.791421E2,1.00362036E3,2.5166528E2,7.5719495E2,3.7693945E2,4.5208905E2,2.1667153E3,0E0,0E0,0E0,0E0,0E0,0E0,0E0,0E0,0E0,0E0],"parents":[2147483647,0,0,1,1,2,2,4,4,5,5,6,6,7,7,8,8,9,9,10,10],"right_children":[2,4,6,-1,8,10,12,14,16,18,20,-1,-1,-1,-1,-1,-1,-1,-1,-1,-1],"split_conditions":[-1.7280173E-1,-1.17388E0,1.200414E0,-2.7578552E0,-3.143917E-2,4.0405086E-1,1.6654744E0,1.5519068E-1,1.1195749E0,-1.03431225E-1,-3.3078924E-1,3.1494544E0,5.2241576E-1,-4.878071E-1,1.2473583E0,-1.3117617E0,2.1675675E-1,2.2361818E-1,-8.965934E-1,-7.920193E-1,2.260715E0],"split_indices":[8,3,0,0,16,3,0,10,1,19,7,0,0,0,0,0,0,0,0,0,0],"split_type":[0,0,0,0,0,0,0,0,0,0,0,0,0,0,0,0,0,0,0,0,0],"sum_hessian":[1.6E2,7.1E1,8.9E1,8E0,6.3E1,7.9E1,1E1,3.1E1,3.2E1,4.9E1,3E1,5E0,5E0,1.5E1,1.6E1,2.6E1,6E0,2.8E1,2.1E1,1.2E1,1.8E1],"tree_param":{"num_deleted":"0","num_feature":"20","num_nodes":"21","size_leaf_vector":"1"}},{"base_weights":[8.103293E-2,-8.468205E0,1.4295181E0,-6.3317263E-1,-2.819556E0,-1.7466825E-2,8.932288E0,8.00444E-2,-3.099962E-1,-1.5878586E0,6.3717346E0,1.2499307E1,1.9055396E-1,-1.2164876E0,-0E0,-5.9314378E-2,1.8023576E0,6.847482E-1,2.9773E0],"categories":[],"categories_nodes":[],"categories_segments":[],"categories_sizes":[],"default_left":[0,0,0,0,0,0,0,0,0,0,0,0,0,0,0,0,0,0,0],"id":32,"left_children":[1,3,5,7,-1,9,11,-1,-1,13,15,17,-1,-1,-1,-1,-1,-1,-1],"loss_changes":[1.9486558E3,9.403882E2,1.6144998E3,1.9612574E1,0E0,1.3253136E3,5.966653E2,0E0,0E0,7.6611084E2,4.8851538E2,5.5183838E1,0E0,0E0,0E0,0E0,0E0,0E0,0E0],"parents":[2147483647,0,0,1,1,2,2,3,3,5,5,6,6,9,9,10,10,11,11],"right_children":[2,4,6,8,-1,10,12,-1,-1,14,16,18,-1,-1,-1,-1,-1,-1,-1],"split_conditions":[-1.1300694E0,-9.139956E-2,1.011463E0,1.8471047E-1,-2.819556E0,9.192289E-1,1.8947983E-1,8.00444E-2,-3.099962E-1,-9.266983E-1,-4.5612082E-1,-1.2791759E-1,1.9055396E-1,-1.2164876E0,-0E0,-5.9314378E-2,1.8023576E0,6.847482E-1,2.9773E0],"split_indices":[9,17,14,0,0,13,2,0,0,12,5,4,0,0,0,0,0,0,0],"split_type":[0,0,0,0,0,0,0,0,0,0,0,0,0,0,0,0,0,0,0],"sum_hessian":[1.6E2,1.8E1,1.42E2,1E1,8E0,1.23E2,1.9E1,5E0,5E0,1.02E2,2.1E1,1.1E1,8E0,2.3E1,7.9E1,7E0,1.4E1,5E0,6E0],"tree_param":{"num_deleted":"0","num_feature":"20","num_nodes":"19","size_leaf_vector":"1"}},{"base_weights":[1.0561261E-1,1.1224437E0,-8.959282E0,-1.6338544E0,4.282349E0,1.5347838E-1,-2.6996953E0,5.074474E0,-2.893263E0,2.2534904E0,2.376973E0,1.7027353E0,-1.4039323E-1,2.2292367E-1,-9.623232E-1,-5.910749E-1,8.989006E-1],"categories":[],"categories_nodes":[],"categories_segments":[],"categories_sizes":[],"default_left":[0,0,0,0,0,0,0,0,0,0,0,0,0,0,0,0,0],"id":33,"left_children":[1,3,5,7,9,-1,-1,11,13,15,-1,-1,-1,-1,-1,-1,-1],"loss_changes":[1.5554896E3,1.3728557E3,8.2782654E2,7.871712E2,9.6379456E2,0E0,0E0,3.435002E2,6.1084955E2,8.165733E2,0E0,0E0,0E0,0E0,0E0,0E0,0E0],"parents":[2147483647,0,0,1,1,2,2,3,3,4,4,7,7,8,8,9,9],"right_children":[2,4,6,8,10,-1,-1,12,14,16,-1,-1,-1,-1,-1,-1,-1],"split_conditions":[1.2374381E0,2.0706492E-4,-1.1165245E0,-8.5140646E-1,1.2446796E0,1.5347838E-1,-2.6996953E0,2.7902153E-1,-5.0896364E-1,-5.0417984E-1,2.376973E0,1.7027353E0,-1.4039323E-1,2.2292367E-1,-9.623232E-1,-5.910749E-1,8.989006E-1],"split_indices":[17,14,5,1,9,0,0,2,15,5,0,0,0,0,0,0,0],"split_type":[0,0,0,0,0,0,0,0,0,0,0,0,0,0,0,0,0],"sum_hessian":[1.6E2,1.48E2,1.2E1,8E1,6.8E1,5E0,7E0,1E1,7E1,5.9E1,9E0,5E0,5E0,2.3E1,4.7E1,1.7E1,4.2E1],"tree_param":{"num_deleted":"0","num_feature":"20","num_nodes":"17","size_leaf_vector":"1"}},{"base_weights":[1.13627344E-1,-7.121906E0,1.2554581E0,-3.730797E-1,-2.4031944E0,2.808258E-1,9.022502E0,-6.187869E-1,4.6686298E-1,3.5275028E0,-2.1873171E0,3.29053E-1,2.4852424E0,-0E0,2.143265E0,-7.1407104E-1,9.7252667E-1],"categories":[],"categories_nodes":[],"categories_segments":[],"categories_sizes":[],"default_left":[0,0,0,0,0,0,0,0,0,0,0,0,0,0,0,0,0],"id":34,"left_children":[1,3,5,7,-1,9,11,-1,-1,13,15,-1,-1,-1,-1,-1,-1],"loss_changes":[1.3961628E3,7.1247876E2,1.0815162E3,1.4812671E2,0E0,1.131063E3,2.7139453E2,0E0,0E0,1.5377524E3,8.6425006E2,0E0,0E0,0E0,0E0,0E0,0E0],"parents":[2147483647,0,0,1,1,2,2,3,3,5,5,6,6,9,9,10,10],"right_children":[2,4,6,8,-1,10,12,-1,-1,14,16,-1,-1,-1,-1,-1,-1],"split_conditions":[-1.1300694E0,-1.1806852E-1,1.5475053E0,6.4648956E-1,-2.4031944E0,-2.8487548E-1,1.252245E-1,-6.187869E-1,4.6686298E-1,5.1378596E-1,1.2969946E0,3.29053E-1,2.4852424E0,-0E0,2.143265E0,-7.1407104E-1,9.7252667E-1],"split_indices":[9,18,13,10,0,2,4,0,0,9,8,0,0,0,0,0,0],"split_type":[0,0,0,0,0,0,0,0,0,0,0,0,0,0,0,0,0],"sum_hessian":[1.6E2,1.8E1,1.42E2,1E1,8E0,1.31E2,1.1E1,5E0,5E0,5.6E1,7.5E1,6E0,5E0,4.1E1,1.5E1,6.5E1,1E1],"tree_param":{"num_deleted":"0","num_feature":"20","num_nodes":"17","size_leaf_vector":"1"}},{"base_weights":[1.7499128E-1,-1.8927056E0,9.8025113E-1,-5.980818E0,1.830237E0,-1.7507021E0,8.281844E-2,-2.5105748E-1,4.97242E0,-9.5344204E-1,2.6572964E-1,5.0528276E-1,2.4627645E0],"categories":[],"categories_nodes":[],"categories_segments":[],"categories_sizes":[],"default_left":[0,0,0,0,0,0,0,0,0,0,0,0,0],"id":35,"left_children":[1,-1,3,5,7,-1,-1,9,11,-1,-1,-1,-1],"loss_changes":[1.3100662E3,0E0,9.753696E2,3.5396283E2,9.57417E2,0E0,0E0,6.877583E2,8.562832E2,0E0,0E0,0E0,0E0],"parents":[2147483647,0,0,2,2,3,3,4,4,7,7,8,8],"right_children":[2,-1,4,6,8,-1,-1,10,12,-1,-1,-1,-1],"split_conditions":[-1.6685992E0,-1.8927056E0,-1.3776693E0,5.9992874E-1,3.8406545E-1,-1.7507021E0,8.281844E-2,-9.206736E-1,7.368439E-1,-9.5344204E-1,2.6572964E-1,5.0528276E-1,2.4627645E0],"split_indices":[13,0,8,10,4,0,0,7,8,0,0,0,0],"split_type":[0,0,0,0,0,0,0,0,0,0,0,0,0],"sum_hessian":[1.6E2,8E0,1.52E2,1.3E1,1.39E2,8E0,5E0,8.6E1,5.3E1,2E1,6.6E1,4.5E1,8E0],"tree_param":{"num_deleted":"0","num_feature":"20","num_nodes":"13","size_leaf_vector":"1"}},{"base_weights":[1.0119733E-1,-2.5890048E0,2.5663702E0,-6.145151E0,1.2216771E0,-2.2599551E-1,6.0652676E0,-2.6599684E0,-2.23658E0,-7.432709E-1,1.1400474E0,-2.034486E0,3.535562E0,9.819147E0,6.713781E-1,-7.525046E-1,4.964896E-1,2.571644E-1,-1.1504405E0,-7.356402E-1,6.3335323E-1,1.2634662E0,-1.1053816E-1,1.1850448E-1,2.8818347E0,-8.308574E-1,7.8084344E-1],"categories":[],"categories_nodes":[],"categories_segments":[],"categories_sizes":[],"default_left":[0,0,0,0,0,0,0,0,0,0,0,0,0,0,0,0,0,0,0,0,0,0,0,0,0,0,0],"id":36,"left_children":[1,3,5,7,9,11,13,-1,15,17,-1,19,21,23,25,-1,-1,-1,-1,-1,-1,-1,-1,-1,-1,-1,-1],"loss_changes":[1.1274257E3,1.1450426E3,8.8807996E2,1.0226748E3,4.09504E2,4.003111E2,7.559778E2,0E0,2.9409442E2,3.9147623E2,0E0,4.0123798E2,2.4506586E2,9.013679E2,4.2380917E2,0E0,0E0,0E0,0E0,0E0,0E0,0E0,0E0,0E0,0E0,0E0,0E0],"parents":[2147483647,0,0,1,1,2,2,3,3,4,4,5,5,6,6,8,8,9,9,11,11,12,12,13,13,14,14],"right_children":[2,4,6,8,10,12,14,-1,16,18,-1,20,22,24,26,-1,-1,-1,-1,-1,-1,-1,-1,-1,-1,-1,-1],"split_conditions":[-2.2868061E-2,-7.016571E-2,2.0706492E-4,-2.975635E-1,7.6883966E-1,6.427228E-1,1.8947983E-1,-2.6599684E0,9.5001584E-1,3.2408398E-1,1.1400474E0,1.2269332E0,1.6846098E-1,-6.200401E-2,4.215866E-1,-7.525046E-1,4.964896E-1,2.571644E-1,-1.1504405E0,-7.356402E-1,6.3335323E-1,1.2634662E0,-1.1053816E-1,1.1850448E-1,2.8818347E0,-8.308574E-1,7.8084344E-1],"split_indices":[3,5,14,4,7,4,2,0,6,17,0,10,6,9,2,0,0,0,0,0,0,0,0,0,0,0,0],"split_type":[0,0,0,0,0,0,0,0,0,0,0,0,0,0,0,0,0,0,0,0,0,0,0,0,0,0,0],"sum_hessian":[1.6E2,7.6E1,8.4E1,3.8E1,3.8E1,4.9E1,3.5E1,9E0,2.9E1,2.9E1,9E0,3.5E1,1.4E1,1.8E1,1.7E1,2.3E1,6E0,2.3E1,6E0,2.8E1,7E0,7E0,7E0,8E0,1E1,6E0,1.1E1],"tree_param":{"num_deleted":"0","num_feature":"20","num_nodes":"27","size_leaf_vector":"1"}},{"base_weights":[1.2373774E-1,-4.715137E0,1.3884928E0,-8.271514E0,1.9679084E0,1.3188942E-1,7.391977E0,3.2036978E-1,-1.1396569E1,7.891883E-1,-1.0859784E-1,-2.4992304E0,2.384666E0,1.7036784E0,2.3459435E0,-2.8996131E0,-2.3123811E-1,-8.374405E-1,7.834518E-1,-1.0006558E0,8.7069243E-1,7.565497E-1,-1.557933E-1],"categories":[],"categories_nodes":[],"categories_segments":[],"categories_sizes":[],"default_left":[0,0,0,0,0,0,0,0,0,0,0,0,0,0,0,0,0,0,0,0,0,0,0],"id":37,"left_children":[1,3,5,7,9,11,13,-1,15,-1,-1,17,19,21,-1,-1,-1,-1,-1,-1,-1,-1,-1],"loss_changes":[1.0358799E3,9.2585516E2,9.985174E2,8.513827E2,9.698514E1,7.23067E2,4.4072522E2,0E0,4.8832812E2,0E0,0E0,6.890797E2,1.0676018E3,1.03326225E2,0E0,0E0,0E0,0E0,0E0,0E0,0E0,0E0,0E0],"parents":[2147483647,0,0,1,1,2,2,3,3,4,4,5,5,6,6,8,8,11,11,12,12,13,13],"right_children":[2,4,6,8,10,12,14,-1,16,-1,-1,18,20,22,-1,-1,-1,-1,-1,-1,-1,-1,-1],"split_conditions":[-9.2951083E-1,1.8383452E-1,1.1143217E0,-9.9053633E-1,-4.4618344E-1,3.9447047E-2,4.365598E-1,3.2036978E-1,6.813595E-1,7.891883E-1,-1.0859784E-1,1.2723535E0,-1.0962751E0,-2.0367375E-1,2.3459435E0,-2.8996131E0,-2.3123811E-1,-8.374405E-1,7.834518E-1,-1.0006558E0,8.7069243E-1,7.565497E-1,-1.557933E-1],"split_indices":[11,4,9,14,16,10,19,0,7,0,0,18,14,11,0,0,0,0,0,0,0,0,0],"split_type":[0,0,0,0,0,0,0,0,0,0,0,0,0,0,0,0,0,0,0,0,0,0,0],"sum_hessian":[1.6E2,3E1,1.3E2,1.9E1,1.1E1,1.12E2,1.8E1,5E0,1.4E1,5E0,6E0,5.1E1,6.1E1,1.1E1,7E0,9E0,5E0,4.2E1,9E0,1.1E1,5E1,5E0,6E0],"tree_param":{"num_deleted":"0","num_feature":"20","num_nodes":"23","size_leaf_vector":"1"}},{"base_weights":[1.1574287E-1,-6.993732E0,8.6361873E-1,-2.0890102E0,1.9916955E-2,-7.6350406E-2,6.054358E0,-1.1685954E0,4.4349623E0,-0E0,8.050772E0,-3.956594E-1,7.086489E-1,-1.8782906E-1,1.1921403E0,4.3054596E-1,1.867486E0],"categories":[],"categories_nodes":[],"categories_segments":[],"categories_sizes":[],"default_left":[0,0,0,0,0,0,0,0,0,0,0,0,0,0,0,0,0],"id":38,"left_children":[1,3,5,-1,-1,7,9,11,13,-1,15,-1,-1,-1,-1,-1,-1],"loss_changes":[8.952452E2,4.1759247E2,7.6565405E2,0E0,0E0,6.8458765E2,2.8694257E2,4.6303378E2,2.5941907E2,0E0,1.3112671E1,0E0,0E0,0E0,0E0,0E0,0E0],"parents":[2147483647,0,0,1,1,2,2,5,5,6,6,7,7,8,8,10,10],"right_children":[2,4,6,-1,-1,8,10,12,14,-1,16,-1,-1,-1,-1,-1,-1],"split_conditions":[-1.405567E0,-1.3958962E-1,1.011463E0,-2.0890102E0,1.9916955E-2,9.192289E-1,-5.505369E-1,1.1059004E0,-5.1642966E-1,-0E0,-5.5830175E-1,-3.956594E-1,7.086489E-1,-1.8782906E-1,1.1921403E0,4.3054596E-1,1.867486E0],"split_indices":[9,7,14,0,0,13,8,8,5,0,0,0,0,0,0,0,0],"split_type":[0,0,0,0,0,0,0,0,0,0,0,0,0,0,0,0,0],"sum_hessian":[1.6E2,1.1E1,1.49E2,6E0,5E0,1.3E2,1.9E1,1.08E2,2.2E1,6E0,1.3E1,9.5E1,1.3E1,5E0,1.7E1,5E0,8E0],"tree_param":{"num_deleted":"0","num_feature":"20","num_nodes":"17","size_leaf_vector":"1"}},{"base_weights":[1.4234845E-1,-2.1729374E0,2.2639935E0,-1.8722725E0,-7.165783E-1,6.313607E-2,5.4398203E0,-2.4379668E0,2.2465572E0,-3.2795622E0,2.163369E0,-0E0,8.508569E0,3.0386952E-1,-7.672102E-1,-3.4158608E-1,9.106118E-1,2.0635779E-1,-9.58183E-1,-2.7045566E-1,9.979933E-1,-2.7716324E-1,3.6304098E-1,3.040826E-1,2.3190897E0],"categories":[],"categories_nodes":[],"categories_segments":[],"categories_sizes":[],"default_left":[0,0,0,0,0,0,0,0,0,0,0,0,0,0,0,0,0,0,0,0,0,0,0,0,0],"id":39,"left_children":[1,3,5,-1,7,9,11,13,15,17,19,21,23,-1,-1,-1,-1,-1,-1,-1,-1,-1,-1,-1,-1],"loss_changes":[8.352951E2,7.942865E2,6.0934607E2,0E0,4.001196E2,4.4042792E2,5.9980286E2,3.0487512E2,3.0908182E2,1.8861761E2,4.2856995E2,5.7916008E1,3.8176562E2,0E0,0E0,0E0,0E0,0E0,0E0,0E0,0E0,0E0,0E0,0E0,0E0],"parents":[2147483647,0,0,1,1,2,2,4,4,5,5,6,6,7,7,8,8,9,9,10,10,11,11,12,12],"right_children":[2,4,6,-1,8,10,12,14,16,18,20,22,24,-1,-1,-1,-1,-1,-1,-1,-1,-1,-1,-1,-1],"split_conditions":[-2.2868061E-2,-1.3340255E0,3.868085E-1,-1.8722725E0,4.3693817E-1,-7.019917E-1,2.3007075E-1,-5.3216857E-1,-1.4451867E-1,-7.85986E-1,1.3429649E-1,8.2822967E-1,-9.5464244E-2,3.0386952E-1,-7.672102E-1,-3.4158608E-1,9.106118E-1,2.0635779E-1,-9.58183E-1,-2.7045566E-1,9.979933E-1,-2.7716324E-1,3.6304098E-1,3.040826E-1,2.3190897E0],"split_indices":[3,11,4,0,13,14,19,1,18,19,15,3,8,0,0,0,0,0,0,0,0,0,0,0,0],"split_type":[0,0,0,0,0,0,0,0,0,0,0,0,0,0,0,0,0,0,0,0,0,0,0,0,0],"sum_hessian":[1.6E2,7.6E1,8.4E1,8E0,6.8E1,5.3E1,3.1E1,4.4E1,2.4E1,1.9E1,3.4E1,1.3E1,1.8E1,1.1E1,3.3E1,9E0,1.5E1,5E0,1.4E1,1.6E1,1.8E1,8E0,5E0,8E0,1E1],"tree_param":{"num_deleted":"0","num_feature":"20","num_nodes":"25","size_leaf_vector":"1"}},{"base_weights":[1.4170216E-1,-1.642236E0,6.718291E-1,2.8693168E0,-8.4440374E-1,-2.5535638E0,4.448303E0,1.9223735E0,-2.3618088E0,9.373183E-2,-8.8532335E-1,-7.181064E-2,1.3914812E0,-5.3520644E-1,8.390245E-1,-9.8969984E-1,2.423514E-3],"categories":[],"categories_nodes":[],"categories_segments":[],"categories_sizes":[],"default_left":[0,0,0,0,0,0,0,0,0,0,0,0,0,0,0,0,0],"id":40,"left_children":[1,-1,3,5,7,9,11,13,15,-1,-1,-1,-1,-1,-1,-1,-1],"loss_changes":[7.431383E2,0E0,5.492686E2,6.3428253E2,4.350158E2,1.20182884E2,6.770431E2,4.4585736E2,4.1545303E2,0E0,0E0,0E0,0E0,0E0,0E0,0E0,0E0],"parents":[2147483647,0,0,2,2,3,3,4,4,5,5,6,6,7,7,8,8],"right_children":[2,-1,4,6,8,10,12,14,16,-1,-1,-1,-1,-1,-1,-1,-1],"split_conditions":[-1.9782252E0,-1.642236E0,-2.8487548E-1,-1.1808128E0,-3.092124E-1,-2.841551E-1,-4.5709625E-1,-6.8198425E-1,2.112837E-1,9.373183E-2,-8.8532335E-1,-7.181064E-2,1.3914812E0,-5.3520644E-1,8.390245E-1,-9.8969984E-1,2.423514E-3],"split_indices":[13,0,2,14,15,15,7,12,15,0,0,0,0,0,0,0,0],"split_type":[0,0,0,0,0,0,0,0,0,0,0,0,0,0,0,0,0],"sum_hessian":[1.6E2,5E0,1.55E2,6.2E1,9.3E1,1.3E1,4.9E1,3.2E1,6.1E1,6E0,7E0,1.8E1,3.1E1,1E1,2.2E1,2.7E1,3.4E1],"tree_param":{"num_deleted":"0","num_feature":"20","num_nodes":"17","size_leaf_vector":"1"}},{"base_weights":[5.4040156E-2,-1.312363E0,6.5885925E-1,-4.0254016E0,1.3522534E0,-1.1631963E0,1.2841563E-2,-9.695854E-1,1.8758692E0,2.979826E-2,7.990518E-1],"categories":[],"categories_nodes":[],"categories_segments":[],"categories_sizes":[],"default_left":[0,0,0,0,0,0,0,0,0,0,0],"id":41,"left_children":[1,-1,3,5,7,-1,-1,-1,9,-1,-1],"loss_changes":[6.7004083E2,0E0,5.285647E2,1.6714893E2,4.9403802E2,0E0,0E0,0E0,4.7550555E2,0E0,0E0],"parents":[2147483647,0,0,2,2,3,3,4,4,8,8],"right_children":[2,-1,4,6,8,-1,-1,-1,10,-1,-1],"split_conditions":[-1.4074638E0,-1.312363E0,-1.2221278E0,5.9992874E-1,-1.7785876E0,-1.1631963E0,1.2841563E-2,-9.695854E-1,2.1209335E-1,2.979826E-2,7.990518E-1],"split_indices":[9,0,8,10,14,0,0,0,15,0,0],"split_type":[0,0,0,0,0,0,0,0,0,0,0],"sum_hessian":[1.6E2,9E0,1.51E2,1.6E1,1.35E2,1E1,6E0,7E0,1.28E2,7.4E1,5.4E1],"tree_param":{"num_deleted":"0","num_feature":"20","num_nodes":"11","size_leaf_vector":"1"}},{"base_weights":[-1.3842209E-2,1.0973506E0,-3.3406394E0,2.4651222E-1,6.4126244E0,-8.85582E0,7.797613E-1,-6.312752E-1,4.4211974E0,-2.1221092E-2,2.0396688E0,-1.9998571E-1,-2.3886364E0,-2.5686638E0,3.3233178E0,1.2777872E-1,-5.4371446E-1,1.1224688E0,1.2109063E-1,1.9059364E-1,-1.0011928E0,1.8588975E-2,1.0897228E0],"categories":[],"categories_nodes":[],"categories_segments":[],"categories_sizes":[],"default_left":[0,0,0,0,0,0,0,0,0,0,0,0,0,0,0,0,0,0,0,0,0,0,0],"id":42,"left_children":[1,3,5,7,9,11,13,15,17,-1,-1,-1,-1,19,21,-1,-1,-1,-1,-1,-1,-1,-1],"loss_changes":[6.3277344E2,5.5312756E2,1.0278435E3,4.4295074E2,4.451223E2,3.7522766E2,2.9118204E2,2.753145E2,6.60217E1,0E0,0E0,0E0,0E0,1.6070776E2,1.16829254E2,0E0,0E0,0E0,0E0,0E0,0E0,0E0,0E0],"parents":[2147483647,0,0,1,1,2,2,3,3,4,4,5,5,6,6,7,7,8,8,13,13,14,14],"right_children":[2,4,6,8,10,12,14,16,18,-1,-1,-1,-1,20,22,-1,-1,-1,-1,-1,-1,-1,-1],"split_conditions":[7.682072E-1,4.9403018E-1,-9.662367E-2,1.0450885E0,-1.4408755E-1,-3.1367262E-4,-3.1640846E-1,7.156624E-2,2.5538376E-1,-2.1221092E-2,2.0396688E0,-1.9998571E-1,-2.3886364E0,8.970662E-1,1.5628887E0,1.2777872E-1,-5.4371446E-1,1.1224688E0,1.2109063E-1,1.9059364E-1,-1.0011928E0,1.8588975E-2,1.0897228E0],"split_indices":[19,19,5,3,9,10,12,17,7,0,0,0,0,5,19,0,0,0,0,0,0,0,0],"split_type":[0,0,0,0,0,0,0,0,0,0,0,0,0,0,0,0,0,0,0,0,0,0,0],"sum_hessian":[1.6E2,1.22E2,3.8E1,1.1E2,1.2E1,1.4E1,2.4E1,9.4E1,1.6E1,6E0,6E0,6E0,8E0,1E1,1.4E1,6E1,3.4E1,1E1,6E0,5E0,5E0,8E0,6E0],"tree_param":{"num_deleted":"0","num_feature":"20","num_nodes":"23","size_leaf_vector":"1"}},{"base_weights":[-0E0,-5.1929224E-1,1.2565782E0,6.043196E-1,-3.8207695E0,-1.1945534E0,2.6297922E0,-8.546275E0,-2.9235635E-2,1.7125805E-1,-6.7396533E-1,-3.4803262E-1,7.7083486E-1,-1.0534072E-1,-2.433987E0,-3.9207336E-1,5.5982673E-1],"categories":[],"categories_nodes":[],"categories_segments":[],"categories_sizes":[],"default_left":[0,0,0,0,0,0,0,0,0,0,0,0,0,0,0,0,0],"id":43,"left_children":[1,3,-1,5,7,9,11,13,15,-1,-1,-1,-1,-1,-1,-1,-1],"loss_changes":[5.5550867E2,6.003816E2,0E0,4.5944937E2,7.1619324E2,3.1835156E2,3.5344165E2,4.656405E2,1.7869376E2,0E0,0E0,0E0,0E0,0E0,0E0,0E0,0E0],"parents":[2147483647,0,0,1,1,3,3,4,4,5,5,6,6,7,7,8,8],"right_children":[2,4,-1,6,8,10,12,14,16,-1,-1,-1,-1,-1,-1,-1,-1],"split_conditions":[1.8820245E0,7.682072E-1,1.2565782E0,2.1209335E-1,-9.662367E-2,-5.2444816E-1,-1.2457387E0,-1.4702542E-1,6.1058575E-1,1.7125805E-1,-6.7396533E-1,-3.4803262E-1,7.7083486E-1,-1.0534072E-1,-2.433987E0,-3.9207336E-1,5.5982673E-1],"split_indices":[13,19,0,15,5,15,12,2,7,0,0,0,0,0,0,0,0],"split_type":[0,0,0,0,0,0,0,0,0,0,0,0,0,0,0,0,0],"sum_hessian":[1.6E2,1.52E2,8E0,1.16E2,3.6E1,6.2E1,5.4E1,1.3E1,2.3E1,3.3E1,2.9E1,1.1E1,4.3E1,6E0,7E0,1.5E1,8E0],"tree_param":{"num_deleted":"0","num_feature":"20","num_nodes":"17","size_leaf_vector":"1"}},{"base_weights":[-2.579125E-2,-1.3153034E0,2.2477462E0,-6.077205E0,5.3872108E-3,6.4298886E-1,6.4351926E0,-8.411657E0,-1.4245765E-2,7.6184875E-1,-8.4607E-1,2.7704916E0,-1.6083083E0,1.14709295E-1,1.8930813E0,-2.4057148E0,-3.4520733E-1,-1.7437057E-1,6.181385E-1,-3.575815E-2,8.189805E-1,-5.7344323E-1,3.530886E-1],"categories":[],"categories_nodes":[],"categories_segments":[],"categories_sizes":[],"default_left":[0,0,0,0,0,0,0,0,0,0,0,0,0,0,0,0,0,0,0,0,0,0,0],"id":44,"left_children":[1,3,5,7,9,11,13,15,-1,17,-1,19,21,-1,-1,-1,-1,-1,-1,-1,-1,-1,-1],"loss_changes":[4.9665695E2,6.978082E2,3.7506482E2,3.1653455E2,2.9755292E2,2.6408548E2,2.3697058E2,2.7976465E2,0E0,3.2608636E2,0E0,1.2086258E2,1.4218858E2,0E0,0E0,0E0,0E0,0E0,0E0,0E0,0E0,0E0,0E0],"parents":[2147483647,0,0,1,1,2,2,3,3,4,4,5,5,6,6,7,7,9,9,11,11,12,12],"right_children":[2,4,6,8,10,12,14,16,-1,18,-1,20,22,-1,-1,-1,-1,-1,-1,-1,-1,-1,-1],"split_conditions":[4.9671414E-1,-9.600463E-1,1.0819848E0,4.632063E-1,1.4473057E0,-1.5127328E-1,4.365598E-1,1.2637958E-1,-1.4245765E-2,2.1209335E-1,-8.4607E-1,-1.081548E0,1.0235306E0,1.14709295E-1,1.8930813E0,-2.4057148E0,-3.4520733E-1,-1.7437057E-1,6.181385E-1,-3.575815E-2,8.189805E-1,-5.7344323E-1,3.530886E-1],"split_indices":[4,3,9,8,15,9,19,16,0,15,0,9,7,0,0,0,0,0,0,0,0,0,0],"split_type":[0,0,0,0,0,0,0,0,0,0,0,0,0,0,0,0,0,0,0,0,0,0,0],"sum_hessian":[1.6E2,1.04E2,5.6E1,1.9E1,8.5E1,4.5E1,1.1E1,1.2E1,7E0,7.6E1,9E0,2.3E1,2.2E1,6E0,5E0,5E0,7E0,4.6E1,3E1,8E0,1.5E1,1.7E1,5E0],"tree_param":{"num_deleted":"0","num_feature":"20","num_nodes":"23","size_leaf_vector":"1"}},{"base_weights":[-4.1141428E-2,-4.233567E0,6.357348E-1,-1.7144864E0,-7.3059446E-1,3.2279859E0,-3.7392777E-1,1.5253785E-1,-3.3583125E-1,-4.4005945E-1,5.212019E0,-2.4821103E0,9.010227E-1,-4.7769472E-1,3.761641E-1,1.4922719E0,-2.9478857E-1,6.023416E-1,-7.30778E-1,-3.6396477E-1,3.788688E-1],"categories":[],"categories_nodes":[],"categories_segments":[],"categories_sizes":[],"default_left":[0,0,0,0,0,0,0,0,0,0,0,0,0,0,0,0,0,0,0,0,0],"id":45,"left_children":[1,3,5,-1,7,9,11,-1,-1,13,15,17,19,-1,-1,-1,-1,-1,-1,-1,-1],"loss_changes":[4.8888208E2,3.148533E2,3.9386893E2,0E0,3.514927E1,3.266679E2,3.0731763E2,0E0,0E0,1.09395424E2,4.8805493E2,3.3312106E2,2.0927579E2,0E0,0E0,0E0,0E0,0E0,0E0,0E0,0E0],"parents":[2147483647,0,0,1,1,2,2,4,4,5,5,6,6,9,9,10,10,11,11,12,12],"right_children":[2,4,6,-1,8,10,12,-1,-1,14,16,18,20,-1,-1,-1,-1,-1,-1,-1,-1],"split_conditions":[-1.122722E0,-9.37825E-1,-5.132136E-1,-1.7144864E0,2.4219457E-2,-4.9973017E-1,-4.473219E-1,1.5253785E-1,-3.3583125E-1,4.6328852E-1,8.5765964E-1,-1.2295496E0,-8.2688034E-1,-4.7769472E-1,3.761641E-1,1.4922719E0,-2.9478857E-1,6.023416E-1,-7.30778E-1,-3.6396477E-1,3.788688E-1],"split_indices":[13,3,2,0,4,3,14,0,0,18,19,17,12,0,0,0,0,0,0,0,0],"split_type":[0,0,0,0,0,0,0,0,0,0,0,0,0,0,0,0,0,0,0,0,0],"sum_hessian":[1.6E2,1.9E1,1.41E2,5E0,1.4E1,3.7E1,1.04E2,5E0,9E0,1.4E1,2.3E1,3.8E1,6.6E1,8E0,6E0,1.7E1,6E0,5E0,3.3E1,1.6E1,5E1],"tree_param":{"num_deleted":"0","num_feature":"20","num_nodes":"21","size_leaf_vector":"1"}},{"base_weights":[-6.0652062E-2,-3.2004082E0,7.4079037E-1,-0E0,-7.5399942E0,4.773933E0,-6.6613354E-2,-5.910712E-1,1.5319593E0,-2.2387445E0,-0E0,2.1739708E-1,1.3226095E0,-9.674906E-1,3.3621132E0,5.658668E-1,-1.2675442E-1,-5.164201E-1,2.6277837E-1,9.9947566E-1,-1.6177024E-1],"categories":[],"categories_nodes":[],"categories_segments":[],"categories_sizes":[],"default_left":[0,0,0,0,0,0,0,0,0,0,0,0,0,0,0,0,0,0,0,0,0],"id":46,"left_children":[1,3,5,7,9,11,13,-1,15,-1,-1,-1,-1,17,19,-1,-1,-1,-1,-1,-1],"loss_changes":[4.319684E2,4.9428128E2,4.5061523E2,1.3427927E2,4.002212E2,1.0461499E2,3.7287164E2,0E0,6.955219E1,0E0,0E0,0E0,0E0,3.768031E2,1.9910358E2,0E0,0E0,0E0,0E0,0E0,0E0],"parents":[2147483647,0,0,1,1,2,2,3,3,4,4,5,5,6,6,8,8,13,13,14,14],"right_children":[2,4,6,8,10,12,14,-1,16,-1,-1,-1,-1,18,20,-1,-1,-1,-1,-1,-1],"split_conditions":[-9.2951083E-1,1.3074058E-1,-6.582484E-1,-5.8936477E-1,1.23204805E-1,-2.0252423E-1,9.980101E-1,-5.910712E-1,-1.4358622E0,-2.2387445E0,-0E0,2.1739708E-1,1.3226095E0,2.502002E-1,8.712973E-1,5.658668E-1,-1.2675442E-1,-5.164201E-1,2.6277837E-1,9.9947566E-1,-1.6177024E-1],"split_indices":[11,10,11,19,5,17,4,0,11,0,0,0,0,7,19,0,0,0,0,0,0],"split_type":[0,0,0,0,0,0,0,0,0,0,0,0,0,0,0,0,0,0,0,0,0],"sum_hessian":[1.6E2,3E1,1.3E2,2E1,1E1,1.8E1,1.12E2,5E0,1.5E1,5E0,5E0,9E0,9E0,9.2E1,2E1,9E0,6E0,5.4E1,3.8E1,1.4E1,6E0],"tree_param":{"num_deleted":"0","num_feature":"20","num_nodes":"21","size_leaf_vector":"1"}},{"base_weights":[-5.5587176E-2,-1.246457E0,3.196935E-1,-1.578157E-1,4.2416596E0,-5.733794E-1,9.1790354E-1,1.0256572E-1,1.1451459E0,-2.5162485E-1,5.187974E-1],"categories":[],"categories_nodes":[],"categories_segments":[],"categories_sizes":[],"default_left":[0,0,0,0,0,0,0,0,0,0,0],"id":47,"left_children":[1,-1,3,5,7,9,-1,-1,-1,-1,-1],"loss_changes":[4.042565E2,0E0,3.111587E2,2.9512985E2,7.24505E1,3.1728336E2,0E0,0E0,0E0,0E0,0E0],"parents":[2147483647,0,0,2,2,3,3,4,4,5,5],"right_children":[2,-1,4,6,8,10,-1,-1,-1,-1,-1],"split_conditions":[-1.9782252E0,-1.246457E0,1.2788658E0,1.8820245E0,-2.0298064E-1,1.0887486E0,9.1790354E-1,1.0256572E-1,1.1451459E0,-2.5162485E-1,5.187974E-1],"split_indices":[13,0,7,13,9,3,0,0,0,0,0],"split_type":[0,0,0,0,0,0,0,0,0,0,0],"sum_hessian":[1.6E2,5E0,1.55E2,1.42E2,1.3E1,1.35E2,7E0,6E0,7E0,1.14E2,2.1E1],"tree_param":{"num_deleted":"0","num_feature":"20","num_nodes":"11","size_leaf_vector":"1"}},{"base_weights":[-1.2494073E-3,-3.6195886E0,5.5132234E-1,1.0080414E-1,-1.318669E0,-4.378683E-2,3.6937125E0,-7.9508793E-1,4.037936E-1,-0E0,4.9240947E0,-2.4843322E-1,3.5180217E-1,1.9471131E-1,1.1830482E0],"categories":[],"categories_nodes":[],"categories_segments":[],"categories_sizes":[],"default_left":[0,0,0,0,0,0,0,0,0,0,0,0,0,0,0],"id":48,"left_children":[1,3,5,-1,-1,7,9,-1,11,-1,13,-1,-1,-1,-1],"loss_changes":[3.4601404E2,3.108346E2,2.8300815E2,0E0,0E0,2.4041513E2,1.0899643E2,0E0,2.774039E2,0E0,2.7908447E1,0E0,0E0,0E0,0E0],"parents":[2147483647,0,0,1,1,2,2,5,5,6,6,8,8,10,10],"right_children":[2,4,6,-1,-1,8,10,-1,12,-1,14,-1,-1,-1,-1],"split_conditions":[-1.1300694E0,1.6846098E-1,1.011463E0,1.0080414E-1,-1.318669E0,-1.046911E0,-5.505369E-1,-7.9508793E-1,-6.4188175E-2,-0E0,-5.5830175E-1,-2.4843322E-1,3.5180217E-1,1.9471131E-1,1.1830482E0],"split_indices":[9,6,14,0,0,4,8,0,7,0,0,0,0,0,0],"split_type":[0,0,0,0,0,0,0,0,0,0,0,0,0,0,0],"sum_hessian":[1.6E2,1.8E1,1.42E2,9E0,9E0,1.23E2,1.9E1,9E0,1.14E2,6E0,1.3E1,5.1E1,6.3E1,5E0,8E0],"tree_param":{"num_deleted":"0","num_feature":"20","num_nodes":"15","size_leaf_vector":"1"}},{"base_weights":[-1.2248591E-2,-7.122128E-1,2.8349133E0,-4.8286204E0,-0E0,-1.3197447E-1,4.165219E0,-1.9173574E0,9.83178E-2,-3.7525535E-1,8.580828E-1,2.240034E-2,5.5992475E0,-4.3801615E-1,1.6824405E-1,3.030919E-1,1.3686067E0],"categories":[],"categories_nodes":[],"categories_segments":[],"categories_sizes":[],"default_left":[0,0,0,0,0,0,0,0,0,0,0,0,0,0,0,0,0],"id":49,"left_children":[1,3,5,7,9,-1,11,-1,-1,13,-1,-1,15,-1,-1,-1,-1],"loss_changes":[3.346803E2,3.9681866E2,1.7417468E2,5.48043E2,2.0055203E2,0E0,1.3075256E2,0E0,0E0,2.7020923E2,0E0,0E0,2.2859741E1,0E0,0E0,0E0,0E0],"parents":[2147483647,0,0,1,1,2,2,3,3,4,4,6,6,9,9,12,12],"right_children":[2,4,6,8,10,-1,12,-1,-1,14,-1,-1,16,-1,-1,-1,-1],"split_conditions":[9.218015E-1,-1.3158158E0,-1.1617838E0,5.009172E-1,1.8820245E0,-1.3197447E-1,-1.8319662E-1,-1.9173574E0,9.83178E-2,-1.5171443E-1,8.580828E-1,2.240034E-2,-6.520889E-1,-4.3801615E-1,1.6824405E-1,3.030919E-1,1.3686067E0],"split_indices":[8,11,17,6,13,0,9,0,0,10,0,0,7,0,0,0,0],"split_type":[0,0,0,0,0,0,0,0,0,0,0,0,0,0,0,0,0],"sum_hessian":[1.6E2,1.32E2,2.8E1,1.5E1,1.17E2,8E0,2E1,6E0,9E0,1.12E2,5E0,7E0,1.3E1,4.4E1,6.8E1,6E0,7E0],"tree_param":{"num_deleted":"0","num_feature":"20","num_nodes":"17","size_leaf_vector":"1"}}]},"name":"gbtree"},"learner_model_param":{"base_score":"[-1.8533068E0]","boost_from_average":"1","num_class":"0","num_feature":"20","num_target":"1"},"objective":{"name":"reg:squarederror","reg_loss_param":{"scale_pos_weight":"1"}}},"version":[3,1,1]}