tree
version=v4
num_class=1
num_tree_per_iteration=1
label_index=0
max_feature_idx=4
objective=regression
feature_names=Column_0 Column_1 Column_2 Column_3 Column_4
feature_infos=[-2.2111353090078851:2.6323820648373908] [-2.6968866429415717:2.0754007986454384] [-3.2412673400690726:2.5600845382687947] [-2.650969808393012:3.0788808084552377] [-2.6197451040897444:3.8527314906547208]
tree_sizes=1032 1521 1547 1535 1559

Tree=0
num_leaves=8
num_cat=0
split_feature=1 1 0 0 1 2 1
split_gain=1006.48 286.849 224.592 164.069 115.311 87.5281 85.2849
threshold=0.3339444990096388 -1.2582638388068916 0.20565291439942612 0.20565291439942612 0.93650213377800728 -0.45565340474154897 1.07389303891204
decision_type=2 2 2 2 2 2 2
left_child=1 -1 4 5 -2 -3 -4
right_child=2 3 6 -5 -6 -7 -8
leaf_value=8.376307032108306 9.9219844889511233 9.7978016889095301 10.955848491558662 10.00932879028505 10.882685121067546 9.0218076249957075 12.042526076756991
leaf_weight=21 23 19 13.000000000000002 47 22 42 12.999999999999998
leaf_count=21 23 19 13 47 22 42 13
internal_value=9.89009 9.39081 10.7972 9.58808 10.3917 9.26351 11.4992
internal_weight=200 129 71 108 45 61 26
internal_count=200 129 71 108 45 61 26
is_linear=1
leaf_const=8.376307032108306 9.9219844889511233 9.7978016889095301 10.955848491558662 10.00932879028505 10.882685121067546 9.0218076249957075 12.042526076756991
num_features=0 0 0 0 0 0 0 0
leaf_features=        
leaf_coeff=        
shrinkage=1


Tree=1
num_leaves=8
num_cat=0
split_feature=1 0 2 1 1 2 0
split_gain=583.349 215.701 146.409 78.2544 65.7165 57.4334 47.2243
threshold=-0.1108834007107284 -0.56651691149522432 0.23287511160246635 -0.87213540074254259 1.4916712203285887 0.47640637332908981 -0.52000573530970573
decision_type=2 2 2 2 2 2 2
left_child=3 5 4 -1 -3 -2 -5
right_child=1 2 -4 6 -6 -7 -8
leaf_value=-0.86548365785607262 0.098444721528461995 0.8819031275607444 0.226431751311306 -0.74611811430193486 1.7486783051490782 -0.74775416363369329 -0.10413764221593738
leaf_weight=42 21 37 31 14.999999999999998 9.9999999999999982 10.999999999999998 33
leaf_count=42 21 37 31 15 10 11 33
internal_value=0 0.463442 0.73252 -0.566429 1.06632 -0.192436 -0.304757
internal_weight=200 110 78 90 47 32 48
internal_count=200 110 78 90 47 32 48
is_linear=1
leaf_const=-0.1724278691197571 0.38178703486875543 0.15001563831827594 0.23387774664429631 -0.27664160087459916 -0.53166238047548031 0.13248959410504377 -0.041182978037908533
num_features=1 3 3 3 2 3 3 2
leaf_features=1  0 1 2  0 1 2  0 1 2  0 1  0 1 2  0 1 2  0 1  
leaf_coeff=0.50372803464021298  0.69771193709846269 0.4473291429527898 -0.36088054131424618  0.52613988161062197 0.54066790676633614 -0.37831345436432162  0.3905907731425679 0.54490238647346845 -0.49117248327916352  0.25787175456439509 0.32396667018611952  0.75251947552224407 0.9230836729302474 -0.53084446910092198  0.51184626668266986 0.34941015273219544 -0.40170100541382842  0.35570282834350764 0.43895805238196461  
shrinkage=0.3


Tree=2
num_leaves=8
num_cat=0
split_feature=1 0 2 2 0 1 2
split_gain=285.841 105.693 71.7406 64.9543 33.2691 28.4733 28.1424
threshold=-0.1108834007107284 -0.56651691149522432 0.23287511160246635 -0.27903273668234768 0.80575706412020576 -1.0890981374242112 0.47640637332908981
decision_type=2 2 2 2 2 2 2
left_child=3 6 4 -1 -3 -5 -2
right_child=1 2 -4 5 -6 -7 -8
leaf_value=-0.084360420083006218 0.06891130256865706 0.61520874806352566 0.15850222544564355 -0.94031220450997344 1.231931619644165 -0.46323864209024529 -0.52342791990800341
leaf_weight=36 21 37 31 15.999999999999998 9.9999999999999982 38 10.999999999999998
leaf_count=36 21 37 31 16 10 38 11
internal_value=0 0.324409 0.512764 -0.3965 0.746426 -0.604594 -0.134705
internal_weight=200 110 78 90 47 54 32
internal_count=200 110 78 90 47 54 32
is_linear=1
leaf_const=0.10521447936337115 0.2672509280117531 0.10604275478688327 0.16371442214135734 0.10586724717016124 0.0069872515423918587 0.012777463943790757 0.092742707942073704
num_features=2 3 3 3 2 3 2 3
leaf_features=1 2  0 1 2  0 1 2  0 1 2  1 2  0 1 2  1 2  0 1 2  
leaf_coeff=0.35739276921978641 -0.14585246126820567  0.488398360488078 0.31313039603714643 -0.25261638172789469  0.21997552285094113 0.38584960345389568 -0.27901728630639233  0.27341354506786525 0.38143167455595917 -0.34382074207353963  0.52883107457748257 -0.30281348206042685  0.42549500620633496 0.53526163628606194 -0.3086740360717643  0.53346047445188982 -0.30550918844779762  0.35829237878773235 0.24458709039892562 -0.28119070082804282  
shrinkage=0.3


Tree=3
num_leaves=8
num_cat=0
split_feature=1 2 0 0 2 1 1
split_gain=141.496 61.0375 33.2181 32.9861 20.4455 18.6403 18.158
threshold=-0.40431336311408089 0.47640637332908981 0.83143768055058287 0.2297549359808829 -0.3670564491683283 0.93650213377800728 -0.9900705726946345
decision_type=2 2 2 2 2 2 2
left_child=3 2 5 6 -5 -2 -1
right_child=1 -3 -4 4 -6 -7 -8
leaf_value=-0.72447781773174513 0.16616194042212823 -0.11985897203857029 0.80432820618152612 0.27400416254997251 -0.24334562823853709 0.49654127792878583 -0.3339875322606029
leaf_weight=17 51 37 11.999999999999998 9.9999999999999982 22 22 29
leaf_count=17 51 37 12 10 22 22 29
internal_value=0 0.201765 0.341766 -0.315581 -0.0816738 0.265728 -0.478299
internal_weight=200 122 85 78 32 73 46
internal_count=200 122 85 78 32 73 46
is_linear=1
leaf_const=-0.460636164955811 0.066639479633527773 -0.085361099832137285 0.02105419886155014 -0.27824171520317381 -0.17848460845038758 -0.1962429632060135 -0.056714924251857819
num_features=2 3 2 3 3 3 3 2
leaf_features=0 1  0 1 2  1 2  0 1 2  0 1 2  0 1 2  0 1 2  0 1  
leaf_coeff=0.18942272265011878 0.10012199621588944  0.22752542036707782 0.26513703008701894 -0.18825534615678144  0.24403895189495001 -0.14782292228869726  0.30206914057748135 0.35614608359461525 -0.22001860763193667  0.38040007304832985 0.15917180475856749 -0.31545551635827546  0.31766602274778538 0.26464688237658091 -0.22908339927015536  0.32699898532703026 0.44192897735074732 -0.21728005862899027  0.21981285179830998 0.20876900799595044  
shrinkage=0.3


Tree=4
num_leaves=8
num_cat=0
split_feature=1 0 2 1 0 2 2
split_gain=69.333 35.6425 21.7158 17.6522 13.335 13.0219 10.0726
threshold=-0.40431336311408089 -0.56651691149522432 -0.27903273668234768 1.4916712203285887 -0.095298344376969199 0.47640637332908981 0.23287511160246635
decision_type=2 2 2 2 2 2 2
left_child=2 5 -1 6 -4 -2 -3
right_child=1 3 4 -5 -6 -7 -8
leaf_value=-0.031119902932550757 0.026440408187253132 0.2749768356115303 -0.5543893073995908 0.55093646943569186 -0.22342434976516026 -0.3556064885396224 0.04954236321151257
leaf_weight=32 21 44 18 13.999999999999998 28 12.999999999999998 30
leaf_count=32 21 44 18 14 28 13 30
internal_value=0 0.141235 -0.220907 0.242027 -0.352932 -0.119636 0.183584
internal_weight=200 122 78 88 46 34 74
internal_count=200 122 78 88 46 34 74
is_linear=1
leaf_const=-0.0066055282284320999 0.15282122996779327 0.059583216885351786 0.13741100503513498 -0.099415663949829994 -0.054330692616303584 0.13221366081145253 0.10456093588630283
num_features=2 3 3 3 2 3 3 3
leaf_features=1 2  0 1 2  0 1 2  0 1 2  0 1  0 1 2  0 1 2  0 1 2  
leaf_coeff=0.15216965476125444 -0.13384577749867491  0.2638685084348108 0.15059323369703195 -0.12200193259276264  0.17021656006829747 0.17196685285750721 -0.13507860941701078  0.27159199083581204 0.31993002591004072 -0.33029376992915138  0.25076030713545649 0.32699720514412584  0.18071498698689922 0.1772122561115102 -0.19120074463180306  0.33433949807647984 0.15640817238827126 -0.14841719942276363  0.15272790865497188 0.10817840070654298 -0.1443380927257194  
shrinkage=0.3


end of trees

feature_importances:
Column_1=14
Column_2=11
Column_0=10

parameters:
[boosting: gbdt]
[objective: regression]
[metric: l2]
[tree_learner: serial]
[device_type: cpu]
[data_sample_strategy: bagging]
[data: ]
[valid: ]
[num_iterations: 5]
[learning_rate: 0.3]
[num_leaves: 8]
[num_threads: 0]
[seed: 42]
[deterministic: 0]
[force_col_wise: 0]
[force_row_wise: 0]
[histogram_pool_size: -1]
[max_depth: -1]
[min_data_in_leaf: 10]
[min_sum_hessian_in_leaf: 0.001]
[bagging_fraction: 1]
[pos_bagging_fraction: 1]
[neg_bagging_fraction: 1]
[bagging_freq: 0]
[bagging_seed: 400]
[bagging_by_query: 0]
[feature_fraction: 1]
[feature_fraction_bynode: 1]
[feature_fraction_seed: 30056]
[extra_trees: 0]
[extra_seed: 12879]
[early_stopping_round: 0]
[early_stopping_min_delta: 0]
[first_metric_only: 0]
[max_delta_step: 0]
[lambda_l1: 0]
[lambda_l2: 0]
[linear_lambda: 0]
[min_gain_to_split: 0]
[drop_rate: 0.1]
[max_drop: 50]
[skip_drop: 0.5]
[xgboost_dart_mode: 0]
[uniform_drop: 0]
[drop_seed: 17869]
[top_rate: 0.2]
[other_rate: 0.1]
[min_data_per_group: 100]
[max_cat_threshold: 32]
[cat_l2: 10]
[cat_smooth: 10]
[max_cat_to_onehot: 4]
[top_k: 20]
[monotone_constraints: ]
[monotone_constraints_method: basic]
[monotone_penalty: 0]
[feature_contri: ]
[forcedsplits_filename: ]
[refit_decay_rate: 0.9]
[cegb_tradeoff: 1]
[cegb_penalty_split: 0]
[cegb_penalty_feature_lazy: ]
[cegb_penalty_feature_coupled: ]
[path_smooth: 0]
[interaction_constraints: ]
[verbosity: -1]
[saved_feature_importance_type: 0]
[use_quantized_grad: 0]
[num_grad_quant_bins: 4]
[quant_train_renew_leaf: 0]
[stochastic_rounding: 1]
[linear_tree: 1]
[max_bin: 255]
[max_bin_by_feature: ]
[min_data_in_bin: 3]
[bin_construct_sample_cnt: 200000]
[data_random_seed: 175]
[is_enable_sparse: 1]
[enable_bundle: 1]
[use_missing: 1]
[zero_as_missing: 0]
[feature_pre_filter: 1]
[pre_partition: 0]
[two_round: 0]
[header: 0]
[label_column: ]
[weight_column: ]
[group_column: ]
[ignore_column: ]
[categorical_feature: ]
[forcedbins_filename: ]
[precise_float_parser: 0]
[parser_config_file: ]
[objective_seed: 16083]
[num_class: 1]
[is_unbalance: 0]
[scale_pos_weight: 1]
[sigmoid: 1]
[boost_from_average: 1]
[reg_sqrt: 0]
[alpha: 0.9]
[fair_c: 1]
[poisson_max_delta_step: 0.7]
[tweedie_variance_power: 1.5]
[lambdarank_truncation_level: 30]
[lambdarank_norm: 1]
[label_gain: ]
[lambdarank_position_bias_regularization: 0]
[eval_at: ]
[multi_error_top_k: 1]
[auc_mu_weights: ]
[num_machines: 1]
[local_listen_port: 12400]
[time_out: 120]
[machine_list_filename: ]
[machines: ]
[gpu_platform_id: -1]
[gpu_device_id: -1]
[gpu_use_dp: 0]
[num_gpu: 1]

end of parameters

pandas_categorical:null
