{
  "learner": {
    "attributes": {},
    "feature_names": [],
    "feature_types": [],
    "gradient_booster": {
      "model": {
        "cats": {
          "enc": [],
          "feature_segments": [],
          "sorted_idx": []
        },
        "gbtree_model_param": {
          "num_parallel_tree": "1",
          "num_trees": "5"
        },
        "iteration_indptr": [
          0,
          1,
          2,
          3,
          4,
          5
        ],
        "tree_info": [
          0,
          0,
          0,
          0,
          0
        ],
        "trees": [
          {
            "base_weights": [
              -1.8412524E-7,
              -6.481179E1,
              1.00458275E2,
              -1.208632E2,
              -9.948519E-1,
              3.1049967E1,
              1.617777E2,
              -1.8554579E1,
              -6.954222E0,
              -9.95624E0,
              2.2701151E0,
              -5.230507E-1,
              7.597394E0,
              1.07114525E1,
              2.227603E1
            ],
            "categories": [],
            "categories_nodes": [],
            "categories_segments": [],
            "categories_sizes": [],
            "default_left": [
              0,
              0,
              0,
              0,
              0,
              0,
              0,
              0,
              0,
              0,
              0,
              0,
              0,
              0,
              0
            ],
            "id": 0,
            "left_children": [
              1,
              3,
              5,
              7,
              9,
              11,
              13,
              -1,
              -1,
              -1,
              -1,
              -1,
              -1,
              -1,
              -1
            ],
            "loss_changes": [
              6.6410975E5,
              2.2165556E5,
              1.6521994E5,
              9.664266E4,
              7.2329875E4,
              3.299464E4,
              4.6142625E4,
              0E0,
              0E0,
              0E0,
              0E0,
              0E0,
              0E0,
              0E0,
              0E0
            ],
            "parents": [
              2147483647,
              0,
              0,
              1,
              1,
              2,
              2,
              3,
              3,
              4,
              4,
              5,
              5,
              6,
              6
            ],
            "right_children": [
              2,
              4,
              6,
              8,
              10,
              12,
              14,
              -1,
              -1,
              -1,
              -1,
              -1,
              -1,
              -1,
              -1
            ],
            "split_conditions": [
              3.61636E-1,
              -1.3014306E-1,
              8.704707E-2,
              -5.182702E-1,
              -1.081548E0,
              9.5042384E-1,
              6.4537597E-1,
              -1.8554579E1,
              -6.954222E0,
              -9.95624E0,
              2.2701151E0,
              -5.230507E-1,
              7.597394E0,
              1.07114525E1,
              2.227603E1
            ],
            "split_indices": [
              1,
              0,
              3,
              1,
              4,
              1,
              0,
              0,
              0,
              0,
              0,
              0,
              0,
              0,
              0
            ],
            "split_type": [
              0,
              0,
              0,
              0,
              0,
              0,
              0,
              0,
              0,
              0,
              0,
              0,
              0,
              0,
              0
            ],
            "sum_hessian": [
              1E2,
              6.1E1,
              3.9E1,
              3.2E1,
              2.9E1,
              1.9E1,
              2E1,
              1.3E1,
              1.9E1,
              5E0,
              2.4E1,
              1.1E1,
              8E0,
              1.2E1,
              8E0
            ],
            "tree_param": {
              "num_deleted": "0",
              "num_feature": "5",
              "num_nodes": "15",
              "size_leaf_vector": "1"
            }
          },
          {
            "base_weights": [
              6.798998E-2,
              -5.1087345E1,
              1.07027084E2,
              -9.817424E1,
              6.4248233E0,
              4.42399E1,
              1.5689197E2,
              -1.686949E1,
              -5.475572E0,
              -3.8516033E0,
              6.695707E0,
              1.2886264E0,
              7.398276E0,
              1.0313021E1,
              2.2664186E1
            ],
            "categories": [],
            "categories_nodes": [],
            "categories_segments": [],
            "categories_sizes": [],
            "default_left": [
              0,
              0,
              0,
              0,
              0,
              0,
              0,
              0,
              0,
              0,
              0,
              0,
              0,
              0,
              0
            ],
            "id": 1,
            "left_children": [
              1,
              3,
              5,
              7,
              9,
              11,
              13,
              -1,
              -1,
              -1,
              -1,
              -1,
              -1,
              -1,
              -1
            ],
            "loss_changes": [
              5.580922E5,
              1.8748753E5,
              9.637797E4,
              1.0711531E5,
              8.96308E4,
              1.3967385E4,
              4.4124188E4,
              0E0,
              0E0,
              0E0,
              0E0,
              0E0,
              0E0,
              0E0,
              0E0
            ],
            "parents": [
              2147483647,
              0,
              0,
              1,
              1,
              2,
              2,
              3,
              3,
              4,
              4,
              5,
              5,
              6,
              6
            ],
            "right_children": [
              2,
              4,
              6,
              8,
              10,
              12,
              14,
              -1,
              -1,
              -1,
              -1,
              -1,
              -1,
              -1,
              -1
            ],
            "split_conditions": [
              5.1504767E-1,
              -1.3014306E-1,
              -1.8513136E-2,
              -4.4651496E-1,
              -3.2766214E-1,
              1.1428229E0,
              6.4537597E-1,
              -1.686949E1,
              -5.475572E0,
              -3.8516033E0,
              6.695707E0,
              1.2886264E0,
              7.398276E0,
              1.0313021E1,
              2.2664186E1
            ],
            "split_indices": [
              1,
              0,
              3,
              2,
              1,
              1,
              0,
              0,
              0,
              0,
              0,
              0,
              0,
              0,
              0
            ],
            "split_type": [
              0,
              0,
              0,
              0,
              0,
              0,
              0,
              0,
              0,
              0,
              0,
              0,
              0,
              0,
              0
            ],
            "sum_hessian": [
              1E2,
              6.8E1,
              3.2E1,
              3.7E1,
              3.1E1,
              1.5E1,
              1.7E1,
              1.3E1,
              2.4E1,
              1.8E1,
              1.3E1,
              8E0,
              7E0,
              1.1E1,
              6E0
            ],
            "tree_param": {
              "num_deleted": "0",
              "num_feature": "5",
              "num_nodes": "15",
              "size_leaf_vector": "1"
            }
          },
          {
            "base_weights": [
              2.8062814E-1,
              -5.3904377E1,
              8.426037E1,
              -1.0880415E2,
              -2.36202E0,
              2.685865E1,
              1.3491628E2,
              -1.42213125E1,
              -2.7764914E0,
              -1.1268954E1,
              1.2427051E0,
              -2.2316186E-2,
              6.7509265E0,
              8.892183E0,
              1.86362E1
            ],
            "categories": [],
            "categories_nodes": [],
            "categories_segments": [],
            "categories_sizes": [],
            "default_left": [
              0,
              0,
              0,
              0,
              0,
              0,
              0,
              0,
              0,
              0,
              0,
              0,
              0,
              0,
              0
            ],
            "id": 2,
            "left_children": [
              1,
              3,
              5,
              7,
              9,
              11,
              13,
              -1,
              -1,
              -1,
              -1,
              -1,
              -1,
              -1,
              -1
            ],
            "loss_changes": [
              4.6413672E5,
              1.7518219E5,
              1.1268578E5,
              7.727456E4,
              5.5244566E4,
              2.203291E4,
              3.3118875E4,
              0E0,
              0E0,
              0E0,
              0E0,
              0E0,
              0E0,
              0E0,
              0E0
            ],
            "parents": [
              2147483647,
              0,
              0,
              1,
              1,
              2,
              2,
              3,
              3,
              4,
              4,
              5,
              5,
              6,
              6
            ],
            "right_children": [
              2,
              4,
              6,
              8,
              10,
              12,
              14,
              -1,
              -1,
              -1,
              -1,
              -1,
              -1,
              -1,
              -1
            ],
            "split_conditions": [
              3.61636E-1,
              1.3001892E-2,
              8.704707E-2,
              5.708905E-1,
              -1.2378155E0,
              1.1428229E0,
              6.4537597E-1,
              -1.42213125E1,
              -2.7764914E0,
              -1.1268954E1,
              1.2427051E0,
              -2.2316186E-2,
              6.7509265E0,
              8.892183E0,
              1.86362E1
            ],
            "split_indices": [
              1,
              3,
              3,
              2,
              1,
              1,
              0,
              0,
              0,
              0,
              0,
              0,
              0,
              0,
              0
            ],
            "split_type": [
              0,
              0,
              0,
              0,
              0,
              0,
              0,
              0,
              0,
              0,
              0,
              0,
              0,
              0,
              0
            ],
            "sum_hessian": [
              1E2,
              6.1E1,
              3.9E1,
              2.9E1,
              3.2E1,
              1.9E1,
              2E1,
              2E1,
              9E0,
              3E0,
              2.9E1,
              1.2E1,
              7E0,
              1.2E1,
              8E0
            ],
            "tree_param": {
              "num_deleted": "0",
              "num_feature": "5",
              "num_nodes": "15",
              "size_leaf_vector": "1"
            }
          },
          {
            "base_weights": [
              3.2417887E-1,
              -4.3439556E1,
              8.784211E1,
              -8.6160675E1,
              7.314225E0,
              1.3217481E1,
              1.1417828E2,
              -1.4898758E1,
              -4.592162E0,
              -3.180652E0,
              5.988422E0,
              -1.1525644E0,
              2.54682E0,
              2.0380304E0,
              1.3107407E1
            ],
            "categories": [],
            "categories_nodes": [],
            "categories_segments": [],
            "categories_sizes": [],
            "default_left": [
              0,
              0,
              0,
              0,
              0,
              0,
              0,
              0,
              0,
              0,
              0,
              0,
              0,
              0,
              0
            ],
            "id": 3,
            "left_children": [
              1,
              3,
              5,
              7,
              9,
              11,
              13,
              -1,
              -1,
              -1,
              -1,
              -1,
              -1,
              -1,
              -1
            ],
            "loss_changes": [
              3.906571E5,
              1.4807178E5,
              6.531197E4,
              8.669778E4,
              6.771518E4,
              3.3247476E3,
              3.6948438E4,
              0E0,
              0E0,
              0E0,
              0E0,
              0E0,
              0E0,
              0E0,
              0E0
            ],
            "parents": [
              2147483647,
              0,
              0,
              1,
              1,
              2,
              2,
              3,
              3,
              4,
              4,
              5,
              5,
              6,
              6
            ],
            "right_children": [
              2,
              4,
              6,
              8,
              10,
              12,
              14,
              -1,
              -1,
              -1,
              -1,
              -1,
              -1,
              -1,
              -1
            ],
            "split_conditions": [
              5.040465E-1,
              -1.3014306E-1,
              -4.749453E-1,
              -5.182702E-1,
              -3.2766214E-1,
              8.128621E-1,
              -1.1978779E0,
              -1.4898758E1,
              -4.592162E0,
              -3.180652E0,
              5.988422E0,
              -1.1525644E0,
              2.54682E0,
              2.0380304E0,
              1.3107407E1
            ],
            "split_indices": [
              1,
              0,
              3,
              1,
              1,
              1,
              0,
              0,
              0,
              0,
              0,
              0,
              0,
              0,
              0
            ],
            "split_type": [
              0,
              0,
              0,
              0,
              0,
              0,
              0,
              0,
              0,
              0,
              0,
              0,
              0,
              0,
              0
            ],
            "sum_hessian": [
              1E2,
              6.7E1,
              3.3E1,
              3.6E1,
              3.1E1,
              9E0,
              2.4E1,
              1.3E1,
              2.3E1,
              1.8E1,
              1.3E1,
              3E0,
              6E0,
              4E0,
              2E1
            ],
            "tree_param": {
              "num_deleted": "0",
              "num_feature": "5",
              "num_nodes": "15",
              "size_leaf_vector": "1"
            }
          },
          {
            "base_weights": [
              2.903416E-1,
              -3.862781E1,
              8.165586E1,
              -6.543646E1,
              2.5765137E1,
              3.2454075E1,
              1.2085435E2,
              -8.992925E0,
              3.9078298E0,
              1.1967423E-2,
              7.703897E0,
              9.613077E-1,
              5.409344E0,
              7.6277657E0,
              1.8000662E1
            ],
            "categories": [],
            "categories_nodes": [],
            "categories_segments": [],
            "categories_sizes": [],
            "default_left": [
              0,
              0,
              0,
              0,
              0,
              0,
              0,
              0,
              0,
              0,
              0,
              0,
              0,
              0,
              0
            ],
            "id": 4,
            "left_children": [
              1,
              3,
              5,
              7,
              9,
              11,
              13,
              -1,
              -1,
              -1,
              -1,
              -1,
              -1,
              -1,
              -1
            ],
            "loss_changes": [
              3.2298038E5,
              1.20799875E5,
              5.972275E4,
              1.2894728E5,
              2.7604545E4,
              7.3882305E3,
              3.3732125E4,
              0E0,
              0E0,
              0E0,
              0E0,
              0E0,
              0E0,
              0E0,
              0E0
            ],
            "parents": [
              2147483647,
              0,
              0,
              1,
              1,
              2,
              2,
              3,
              3,
              4,
              4,
              5,
              5,
              6,
              6
            ],
            "right_children": [
              2,
              4,
              6,
              8,
              10,
              12,
              14,
              -1,
              -1,
              -1,
              -1,
              -1,
              -1,
              -1,
              -1
            ],
            "split_conditions": [
              5.1504767E-1,
              4.9191916E-1,
              -1.8513136E-2,
              8.2718325E-1,
              1.1092259E-1,
              1.1428229E0,
              6.4537597E-1,
              -8.992925E0,
              3.9078298E0,
              1.1967423E-2,
              7.703897E0,
              9.613077E-1,
              5.409344E0,
              7.6277657E0,
              1.8000662E1
            ],
            "split_indices": [
              1,
              3,
              3,
              2,
              2,
              1,
              0,
              0,
              0,
              0,
              0,
              0,
              0,
              0,
              0
            ],
            "split_type": [
              0,
              0,
              0,
              0,
              0,
              0,
              0,
              0,
              0,
              0,
              0,
              0,
              0,
              0,
              0
            ],
            "sum_hessian": [
              1E2,
              6.8E1,
              3.2E1,
              4.8E1,
              2E1,
              1.5E1,
              1.7E1,
              3.9E1,
              9E0,
              1.4E1,
              6E0,
              8E0,
              7E0,
              1.1E1,
              6E0
            ],
            "tree_param": {
              "num_deleted": "0",
              "num_feature": "5",
              "num_nodes": "15",
              "size_leaf_vector": "1"
            }
          }
        ]
      },
      "name": "gbtree"
    },
    "learner_model_param": {
      "base_score": "[8.740132E0]",
      "boost_from_average": "1",
      "num_class": "0",
      "num_feature": "5",
      "num_target": "1"
    },
    "objective": {
      "name": "reg:squarederror",
      "reg_loss_param": {
        "scale_pos_weight": "1"
      }
    }
  },
  "version": [
    3,
    1,
    1
  ]
}