tree
version=v4
num_class=3
num_tree_per_iteration=3
label_index=0
max_feature_idx=9
objective=multiclass num_class:3
feature_names=Column_0 Column_1 Column_2 Column_3 Column_4 Column_5 Column_6 Column_7 Column_8 Column_9
feature_infos=[-1.4545683787904098:6.5178204490170017] [-3.5287028056855325:4.3661230303210763] [-2.8485426206300755:2.2524358053443088] [-3.4332686678393851:3.3080476399397192] [-2.73810809207703:4.4895184889218784] [-5.802705456302343:8.9459756153696297] [-4.8074108161468594:5.9589941269559148] [-2.8962553781936893:2.5797093376543181] [-5.2661306337514384:5.2548826798208923] [-2.0417348684242906:2.5269324258736217]
tree_sizes=633 743 732 663 880 774 664 770 772 662 772 772 666 875 773 768 775 773 666 772 871 770 779 770 769 775 874 769 878 877

Tree=0
num_leaves=5
num_cat=0
split_feature=8 4 0 4
split_gain=19.1002 20.8331 7.70047 1.55789
threshold=-1.5496735703368005 -0.097490475847929789 0.7304908577920014 1.6047616438067405
decision_type=2 2 2 2
left_child=3 -2 -3 -1
right_child=1 2 -4 -5
leaf_value=-1.1986122886681096 -1.1557551458109669 -1.0541678442236653 -0.92764454673262586 -1.1386122886681098
leaf_weight=12.333333700895311 11.66666701436043 9.0000002682209033 10.333333641290663 6.666666865348815
leaf_count=37 35 27 31 20
internal_value=-1.09861 -1.05023 -0.986543 -1.17756
internal_weight=50 31 19.3333 19
internal_count=150 93 58 57
is_linear=0
shrinkage=1


Tree=1
num_leaves=6
num_cat=0
split_feature=6 4 4 0 0
split_gain=39.2857 18.0507 4.11429 1.22927 3.55271e-15
threshold=-0.028468401857499655 0.37766241073189777 -0.097490475847929789 0.83387679957017524 1.4359558505975012
decision_type=2 2 2 2 2
left_child=2 3 -1 -2 -4
right_child=1 -3 4 -5 -6
leaf_value=-1.1086122886681098 -0.95861228866810988 -1.1146122886681098 -1.1986122886681096 -0.89861228866810983 -1.1986122886681099
leaf_weight=6.6666668653488186 6.6666668653488177 8.3333335816860181 12.333333700895311 7.0000002086162567 9.0000002682208997
leaf_count=20 20 25 37 21 27
internal_value=-1.09861 -0.998612 -1.17718 -0.927881 -1.19861
internal_weight=50 22 28 13.6667 21.3333
internal_count=150 66 84 41 64
is_linear=0
shrinkage=1


Tree=2
num_leaves=6
num_cat=0
split_feature=8 5 8 1 0
split_gain=38.7821 15.2111 2.25333 1.78462 3.55271e-15
threshold=-1.0188032699573564 2.9994660094612264 -2.0038751836901274 0.29788145492278451 0.28018887401331227
decision_type=2 2 2 2 2
left_child=1 2 -1 -2 -5
right_child=3 -3 -4 4 -6
leaf_value=-0.91061228866810984 -1.1386122886681098 -1.1097233997792209 -0.9886122886681098 -1.1986122886681096 -1.1986122886681099
leaf_weight=8.3333335816860181 6.6666668653488186 9.0000002682208997 6.6666668653488186 7.0000002086162594 12.333333700895308
leaf_count=25 20 27 20 21 37
internal_value=-1.09861 -1.00695 -0.945279 -1.18323 -1.19861
internal_weight=50 24 15 26 19.3333
internal_count=150 72 45 78 58
is_linear=0
shrinkage=1


Tree=3
num_leaves=5
num_cat=0
split_feature=8 4 0 4
split_gain=15.6123 16.6646 7.42404 1.35348
threshold=-1.5496735703368005 -0.22992797214792823 0.7304908577920014 1.6047616438067405
decision_type=2 2 2 2
left_child=3 -2 -3 -1
right_child=1 2 -4 -5
leaf_value=-0.094649006840314923 -0.06658580441511025 0.030343296549803247 0.14686631577910053 -0.037790962902815445
leaf_weight=11.544840186834337 9.7174758017063159 10.545417726039888 11.356001645326613 6.5687648653984061
leaf_count=37 30 31 32 20
internal_value=-3.95495e-06 0.0424035 0.0907611 -0.0740299
internal_weight=49.7325 31.6189 21.9014 18.1136
internal_count=150 93 63 57
is_linear=0
shrinkage=0.1


Tree=4
num_leaves=7
num_cat=0
split_feature=6 4 4 3 5 0
split_gain=32.4717 13.6251 3.66886 1.12754 0.000446297 0.000427036
threshold=-0.028468401857499655 0.37766241073189777 -0.097490475847929789 0.47775997896600614 -0.21001794699592694 1.7772242619112633
decision_type=2 2 2 2 2 2
left_child=2 3 -1 -2 -4 -6
right_child=1 -3 4 -5 5 -7
leaf_value=-0.010069763223456797 0.11745895620661835 -0.014729994948638922 -0.096304925019996754 0.17316354704264994 -0.094783934882762808 -0.095898033771891336
leaf_weight=6.663945913314822 7.0874140858650225 8.2716625034809095 6.3876791894435945 7.4567710161209106 7.5057880282401985 6.3521085381507874
leaf_count=20 20 25 20 21 24 20
internal_value=-1.95581e-05 0.0877408 -0.0744291 0.146019 -0.0956134 -0.0952946
internal_weight=49.7254 22.8158 26.9095 14.5442 20.2456 13.8579
internal_count=150 66 84 41 64 44
is_linear=0
shrinkage=0.1


Tree=5
num_leaves=6
num_cat=0
split_feature=8 5 3 8 6
split_gain=32.5165 10.667 3.58366 0.988784 0.00181912
threshold=-0.8960027526887161 2.9994660094612264 -0.82841877399659891 1.0000000180025095e-35 1.0000000180025095e-35
decision_type=2 2 2 2 2
left_child=1 2 -1 -2 -5
right_child=3 -3 -4 4 -6
leaf_value=0.16331041466723914 -0.050327721832033073 -0.010250575849585398 0.069484719498601841 -0.097269869686501989 -0.095225817903857202
leaf_weight=9.9352751374244708 6.4330443143844631 8.9493201375007612 6.8966230452060726 8.0776670873165148 9.4445488154888135
leaf_count=28 20 27 20 25 30
internal_value=2.35071e-05 0.077964 0.124867 -0.0838579 -0.0961681
internal_weight=49.7365 25.7812 16.8319 23.9553 17.5222
internal_count=150 75 48 75 55
is_linear=0
shrinkage=0.1


Tree=6
num_leaves=5
num_cat=0
split_feature=8 4 0 6
split_gain=13.0659 13.3168 5.90485 1.27648
threshold=-1.5496735703368005 -0.22992797214792823 0.7304908577920014 -0.40115897300874859
decision_type=2 2 2 2
left_child=3 -2 -3 -1
right_child=1 2 -4 -5
leaf_value=-0.037439715850573013 -0.062459541743581565 0.025933867076531499 0.12857790735632271 -0.09277741923407487
leaf_weight=7.0560966134071377 9.3283871114254016 10.704374969005586 11.76380807161331 10.185721367597578
leaf_count=23 30 31 32 34
internal_value=-3.38167e-05 0.0379766 0.0796759 -0.0701308
internal_weight=49.0384 31.7966 22.4682 17.2418
internal_count=150 93 63 57
is_linear=0
shrinkage=0.1


Tree=7
num_leaves=6
num_cat=0
split_feature=6 4 4 5 9
split_gain=27.3518 8.80064 7.0089 0.00294123 0.00139898
threshold=0.23956080185262704 -0.258583385571172 0.53460964618358864 -0.46883414944823565 0.063975638609855487
decision_type=2 2 2 2 2
left_child=1 -1 -2 -3 -5
right_child=2 3 -4 4 -6
leaf_value=0.03483060813085289 0.13277344124895676 -0.0946931305846304 0.0065937945349812989 -0.091289131918475069 -0.093182457487699821
leaf_weight=7.1500338017940548 13.198339432477953 6.210623234510428 6.6053979396820059 8.8376632332801766 6.9889008998870841
leaf_count=21 36 20 20 30 23
internal_value=-2.33781e-05 -0.0615711 0.0906871 -0.0928489 -0.0921252
internal_weight=48.991 29.1872 19.8037 22.0372 15.8266
internal_count=150 94 56 73 53
is_linear=0
shrinkage=0.1


Tree=8
num_leaves=6
num_cat=0
split_feature=8 5 3 8 6
split_gain=27.2386 8.57356 2.69866 0.954388 0.00538445
threshold=-0.8960027526887161 2.9994660094612264 -0.82841877399659891 1.0000000180025095e-35 1.0000000180025095e-35
decision_type=2 2 2 2 2
left_child=1 2 -1 -2 -5
right_child=3 -3 -4 4 -6
leaf_value=0.142977252934536 -0.046635602370640523 -0.010192222885098527 0.062637267094126189 -0.094473147041861646 -0.090857879595783911
leaf_weight=10.316338926553728 6.231507986783984 8.9270290434360486 7.0303092300891903 7.761792957782748 8.7794265449047071
leaf_count=28 20 27 20 25 30
internal_value=5.71636e-05 0.0694374 0.110417 -0.0799892 -0.0925543
internal_weight=49.0464 26.2737 17.3466 22.7727 16.5412
internal_count=150 75 48 75 55
is_linear=0
shrinkage=0.1


Tree=9
num_leaves=5
num_cat=0
split_feature=8 4 0 4
split_gain=10.9908 11.3598 5.6606 1.61928
threshold=-1.4834858611910986 -0.22992797214792823 0.66828873749762485 1.6852331555669513
decision_type=2 2 2 2
left_child=3 -2 -3 -1
right_child=1 2 -4 -5
leaf_value=-0.087949086306174526 -0.058795386045828207 0.020563918563458062 0.12297080915378991 -0.025448242594328215
leaf_weight=10.610415235161783 8.953758120536806 10.136624753475191 11.545475006103514 6.803013563156127
leaf_count=39 30 29 31 21
internal_value=-9.43948e-05 0.0359633 0.0750944 -0.0635315
internal_weight=48.0493 30.6359 21.6821 17.4134
internal_count=150 90 60 60
is_linear=0
shrinkage=0.1


Tree=10
num_leaves=6
num_cat=0
split_feature=6 4 3 6 5
split_gain=23.1148 17.5921 0.401134 0.0203219 0.000934665
threshold=1.1021800927853389 -0.39744537088635756 1.1667179807160553 -0.4533842541442657 0.2157383121827868
decision_type=2 2 2 2 2
left_child=1 -1 3 4 -3
right_child=-2 2 -4 -5 -6
leaf_value=0.066912043380611824 0.12334811931510055 -0.089975114320712202 -0.062638770851598538 -0.095668842559368 -0.088147838482889068
leaf_weight=10.942631900310515 11.527415186166762 5.7094769030809402 6.2309466898441306 8.0384885817766225 5.49190753698349
leaf_count=31 32 20 21 26 20
internal_value=-6.39019e-05 -0.0391325 -0.0846907 -0.0918324 -0.0890792
internal_weight=47.9409 36.4135 25.4708 19.2399 11.2014
internal_count=150 118 87 66 40
is_linear=0
shrinkage=0.1


Tree=11
num_leaves=6
num_cat=0
split_feature=8 5 3 8 6
split_gain=23.1512 7.12735 2.22571 0.936863 0.00737432
threshold=-0.8960027526887161 2.9994660094612264 -0.82841877399659891 1.0000000180025095e-35 0.3225971317152892
decision_type=2 2 2 2 2
left_child=1 2 -1 -2 -5
right_child=3 -3 -4 4 -6
leaf_value=0.12916310885330115 -0.043203421790180281 -0.010103183811069743 0.056674141587902176 -0.091526192996318187 -0.087132462199122684
leaf_weight=10.448322594165804 6.0308897495269802 8.8898245692253095 7.1235278248786953 8.8421465158462507 6.7253923416137686
leaf_count=28 20 27 20 30 25
internal_value=0.000158115 0.0628623 0.0997765 -0.076665 -0.089628
internal_weight=48.0601 26.4617 17.5719 21.5984 15.5675
internal_count=150 75 48 75 55
is_linear=0
shrinkage=0.1


Tree=12
num_leaves=5
num_cat=0
split_feature=8 4 0 6
split_gain=9.21685 8.77946 4.26138 1.29583
threshold=-1.5496735703368005 -0.22992797214792823 0.7304908577920014 -0.40115897300874859
decision_type=2 2 2 2
left_child=3 -2 -3 -1
right_child=1 2 -4 -5
leaf_value=-0.029297076239639987 -0.055237424224545466 0.018295830970724822 0.10485270508209538 -0.087968146923413967
leaf_weight=6.4865907281637183 8.5777815878391284 10.903102010488512 11.891084700822828 8.9701883643865568
leaf_count=23 30 31 32 34
internal_value=-0.000142003 0.0309983 0.0634501 -0.0633462
internal_weight=46.8287 31.372 22.7942 15.4568
internal_count=150 93 63 57
is_linear=0
shrinkage=0.1


Tree=13
num_leaves=7
num_cat=0
split_feature=6 4 4 0 5 8
split_gain=20.3561 7.70006 2.66362 1.12841 0.00280995 0.00207671
threshold=-0.028468401857499655 0.63311405462995829 -0.097490475847929789 0.83387679957017524 -0.21001794699592694 -1.5496735703368005
decision_type=2 2 2 2 2 2
left_child=2 3 -1 -2 -4 -6
right_child=1 -3 4 -5 5 -7
leaf_value=-0.011906635186086152 0.078007681206049811 -0.017971060903736926 -0.088693592975843741 0.13139615769208399 -0.087250145963057482 -0.084541516980219583
leaf_weight=6.5987385809421566 7.669090777635577 7.4007965326309195 5.5295147001743379 8.1831208467483503 5.8698891401290929 5.4668130427598864
leaf_count=20 21 23 20 22 22 22
internal_value=-6.088e-05 0.0662486 -0.0657714 0.105568 -0.0868454 -0.085944
internal_weight=46.718 23.253 23.465 15.8522 16.8662 11.3367
internal_count=150 66 84 43 64 44
is_linear=0
shrinkage=0.1


Tree=14
num_leaves=6
num_cat=0
split_feature=3 4 6 4 6
split_gain=20.0657 5.39528 3.85681 0.111167 0.00966144
threshold=-0.22871380133882305 1.8939242960305225 1.0000000180025095e-35 0.63311405462995829 0.3225971317152892
decision_type=2 2 2 2 2
left_child=2 3 -1 4 -2
right_child=1 -3 -4 -5 -6
leaf_value=0.10686181640876842 -0.091796723450180709 0.016487684004771141 0.013314966005896345 -0.072961999017943049 -0.086377213125322649
leaf_weight=13.405244350433351 6.6523120403289848 7.3883811533451071 6.5659942626953116 6.2983039617538443 6.5070487260818481
leaf_count=37 23 22 20 23 25
internal_value=0.000202789 -0.0562631 0.0761062 -0.0838877 -0.0891169
internal_weight=46.8173 26.846 19.9712 19.4577 13.1594
internal_count=150 93 57 71 48
is_linear=0
shrinkage=0.1


Tree=15
num_leaves=6
num_cat=0
split_feature=8 4 4 0 0
split_gain=7.92706 7.96677 2.87402 2.23602 0.0919136
threshold=-1.1905542723539002 -0.097490475847929789 1.7446425466478266 0.66828873749762485 1.5696639610103522
decision_type=2 2 2 2 2
left_child=2 -2 4 -3 -1
right_child=1 3 -4 -5 -6
leaf_value=-0.070603281553847583 -0.039431659472634176 0.035587552094629403 0.0021441582342794537 0.10750419787043142 -0.08814782189756111
leaf_weight=5.876857057213785 9.4012632369995135 7.9335553646087673 6.7416676580905905 9.5005289018154127 6.0704434514045715
leaf_count=24 33 22 21 26 24
internal_value=-5.69238e-05 0.0347667 -0.0500598 0.0747778 -0.0795177
internal_weight=45.5243 26.8353 18.689 17.4341 11.9473
internal_count=150 81 69 48 48
is_linear=0
shrinkage=0.1


Tree=16
num_leaves=6
num_cat=0
split_feature=6 4 3 6 3
split_gain=17.4045 13.3902 0.451681 0.0278017 0.00136574
threshold=1.1021800927853389 -0.39744537088635756 1.2994955214829749 -0.4533842541442657 -0.26928096141065877
decision_type=2 2 2 2 2
left_child=1 -1 3 4 -3
right_child=-2 2 -4 -5 -6
leaf_value=0.054681844577416851 0.10590580598299618 -0.083122741533484951 -0.054033471509210319 -0.092301472622325256 -0.085436317411348883
leaf_weight=10.896186888217924 11.50716772675514 5.1470963954925537 5.1613247096538535 7.459084808826451 5.0597730576992035
leaf_count=31 32 22 19 26 20
internal_value=-0.000287382 -0.0365228 -0.0800576 -0.0876609 -0.0842696
internal_weight=45.2306 33.7235 22.8273 17.666 10.2069
internal_count=150 118 87 68 42
is_linear=0
shrinkage=0.1


Tree=17
num_leaves=6
num_cat=0
split_feature=8 5 3 8 6
split_gain=17.3458 5.10259 1.70465 0.955936 0.0099885
threshold=-0.8960027526887161 2.9994660094612264 -0.82841877399659891 1.0000000180025095e-35 0.3225971317152892
decision_type=2 2 2 2 2
left_child=1 2 -1 -2 -5
right_child=3 -3 -4 4 -6
leaf_value=0.11080548991308024 -0.036501287955835619 -0.0090556815590063285 0.047324908256490723 -0.087785236864128646 -0.082326166011257695
leaf_weight=10.26215845346451 5.5953869968652752 8.7135504484176618 7.1966168582439449 8.0391045957803708 5.7482591271400443
leaf_count=28 20 27 20 30 25
internal_value=0.000342221 0.0534448 0.0846384 -0.0713617 -0.0855092
internal_weight=45.5551 26.1723 17.4588 19.3828 13.7874
internal_count=150 75 48 75 55
is_linear=0
shrinkage=0.1


Tree=18
num_leaves=5
num_cat=0
split_feature=8 4 0 2
split_gain=6.73974 6.13065 3.47659 1.3131
threshold=-1.5496735703368005 -0.22992797214792823 0.7304908577920014 0.19881010820821884
decision_type=2 2 2 2
left_child=3 -2 -3 -1
right_child=1 2 -4 -5
leaf_value=-0.085657019486619912 -0.049346988820894055 0.012774290566869077 0.091672852429768928 -0.023763940794700417
leaf_weight=7.6356967836618406 7.9056449234485653 10.924022823572161 11.426909446716307 6.2200597822666168
leaf_count=32 30 31 32 25
internal_value=-0.000111078 0.0263402 0.0531112 -0.0578723
internal_weight=44.1123 30.2566 22.3509 13.8558
internal_count=150 93 63 57
is_linear=0
shrinkage=0.1


Tree=19
num_leaves=6
num_cat=0
split_feature=6 4 4 6 0
split_gain=15.441 6.05471 3.69889 0.00681504 0.00434203
threshold=0.23956080185262704 -0.60714073503140342 0.53460964618358864 -0.4533842541442657 0.66828873749762485
decision_type=2 2 2 2 2
left_child=1 -1 -2 4 -3
right_child=2 3 -4 -5 -6
leaf_value=0.02822516461919812 0.097167937733005416 -0.084852727636249334 0.0046697754572717484 -0.086908921498444217 -0.081043734025984693
leaf_weight=6.6116734445095089 12.917366355657579 5.16442766785622 6.497938245534896 5.3966416567563984 7.1170665472745895
leaf_count=19 36 21 20 21 33
internal_value=-0.000272563 -0.0534138 0.0662105 -0.083947 -0.0826454
internal_weight=43.7051 24.2898 19.4153 17.6781 12.2815
internal_count=150 94 56 75 54
is_linear=0
shrinkage=0.1


Tree=20
num_leaves=7
num_cat=0
split_feature=3 4 1 6 9 6
split_gain=15.0657 4.19672 2.84904 1.58931 0.116849 0.0089659
threshold=-0.11002725218547336 2.0740359501627252 -1.3176212166675418 -0.16201285163810306 -0.38341465046173551 0.3225971317152892
decision_type=2 2 2 2 2 2
left_child=2 4 -1 -4 -2 -6
right_child=1 -3 3 -5 5 -7
leaf_value=0.11427529533215329 -0.066694212175059844 0.01511636250307254 0.068560766379326968 -0.00069020617737804298 -0.087069919257762501 -0.081540416849295722
leaf_weight=7.1306377649307278 4.951129809021956 6.409236252307891 7.0338426828384408 6.2665816992521259 7.4433814436197263 4.8386048525571823
leaf_count=20 20 19 20 20 29 22
internal_value=0.000381461 -0.0539694 0.063275 0.0359327 -0.0796634 -0.0848915
internal_weight=44.0734 23.6424 20.4311 13.3004 17.2331 12.282
internal_count=150 90 60 40 71 51
is_linear=0
shrinkage=0.1


Tree=21
num_leaves=6
num_cat=0
split_feature=3 4 6 8 0
split_gain=5.96665 7.20667 4.10617 2.41693 0.726672
threshold=-0.61025675218068021 -0.22992797214792823 0.3225971317152892 -0.15519981232053801 0.4831566301485794
decision_type=2 2 2 2 2
left_child=4 -2 3 -3 -1
right_child=1 2 -4 -5 -6
leaf_value=-0.036180555189404724 -0.060463561537099343 0.042157136316948722 -0.018832839975794886 0.11719064107587336 -0.090235767349419072
leaf_weight=4.3607733100652677 8.1659166216850263 10.341190040111542 6.6581061780452719 7.3399699628353163 5.7875207215547562
leaf_count=21 34 30 20 21 24
internal_value=-7.07394e-05 0.0208274 0.0481009 0.0733058 -0.067008
internal_weight=42.6535 32.5052 24.3393 17.6812 10.1483
internal_count=150 105 71 51 45
is_linear=0
shrinkage=0.1


Tree=22
num_leaves=6
num_cat=0
split_feature=6 4 3 6 9
split_gain=13.6365 10.2743 0.451471 0.0307621 0.00453313
threshold=1.1021800927853389 -0.39744537088635756 1.2994955214829749 -0.16201285163810306 0.099333258517175962
decision_type=2 2 2 2 2
left_child=1 -1 3 4 -3
right_child=-2 2 -4 -5 -6
leaf_value=0.045045141978769625 0.094485049871903162 -0.079548635571766668 -0.049021994171531448 -0.091215621923290358 -0.083629788815342027
leaf_weight=10.640695720911028 11.147041559219359 5.5705676376819611 4.6705453544855109 4.7090563774108896 5.3217147141695023
leaf_count=31 32 28 19 17 23
internal_value=-0.000336272 -0.0345287 -0.076297 -0.0844623 -0.0815426
internal_weight=42.0596 30.9126 20.2719 15.6013 10.8923
internal_count=150 118 87 68 51
is_linear=0
shrinkage=0.1


Tree=23
num_leaves=6
num_cat=0
split_feature=8 0 8 8 6
split_gain=12.9635 3.97748 2.39826 1.22599 0.0127191
threshold=-0.8960027526887161 2.1943597465827778 -1.7721496255384797 -0.15519981232053801 0.3225971317152892
decision_type=2 2 2 2 2
left_child=1 2 -1 -2 -5
right_child=3 -3 -4 4 -6
leaf_value=0.10813981886125888 -0.022367667250054193 -0.0073773692203035748 0.030650974991950183 -0.085255124422649903 -0.078719062880756918
leaf_weight=9.4062173068523425 4.5839886069297817 9.0562097132205945 6.9417059421539333 7.7891394644975644 4.8195156902074814
leaf_count=27 18 28 20 32 25
internal_value=0.000402865 0.0457857 0.0752363 -0.0666555 -0.0827568
internal_weight=42.5968 25.4041 16.3479 17.1926 12.6087
internal_count=150 75 47 75 57
is_linear=0
shrinkage=0.1


Tree=24
num_leaves=6
num_cat=0
split_feature=3 4 6 8 7
split_gain=5.02022 5.97056 3.38307 2.1081 0.684959
threshold=-0.61025675218068021 -0.22992797214792823 0.3225971317152892 -0.15519981232053801 0.44110539046937441
decision_type=2 2 2 2 2
left_child=4 -2 3 -3 -1
right_child=1 2 -4 -5 -6
leaf_value=-0.087126040881384592 -0.057604171364669804 0.037910066344841085 -0.017549493641833454 0.10881646615626857 -0.032815106258830377
leaf_weight=5.4465763270854932 7.7127783298492458 10.346585243940359 6.5767076313495627 7.0499571561813346 4.0480278730392456
leaf_count=26 34 30 20 21 19
internal_value=-0.000186739 0.0189259 0.0435474 0.0666449 -0.0639706
internal_weight=41.1806 31.686 23.9733 17.3965 9.4946
internal_count=150 105 71 51 45
is_linear=0
shrinkage=0.1


Tree=25
num_leaves=6
num_cat=0
split_feature=6 4 4 6 0
split_gain=11.9153 4.63985 2.98547 0.0053699 0.00291762
threshold=0.23956080185262704 -0.60714073503140342 0.53460964618358864 -0.4533842541442657 0.66828873749762485
decision_type=2 2 2 2 2
left_child=1 -1 -2 4 -3
right_child=2 3 -4 -5 -6
leaf_value=0.019971511039738869 0.087622663746289853 -0.081368247911859329 0.003394941988129454 -0.083482849497937217 -0.077999523857158304
leaf_weight=6.5351586937904385 12.137151122093202 4.4908025562763214 6.4417933970689765 4.7794036269187901 6.0139443278312683
leaf_count=19 36 21 20 21 33
internal_value=-0.000436052 -0.0505504 0.0584188 -0.080704 -0.0794397
internal_weight=40.3983 21.8193 18.5789 15.2842 10.5047
internal_count=150 94 56 75 54
is_linear=0
shrinkage=0.1


Tree=26
num_leaves=7
num_cat=0
split_feature=3 4 1 6 6 1
split_gain=11.4485 3.53818 2.3088 1.20913 0.139307 0.0203964
threshold=-0.11002725218547336 2.0740359501627252 -1.3176212166675418 -0.16201285163810306 -0.79673001793172515 0.79961551544700959
decision_type=2 2 2 2 2 2
left_child=2 4 -1 -4 -2 -6
right_child=1 -3 3 -5 5 -7
leaf_value=0.10318856354994051 -0.061715138212275512 0.012862621463216609 0.059956130537085685 -0.0015324397775175861 -0.087146708672562703 -0.078296551741377909
leaf_weight=6.7630389034748104 4.698285400867463 6.3576072454452506 6.7886676490306863 6.0464462339878056 4.9015574157238007 5.5556022524833679
leaf_count=20 21 19 20 20 20 30
internal_value=0.000615544 -0.0497521 0.0559045 0.0309897 -0.0760185 -0.0824449
internal_weight=41.1112 21.5131 19.5982 12.8351 15.1554 10.4572
internal_count=150 90 60 40 71 50
is_linear=0
shrinkage=0.1


Tree=27
num_leaves=6
num_cat=0
split_feature=8 6 1 3 6
split_gain=4.50328 3.87687 4.10776 1.98372 1.36341
threshold=-1.5496735703368005 0.67822728594540926 -0.13511270293900066 1.1667179807160553 -0.40115897300874859
decision_type=2 2 2 2 2
left_child=4 2 -2 -4 -1
right_child=1 -3 3 -5 -6
leaf_value=-0.013964023190223732 -0.010648192079332028 -0.041369695183619937 0.12008633947170816 0.039951428832126733 -0.082086443867250655
leaf_weight=5.3130075633525848 8.2593557238578814 7.1804025471210471 6.2442426085472125 6.1136917471885681 6.5722202956676465
leaf_count=23 26 27 19 21 34
internal_value=-0.000115427 0.0219119 0.0439511 0.0804422 -0.0516339
internal_weight=39.6829 27.7977 20.6173 12.3579 11.8852
internal_count=150 93 66 40 57
is_linear=0
shrinkage=0.1


Tree=28
num_leaves=7
num_cat=0
split_feature=6 4 6 3 4 3
split_gain=10.5288 7.81822 1.85554 0.155451 0.0763609 0.00147307
threshold=1.1021800927853389 -1.0212789253290264 0.22516663905069859 1.0456539537232812 0.50180848881906204 -0.22871380133882305
decision_type=2 2 2 2 2 2
left_child=1 -1 3 4 -3 -6
right_child=-2 2 -4 -5 5 -7
leaf_value=0.067735764895052883 0.083947743575288877 -0.095319961388620214 -0.015241626142010054 -0.061102251388769693 -0.077313601769889329 -0.080100693993942901
leaf_weight=6.0509128868579891 10.643918782472609 4.3607398122549075 6.3804935067892066 3.612701103091239 3.7755739986896524 3.8100368678569785
leaf_count=18 32 19 21 19 22 19
internal_value=-0.000707982 -0.0329 -0.0606553 -0.0792786 -0.0847753 -0.0787135
internal_weight=38.6344 27.9905 21.9395 15.5591 11.9464 7.58561
internal_count=150 118 100 79 60 41
is_linear=0
shrinkage=0.1


Tree=29
num_leaves=7
num_cat=0
split_feature=8 0 4 1 5 8
split_gain=9.78718 3.12932 1.99011 1.33081 0.00564215 0.00169588
threshold=-0.8960027526887161 0.4831566301485794 0.91391744189404445 -0.09186618968076786 -1.7650271239700928 0.64875986512482797
decision_type=2 2 2 2 2 2
left_child=1 -1 -3 -2 -5 -6
right_child=3 2 -4 4 5 -7
leaf_value=0.094766013719311828 -0.011699884638547887 -0.030954547852099969 0.041134421216784511 -0.082294305060468489 -0.079141555399879396 -0.076011039026277358
leaf_weight=7.3217855989933041 3.8943002223968515 5.8038201332092312 11.257228970527647 4.3528360575437537 3.7721346914768192 3.1971587538719177
leaf_count=22 15 21 32 20 20 20
internal_value=0.000806403 0.0400799 0.0166112 -0.0621255 -0.0794696 -0.0777054
internal_weight=39.5993 24.3828 17.061 15.2164 11.3221 6.96929
internal_count=150 75 53 75 60 40
is_linear=0
shrinkage=0.1


end of trees

feature_importances:
Column_4=35
Column_6=33
Column_8=26
Column_0=18
Column_3=17
Column_5=10
Column_1=6
Column_9=3
Column_2=1
Column_7=1

parameters:
[boosting: gbdt]
[objective: multiclass]
[metric: multi_logloss]
[tree_learner: serial]
[device_type: cpu]
[data_sample_strategy: bagging]
[data: ]
[valid: ]
[num_iterations: 10]
[learning_rate: 0.1]
[num_leaves: 15]
[num_threads: 0]
[seed: 42]
[deterministic: 0]
[force_col_wise: 0]
[force_row_wise: 0]
[histogram_pool_size: -1]
[max_depth: -1]
[min_data_in_leaf: 20]
[min_sum_hessian_in_leaf: 0.001]
[bagging_fraction: 1]
[pos_bagging_fraction: 1]
[neg_bagging_fraction: 1]
[bagging_freq: 0]
[bagging_seed: 400]
[bagging_by_query: 0]
[feature_fraction: 1]
[feature_fraction_bynode: 1]
[feature_fraction_seed: 30056]
[extra_trees: 0]
[extra_seed: 12879]
[early_stopping_round: 0]
[early_stopping_min_delta: 0]
[first_metric_only: 0]
[max_delta_step: 0]
[lambda_l1: 0]
[lambda_l2: 0]
[linear_lambda: 0]
[min_gain_to_split: 0]
[drop_rate: 0.1]
[max_drop: 50]
[skip_drop: 0.5]
[xgboost_dart_mode: 0]
[uniform_drop: 0]
[drop_seed: 17869]
[top_rate: 0.2]
[other_rate: 0.1]
[min_data_per_group: 100]
[max_cat_threshold: 32]
[cat_l2: 10]
[cat_smooth: 10]
[max_cat_to_onehot: 4]
[top_k: 20]
[monotone_constraints: ]
[monotone_constraints_method: basic]
[monotone_penalty: 0]
[feature_contri: ]
[forcedsplits_filename: ]
[refit_decay_rate: 0.9]
[cegb_tradeoff: 1]
[cegb_penalty_split: 0]
[cegb_penalty_feature_lazy: ]
[cegb_penalty_feature_coupled: ]
[path_smooth: 0]
[interaction_constraints: ]
[verbosity: -1]
[saved_feature_importance_type: 0]
[use_quantized_grad: 0]
[num_grad_quant_bins: 4]
[quant_train_renew_leaf: 0]
[stochastic_rounding: 1]
[linear_tree: 0]
[max_bin: 255]
[max_bin_by_feature: ]
[min_data_in_bin: 3]
[bin_construct_sample_cnt: 200000]
[data_random_seed: 175]
[is_enable_sparse: 1]
[enable_bundle: 1]
[use_missing: 1]
[zero_as_missing: 0]
[feature_pre_filter: 1]
[pre_partition: 0]
[two_round: 0]
[header: 0]
[label_column: ]
[weight_column: ]
[group_column: ]
[ignore_column: ]
[categorical_feature: ]
[forcedbins_filename: ]
[precise_float_parser: 0]
[parser_config_file: ]
[objective_seed: 16083]
[num_class: 3]
[is_unbalance: 0]
[scale_pos_weight: 1]
[sigmoid: 1]
[boost_from_average: 1]
[reg_sqrt: 0]
[alpha: 0.9]
[fair_c: 1]
[poisson_max_delta_step: 0.7]
[tweedie_variance_power: 1.5]
[lambdarank_truncation_level: 30]
[lambdarank_norm: 1]
[label_gain: ]
[lambdarank_position_bias_regularization: 0]
[eval_at: ]
[multi_error_top_k: 1]
[auc_mu_weights: ]
[num_machines: 1]
[local_listen_port: 12400]
[time_out: 120]
[machine_list_filename: ]
[machines: ]
[gpu_platform_id: -1]
[gpu_device_id: -1]
[gpu_use_dp: 0]
[num_gpu: 1]

end of parameters

pandas_categorical:null
