{"learner":{"attributes":{},"feature_names":[],"feature_types":[],"gradient_booster":{"model":{"cats":{"enc":[],"feature_segments":[],"sorted_idx":[]},"gbtree_model_param":{"num_parallel_tree":"1","num_trees":"5"},"iteration_indptr":[0,1,2,3,4,5],"tree_info":[0,0,0,0,0],"trees":[{"base_weights":[-1.0580566E-6,-2.0967792E2,6.0098766E1,-4.563385E2,-1.4401242E2,3.1990036E1,4.3027008E2,-1.0488772E1,-4.871589E1,-2.008822E1,2.9624193E0,-6.873604E0,1.2197511E1,5.011669E0,4.6327374E1],"categories":[],"categories_nodes":[],"categories_segments":[],"categories_sizes":[],"default_left":[0,0,0,0,0,0,0,0,0,0,0,0,0,0,0],"id":0,"left_children":[1,3,5,7,9,11,13,-1,-1,-1,-1,-1,-1,-1,-1],"loss_changes":[2.5454795E6,6.631505E5,1.6198278E6,4.638975E4,3.713138E5,1.340769E6,1.14793125E5,0E0,0E0,0E0,0E0,0E0,0E0,0E0,0E0],"parents":[2147483647,0,0,1,1,2,2,3,3,4,4,5,5,6,6],"right_children":[2,4,6,8,10,12,14,-1,-1,-1,-1,-1,-1,-1,-1],"split_conditions":[-8.244233E-1,-1.333217E0,1.3049402E0,-7.3869747E-1,5.321161E-1,2.2500388E-2,-1.1296674E0,-1.0488772E1,-4.871589E1,-2.008822E1,2.9624193E0,-6.873604E0,1.2197511E1,5.011669E0,4.6327374E1],"split_indices":[55,13,87,9,85,85,13,0,0,0,0,0,0,0,0],"split_type":[0,0,0,0,0,0,0,0,0,0,0,0,0,0,0],"sum_hessian":[2E2,4.4E1,1.56E2,8E0,3.6E1,1.46E2,1E1,1E0,7E0,2.7E1,9E0,6.9E1,7.7E1,1E0,9E0],"tree_param":{"num_deleted":"0","num_feature":"100","num_nodes":"15","size_leaf_vector":"1"}},{"base_weights":[-9.784882E-2,-5.716953E1,1.9345172E2,-1.8877553E2,3.164268E1,7.243548E1,4.1582996E2,-2.2631466E1,3.2813256E0,-2.5653858E0,1.2060367E1,-7.3485055E0,1.3547048E1,9.741193E0,4.5436028E1],"categories":[],"categories_nodes":[],"categories_segments":[],"categories_sizes":[],"default_left":[0,0,0,0,0,0,0,0,0,0,0,0,0,0,0],"id":1,"left_children":[1,3,5,7,9,11,13,-1,-1,-1,-1,-1,-1,-1,-1],"loss_changes":[2.2313455E6,1.8293355E6,1.2078024E6,5.314755E5,4.8222666E5,2.9509616E5,1.5203975E5,0E0,0E0,0E0,0E0,0E0,0E0,0E0,0E0],"parents":[2147483647,0,0,1,1,2,2,3,3,4,4,5,5,6,6],"right_children":[2,4,6,8,10,12,14,-1,-1,-1,-1,-1,-1,-1,-1],"split_conditions":[6.761016E-1,-2.4788012E-1,4.3948606E-1,8.6018413E-1,-3.7893083E-2,-3.9099944E-1,-1.6151319E0,-2.2631466E1,3.2813256E0,-2.5653858E0,1.2060367E1,-7.3485055E0,1.3547048E1,9.741193E0,4.5436028E1],"split_indices":[87,55,15,69,87,69,84,0,0,0,0,0,0,0,0],"split_type":[0,0,0,0,0,0,0,0,0,0,0,0,0,0,0],"sum_hessian":[2E2,1.55E2,4.5E1,6.2E1,9.3E1,3E1,1.5E1,5.3E1,9E0,5.7E1,3.6E1,9E0,2.1E1,2E0,1.3E1],"tree_param":{"num_deleted":"0","num_feature":"100","num_nodes":"15","size_leaf_vector":"1"}},{"base_weights":[1.6825935E-1,-5.151575E1,1.7544081E2,-1.7020512E2,2.8579422E1,6.593489E1,3.583665E2,-3.476012E1,-5.212545E0,-5.5647016E-1,1.6365173E1,-1.2427302E1,1.1866491E1,9.193382E0,3.8776196E1],"categories":[],"categories_nodes":[],"categories_segments":[],"categories_sizes":[],"default_left":[0,0,0,0,0,0,0,0,0,0,0,0,0,0,0],"id":2,"left_children":[1,3,5,7,9,11,13,-1,-1,-1,-1,-1,-1,-1,-1],"loss_changes":[1.8298542E6,1.4878699E6,8.978176E5,1.3015341E6,4.344317E5,3.156369E5,9.7494E4,0E0,0E0,0E0,0E0,0E0,0E0,0E0,0E0],"parents":[2147483647,0,0,1,1,2,2,3,3,4,4,5,5,6,6],"right_children":[2,4,6,8,10,12,14,-1,-1,-1,-1,-1,-1,-1,-1],"split_conditions":[6.761016E-1,-2.4788012E-1,2.1662498E-1,-7.043437E-1,7.5518495E-1,-1.3212092E0,-1.1699169E0,-3.476012E1,-5.212545E0,-5.5647016E-1,1.6365173E1,-1.2427302E1,1.1866491E1,9.193382E0,3.8776196E1],"split_indices":[87,55,31,31,67,32,44,0,0,0,0,0,0,0,0],"split_type":[0,0,0,0,0,0,0,0,0,0,0,0,0,0,0],"sum_hessian":[2E2,1.55E2,4.5E1,6.2E1,9.3E1,2.9E1,1.6E1,2.4E1,3.8E1,7.5E1,1.8E1,6E0,2.3E1,2E0,1.4E1],"tree_param":{"num_deleted":"0","num_feature":"100","num_nodes":"15","size_leaf_vector":"1"}},{"base_weights":[2.6707658E-1,-6.402659E1,1.3274695E2,-1.1380519E2,1.01310265E2,5.5515648E1,3.208709E2,-2.4681538E1,-4.377416E0,9.7412986E-1,1.5576459E1,-7.455381E0,1.2924903E1,3.804479E1,2.3453398E-1],"categories":[],"categories_nodes":[],"categories_segments":[],"categories_sizes":[],"default_left":[0,0,0,0,0,0,0,0,0,0,0,0,0,0,0],"id":3,"left_children":[1,3,5,7,9,11,13,-1,-1,-1,-1,-1,-1,-1,-1],"loss_changes":[1.7205402E6,1.1308418E6,9.411046E5,9.672541E5,1.5804503E5,4.6997812E5,3.5966662E5,0E0,0E0,0E0,0E0,0E0,0E0,0E0,0E0],"parents":[2147483647,0,0,1,1,2,2,3,3,4,4,5,5,6,6],"right_children":[2,4,6,8,10,12,14,-1,-1,-1,-1,-1,-1,-1,-1],"split_conditions":[2.6621526E-1,6.982233E-1,7.5896925E-1,-4.0469587E-1,6.573766E-2,-2.4989374E-1,9.397355E-1,-2.4681538E1,-4.377416E0,9.7412986E-1,1.5576459E1,-7.455381E0,1.2924903E1,3.804479E1,2.3453398E-1],"split_indices":[28,85,87,55,87,55,50,0,0,0,0,0,0,0,0],"split_type":[0,0,0,0,0,0,0,0,0,0,0,0,0,0,0],"sum_hessian":[2E2,1.35E2,6.5E1,1.04E2,3.1E1,4.7E1,1.8E1,3.5E1,6.9E1,1.2E1,1.9E1,1.7E1,3E1,1.5E1,3E0],"tree_param":{"num_deleted":"0","num_feature":"100","num_nodes":"15","size_leaf_vector":"1"}},{"base_weights":[3.9579463E-1,-4.519495E1,1.427425E2,-1.4202354E2,6.2864105E1,7.084265E1,3.364003E2,-2.432509E1,-5.563609E0,1.2583781E1,-1.307156E0,1.603521E1,-1.325798E0,6.1689067E0,3.807397E1],"categories":[],"categories_nodes":[],"categories_segments":[],"categories_sizes":[],"default_left":[0,0,0,0,0,0,0,0,0,0,0,0,0,0,0],"id":4,"left_children":[1,3,5,7,9,11,13,-1,-1,-1,-1,-1,-1,-1,-1],"loss_changes":[1.3108794E6,1.6097988E6,6.5844294E5,6.947931E5,3.507273E5,2.806546E5,1.3485938E5,0E0,0E0,0E0,0E0,0E0,0E0,0E0,0E0],"parents":[2147483647,0,0,1,1,2,2,3,3,4,4,5,5,6,6],"right_children":[2,4,6,8,10,12,14,-1,-1,-1,-1,-1,-1,-1,-1],"split_conditions":[6.4837277E-1,1.1802772E-1,6.5436566E-1,-2.4989374E-1,-2.2034865E-2,1.303572E-1,-1.2592956E0,-2.432509E1,-5.563609E0,1.2583781E1,-1.307156E0,1.603521E1,-1.325798E0,6.1689067E0,3.807397E1],"split_indices":[87,85,15,55,61,81,0,0,0,0,0,0,0,0,0],"split_type":[0,0,0,0,0,0,0,0,0,0,0,0,0,0,0],"sum_hessian":[2E2,1.52E2,4.8E1,8E1,7.2E1,3.6E1,1.2E1,3.6E1,4.4E1,3.9E1,3.3E1,1.7E1,1.9E1,2E0,1E1],"tree_param":{"num_deleted":"0","num_feature":"100","num_nodes":"15","size_leaf_vector":"1"}}]},"name":"gbtree"},"learner_model_param":{"base_score":"[2.338418E0]","boost_from_average":"1","num_class":"0","num_feature":"100","num_target":"1"},"objective":{"name":"reg:squarederror","reg_loss_param":{"scale_pos_weight":"1"}}},"version":[3,1,1]}