{"learner":{"attributes":{},"feature_names":[],"feature_types":[],"gradient_booster":{"model":{"boosted_rounds":200,"weights":[7.947026E1,6.5648966E0,6.438198E1,7.8813805E1,5.5500427E1,1.6365713E0,4.82655E-2,-1.8423359E-1,4.4993818E-1,8.819685E1,6.863055E1,4.3964573E1,8.587607E1,5.9353893E1,8.512328E1,4.0340977E1,2.9190848E0,4.5854047E-1,1.1118538E1,7.672945E1,8.276402E-1,2.4702365E-2,8.076716E1,8.842575E0,7.2066734E1,6.157678E1,3.6791158E0,3.4942687E-1,-1.6191849E0,2.3779348E-1,1.9100931E1,1.8494228E1,-1.6482402E-1,1.752696E0,-1.071958E0,4.449957E0,-5.6542134E-1,8.632922E-2,6.868054E1,5.869148E1,7.127827E1,6.813889E1,2.962349E-1,-7.948234E-2,1.4959124E0,5.2503895E1,7.645052E1,5.05143E-1,-2.6026553E-1,2.5413712E1,4.5441877E-4,-1.0788487E0,3.3946216E-2,7.076085E0,6.950637E1,2.2384304E1,3.174224E-1,1.6980747E0,2.1445358E1,5.8101772E1,8.219032E-1,5.0313484E1,1.8382422E0,-8.377107E-2,6.2483257E1,7.967776E1,-1.3846447E-1,7.963513E1,7.418016E1,-1.0620415E0,-5.5969834E-1,4.0844368E1,-1.5035682E-4,7.173197E1,-8.8314766E-1,9.9394596E-1,7.690063E1,9.1217566E-1,7.495046E1,5.879965E1,-4.6563387E-1,7.8477615E1,3.288687E1,8.788274E1,-9.6697205E-1,8.625647E1,1.9909592E1,5.9367406E-1,2.5406618E1,2.4117939E1,-1.2138463E0,5.107103E1,3.6382854E1,8.5665924E1,2.5157707E1,7.039824E1,7.657942E1,3.2797157E1,1.3340067E0,9.069966E1,-6.328634E0]},"name":"gblinear"},"learner_model_param":{"base_score":"[6.7853923E0]","boost_from_average":"1","num_class":"0","num_feature":"100","num_target":"1"},"objective":{"name":"reg:squarederror","reg_loss_param":{"scale_pos_weight":"1"}}},"version":[3,1,1]}