{"learner":{"attributes":{},"feature_names":[],"feature_types":[],"gradient_booster":{"model":{"boosted_rounds":300,"weights":[-6.2820977E-1,1.2192025E-1,2.342233E1,2.0618004E1,-1.622232E-1,6.0261917E1,1.9832146E1,6.6315384E1,-5.603159E-1,-2.4118133E-1,4.7891772E-1,7.680228E1,1.5334444E0,-4.1291478E-1,7.351649E1,4.8133332E-1,4.585755E1,-6.8153155E-1,1.6807268E0,4.9410397E1,5.0892174E1,3.1564083E1,-7.649706E-1,5.5785595E1,5.0047356E-1,-9.230731E-1,-9.3263596E-1,1.7509226E1,4.3894722E1,1.0546542E0,1.132858E0,5.6443024E-1,-1.9191836E0,-1.3138698E0,-1.8455395E-1,5.916232E1,3.693883E-1,1.0359008E1,4.589278E1,-6.4198637E-1,4.0210644E1,5.0885788E1,-6.037855E-1,4.0563688E-1,1.894498E1,-6.980794E-1,6.3192867E1,1.0087604E1,9.778607E0,-9.8737997E-1,5.509847E-1,5.0286346E1,7.9390574E-1,1.9050467E1,1.0860791E0,2.9317005E1,9.053918E-3,2.2663563E1,2.478954E-1,-1.3209546E0,4.9353527E1,1.3427215E0,3.199064E1,3.8443846E-1,1.9322504E0,6.0227907E-1,-1.0134543E0,-2.9325745E-1,3.8118646E-1,-4.7345697E-3,7.471244E1,-2.7995512E-1,-6.342142E-1,-4.497722E-1,2.7721735E1,5.6374586E-1,3.0727203E1,1.0190752E0,1.018282E0,1.9504198E1,3.716186E1,6.354063E-1,1.3041435E1,4.605384E1,-2.4957697E0,-4.536803E-1,6.027519E-1,9.077662E-1,1.5667261E-1,-1.5409268E-4,-6.373697E-6,9.491986E-2,-5.0469184E-1,8.1078285E1,4.9790127E1,-8.048242E-1,-1.3911853E0,6.846342E-1,-1.2180626E-1,-8.309552E-1,3.3916138E1,8.364198E0,4.766819E-1,1.7009754E1,1.4608368E-2,7.781704E-5,3.9732494E1,7.976463E0,2.482598E0,7.938459E1,6.80588E1,-3.0559286E-1,5.53979E1,-6.8520576E-1,6.2058955E-2,7.239221E1,1.8322266E1,1.1479837E0,-1.2087749E0,1.6794224E-1,-8.991015E-1,-1.0604956E0,6.94451E1,-7.30557E-5,-1.6584264E-1,-1.052144E0,2.3367863E1,1.6265665E1,1.4057903E0,4.563751E1,-1.983265E0,6.982499E1,1.1850642E0,1.6283865E1,3.536203E1,1.5075743E1,7.623618E1,2.7486387E1,6.59767E1,2.1464949E1,7.349835E1,8.118497E0,-2.0577137E0,-2.7262678E0,7.022372E-1,-8.814906E-2,3.5097652E1,5.3438694E1,-1.6679367E-1,5.989926E1,2.4036188E1,8.9078176E-1,-3.822314E-1,1.7161249E0,8.168476E-1,7.823242E1,1.8633521E0,6.469477E1,1.21782795E-1,6.611897E1,-8.100928E-2,1.7276741E1,-7.4878806E-1,3.2087395E1,-6.546136E-2,6.5997765E1,-1.3461981E0,1.7289001E1,2.1619635E0,6.217581E1,7.4018074E1,3.3249645E1,5.782262E1,1.3790946E1,3.9159325E1,2.0395529E1,1.852448E0,7.377784E1,5.3528343E1,3.287383E1,3.263648E1,6.446377E1,5.0136226E-1,6.8496086E1,2.926821E1,-1.6624576E0,4.126088E1,-2.4182994E-2,5.9757652E1,1.4124136E1,6.0400627E1,9.2495245E-1,9.420825E0,3.9334483E0,-9.6010536E-1,1.9939089E0,-2.2882888E-1,2.6642776E1,8.710245E-1,2.9223993E0,1.1462971E1]},"name":"gblinear"},"learner_model_param":{"base_score":"[-1.3539149E1]","boost_from_average":"1","num_class":"0","num_feature":"200","num_target":"1"},"objective":{"name":"reg:squarederror","reg_loss_param":{"scale_pos_weight":"1"}}},"version":[3,1,1]}