tree
version=v4
num_class=1
num_tree_per_iteration=1
label_index=0
max_feature_idx=4
objective=regression
feature_names=Column_0 Column_1 Column_2 Column_3 Column_4
feature_infos=[-2.650969808393012:3.0788808084552377] [-2.7032322929992372:3.1931075678448608] [-3.0195121558208253:3.8527314906547208] [-2.9403886346642802:2.5581992856682523] [-3.2412673400690726:3.1377485336599946]
tree_sizes=786 795 798 793 789 798 791 792 793 792 798 797 787 797 794 796 796 806 799 800

Tree=0
num_leaves=8
num_cat=0
split_feature=1 3 3 1 1 3 3
split_gain=2.11875e+06 906109 612900 335862 237050 203900 168217
threshold=-0.25320628848986165 0.29517220303903496 -0.41796661833308008 1.3193490489536692 0.64849516071675095 0.83372555807891446 -0.59588447359632091
decision_type=2 2 2 2 2 2 2
left_child=2 4 -1 -3 6 -4 -2
right_child=1 3 5 -5 -6 -7 -8
leaf_value=-11.86107526943263 -2.7636455795967834 13.542270753031685 -2.7274133368051512 27.681512198209759 8.7656026832666676 6.3527319383223855 5.2552252449463985
leaf_weight=68 47 105 79 20 86 36 59
leaf_count=68 47 105 79 20 86 36 59
internal_value=4.23251 9.17848 -4.33508 15.8045 4.86463 0.115067 1.69969
internal_weight=500 317 183 125 192 115 106
internal_count=500 317 183 125 192 115 106
is_linear=0
shrinkage=1


Tree=1
num_leaves=8
num_cat=0
split_feature=1 3 3 1 1 3 1
split_gain=1.74212e+06 830344 405213 302356 250234 157401 151957
threshold=-0.40586191813177402 0.29517220303903496 -0.044896631652895987 0.78841605284693961 0.32272059242253409 -1.0162477295132695 -0.8903533275204053
decision_type=2 2 2 2 2 2 2
left_child=2 4 6 -3 -2 -6 -1
right_child=1 3 -4 -5 5 -7 -8
leaf_value=-17.952406754604606 -4.0622994791377671 7.1417039978260908 -3.7093581652955003 17.751619988518794 -3.2607668972784474 4.9671978522372511 -9.0063386917114254
leaf_weight=43 88 98 76 37 31 93 34
leaf_count=43 88 98 76 37 31 93 34
internal_value=-4.57764e-08 3.91954 -8.88941 10.0496 0.0159588 2.91021 -14.0022
internal_weight=500 347 153 135 212 124 77
internal_count=500 347 153 135 212 124 77
is_linear=0
shrinkage=0.1


Tree=2
num_leaves=8
num_cat=0
split_feature=1 3 3 1 1 3 3
split_gain=1.42763e+06 564345 493266 262867 215830 138330 137508
threshold=-0.12464831438040887 -0.19549893979352209 -0.52974272733503869 1.4509418535053136 -1.2119148157394686 1.1253388747668855 0.86435971552207536
decision_type=2 2 2 2 2 2 2
left_child=2 -2 -1 5 -4 -3 -6
right_child=1 3 4 -5 6 -7 -8
leaf_value=-13.384467593106358 -0.66548643773343386 5.0843887610868981 -9.8325222730636597 19.095816116333008 -3.0521496525406842 12.082821695428146 4.7041145697236066
leaf_weight=66 119 110 35 20 80 38 32
leaf_count=66 119 110 35 20 80 38 32
internal_value=-4.45843e-08 4.60332 -6.2026 8.33539 -2.97809 6.88128 -0.836074
internal_weight=500 287 213 168 147 148 112
internal_count=500 287 213 168 147 148 112
is_linear=0
shrinkage=0.1


Tree=3
num_leaves=8
num_cat=0
split_feature=1 3 3 1 1 3 1
split_gain=1.17354e+06 491178 453729 215319 194020 158433 94333.9
threshold=0.11339387789450624 -0.044896631652895987 0.38475818054047678 -0.8903533275204053 -0.98303700984181419 -1.0162477295132695 1.1945694995618132
decision_type=2 2 2 2 2 2 2
left_child=1 3 5 -1 -3 -2 -4
right_child=2 4 6 -5 -6 -7 -8
leaf_value=-14.948627090454103 -3.7404628046249089 -6.5017071063701923 9.1230244787912529 -6.1742807632684711 1.8377672128835503 3.676191519156975 17.005953979492187
leaf_weight=43 38 39 63 80 98 119 20
leaf_count=43 38 39 63 80 98 119 20
internal_value=1.94415e-08 -4.65461 5.0425 -9.24174 -0.536244 1.88108 11.0225
internal_weight=500 260 240 123 137 157 83
internal_count=500 260 240 123 137 157 83
is_linear=0
shrinkage=0.1


Tree=4
num_leaves=8
num_cat=0
split_feature=1 3 3 1 3 1 1
split_gain=964244 463670 242783 240994 164926 118796 84377.1
threshold=-0.40586191813177402 -0.6107759976123337 0.38475818054047678 1.6065517843670503 0.89104030506251641 0.80376606093249647 -0.83435842655142423
decision_type=2 2 2 2 2 2 2
left_child=2 5 6 4 -3 -2 -1
right_child=1 3 -4 -5 -6 -7 -8
leaf_value=-11.788168563217413 -5.530923037370667 2.6011668444344265 -0.97993735729479325 15.388074366251628 8.6216050178773944 2.1843789004046346 -5.9219860821235475
leaf_weight=61 64 171 51 21 62 29 41
leaf_count=61 64 171 51 21 62 29 41
internal_value=-5.47618e-11 2.91601 -6.61344 5.12791 4.20317 -3.12508 -9.43019
internal_weight=500 347 153 254 233 93 102
internal_count=500 347 153 254 233 93 102
is_linear=0
shrinkage=0.1


Tree=5
num_leaves=8
num_cat=0
split_feature=1 3 3 1 1 3 3
split_gain=827140 378655 276706 158646 148257 88220.2 63223.2
threshold=0.23313233494707827 1.0000000180025095e-35 0.48311397868539258 -1.2119148157394686 -0.8903533275204053 -1.0162477295132695 1.0607582815733461
decision_type=2 2 2 2 2 2 2
left_child=1 4 5 -3 -1 -2 -5
right_child=2 3 -4 6 -6 -7 -8
leaf_value=-11.960490315755209 -2.4324649408459664 -6.8251661106392199 9.8879238944122765 -0.0080321777955089744 -5.0042451738535121 3.5038748708367353 4.9036511453986167
leaf_weight=45 32 27 69 76 96 115 40
leaf_count=45 32 27 69 76 96 115 40
internal_value=-9.65819e-09 -3.54709 4.66377 0.0787141 -7.22432 2.21161 1.68565
internal_weight=500 284 216 143 141 147 116
internal_count=500 284 216 143 141 147 116
is_linear=0
shrinkage=0.1


Tree=6
num_leaves=8
num_cat=0
split_feature=1 3 3 1 3 3 1
split_gain=670097 331158 226072 147839 103281 83494.9 71373.3
threshold=0.28617740369235628 -0.52974272733503869 0.22311312672206479 -1.3256277323892418 0.86435971552207536 -1.6042825027972869 1.3193490489536692
decision_type=2 2 2 2 2 2 2
left_child=1 5 -2 -3 -5 -1 -4
right_child=2 3 6 4 -6 -7 -8
leaf_value=-13.829350128173829 1.7082988181976768 -7.8971236485701342 6.8122574102683151 -1.3906966977466748 3.8302678101592593 -6.4912183243295418 13.696092042922974
leaf_weight=20 123 26 61 127 54 69 20
leaf_count=20 123 26 61 127 54 69 20
internal_value=-6.29425e-09 -3.03916 4.40976 -0.845938 0.166939 -8.14024 8.51197
internal_weight=500 296 204 207 181 89 81
internal_count=500 296 204 207 181 89 81
is_linear=0
shrinkage=0.1


Tree=7
num_leaves=8
num_cat=0
split_feature=1 3 1 3 0 0 1
split_gain=552942 271069 164311 141546 77364.3 75303.5 73914.7
threshold=-0.40586191813177402 -0.6107759976123337 0.90673419239919184 -0.59588447359632091 -0.32777843155534298 -1.0810100549321233 1.0285673979820416
decision_type=2 2 2 2 2 2 2
left_child=3 6 4 -1 -3 -5 -2
right_child=1 2 -4 5 -6 -7 -8
leaf_value=-9.7201492028766214 -3.8864676140759089 -0.38470680834725501 8.3752143752190378 -8.583641963005066 3.8734911406412724 -1.7859263309700921 2.9752142584323886
leaf_weight=45 73 64 62 20 128 88 20
leaf_count=45 73 64 62 20 128 88 20
internal_value=7.15256e-10 2.20819 3.89941 -5.00811 2.45409 -3.04476 -2.41084
internal_weight=500 347 254 153 192 108 93
internal_count=500 347 254 153 192 108 93
is_linear=0
shrinkage=0.1


Tree=8
num_leaves=8
num_cat=0
split_feature=1 3 1 1 3 0 0
split_gain=461853 301784 142856 111501 107064 78798.8 61415.1
threshold=-0.79149759693900623 0.21694573138084891 0.80376606093249647 0.78841605284693961 -1.3989919488609808 -0.74563755104130547 -0.48710648480768876
decision_type=2 2 2 2 2 2 2
left_child=5 2 4 6 -2 -1 -3
right_child=1 3 -4 -5 -6 -7 -8
leaf_value=-11.489262294769288 -8.6621704764988117 0.30711159814487804 3.252603351336623 9.5684058859541619 -1.3350244817386072 -4.6726553483589282 4.8915622847004876
leaf_weight=22 23 44 63 37 150 74 87
leaf_count=22 23 44 63 37 150 74 87
internal_value=-2.96384e-09 1.48154 -0.824447 4.72089 -2.30915 -6.23479 3.35175
internal_weight=500 404 236 168 173 96 131
internal_count=500 404 236 168 173 96 131
is_linear=0
shrinkage=0.1


Tree=9
num_leaves=8
num_cat=0
split_feature=1 3 3 3 1 1 0
split_gain=392581 180127 172447 91283 82902.6 46474.2 44830.3
threshold=0.11339387789450624 0.27225179448483777 1.2033145048750689 -0.80395038223004989 -0.83435842655142423 -1.034638717653801 -0.11207482458922434
decision_type=2 2 2 2 2 2 2
left_child=1 4 3 6 -1 -3 -2
right_child=2 5 -4 -5 -6 -7 -8
leaf_value=-7.814716438589425 -4.9911749738713977 -3.0656824116523449 9.6300025795445308 3.125057309806742 -3.0624737884867939 1.8322500309269678 0.76002892580899328
leaf_weight=58 23 26 33 151 100 76 33
leaf_count=58 23 26 33 151 100 76 33
internal_value=-7.16187e-09 -2.69214 2.91649 1.84622 -4.80697 0.583757 -1.60207
internal_weight=500 260 240 207 158 102 56
internal_count=500 260 240 207 158 102 56
is_linear=0
shrinkage=0.1


Tree=10
num_leaves=8
num_cat=0
split_feature=1 3 3 3 0 3 1
split_gain=324205 167062 126413 77715.9 66554.1 63710.1 62497.3
threshold=0.28617740369235628 -0.044896631652895987 1.2033145048750689 -1.6042825027972869 0.23301980447587564 -1.0162477295132695 -1.3256277323892418
decision_type=2 2 2 2 2 2 2
left_child=1 3 5 -1 -5 -2 -3
right_child=2 6 -4 4 -6 -7 -8
leaf_value=-10.37942388534546 -1.9435094568878413 -5.0650150763988497 9.4408983711843142 -5.7558209034933974 -1.0379531098736656 2.9863173525086766 0.92481688486205216
leaf_weight=20 32 20 27 67 54 145 135
leaf_count=20 32 20 27 67 54 145 135
internal_value=2.53916e-09 -2.11395 3.06729 -4.60481 -3.65033 2.09505 0.151935
internal_weight=500 296 204 141 121 177 155
internal_count=500 296 204 141 121 177 155
is_linear=0
shrinkage=0.1


Tree=11
num_leaves=8
num_cat=0
split_feature=1 3 3 1 3 1 0
split_gain=265864 131585 121591 71437.3 59660.9 56406.6 52316.8
threshold=-0.041281030588333816 -0.19549893979352209 -0.67128168145189238 1.3483505401805858 0.86435971552207536 1.3193490489536692 -0.20301925959018766
decision_type=2 2 2 2 2 2 2
left_child=2 5 -1 -3 6 -2 -4
right_child=1 3 4 -5 -6 -7 -8
leaf_value=-6.7894387960433962 -1.5131662746322783 3.0984378952922218 -4.7708995630156315 9.1309191869652793 1.9049325151876972 4.0060840482297158 -0.67762490032534861
leaf_weight=52 95 134 53 23 44 23 76
leaf_count=52 95 134 53 23 44 23 76
internal_value=5.96046e-10 2.08579 -2.54929 3.98218 -1.2748 -0.43738 -2.35936
internal_weight=500 275 225 157 173 118 129
internal_count=500 275 225 157 173 118 129
is_linear=0
shrinkage=0.1


Tree=12
num_leaves=8
num_cat=0
split_feature=1 3 1 3 0 0 0
split_gain=233220 161400 96638.4 101964 61484 46954.9 36956
threshold=-0.8903533275204053 1.1253388747668855 1.2469136325856816 -1.3989919488609808 -0.30214173921178183 -0.74563755104130547 0.1684530876153795
decision_type=2 2 2 2 2 2 2
left_child=5 2 3 -2 -5 -1 -3
right_child=1 6 -4 4 -6 -7 -8
leaf_value=-8.698828517306934 -6.3757539890430595 3.1242458884205142 4.6623186756924886 -1.9326054115789106 1.1793368984582062 -3.3540211236476902 7.7533116363427217
leaf_weight=22 27 35 41 99 177 65 34
leaf_count=22 27 35 41 99 177 65 34
internal_value=9.18508e-09 0.991248 0.105885 -0.510662 0.0630967 -4.70558 5.40523
internal_weight=500 413 344 303 276 87 69
internal_count=500 413 344 303 276 87 69
is_linear=0
shrinkage=0.1


Tree=13
num_leaves=8
num_cat=0
split_feature=1 3 3 0 0 3 1
split_gain=190612 101005 80545 62607.5 45386.2 42135.7 35936.3
threshold=0.28617740369235628 -0.71456443181581197 0.016353500450913636 -0.60676845504888532 0.19959190374141145 0.80071693616127548 -0.98303700984181419
decision_type=2 2 2 2 2 2 2
left_child=1 6 -2 -3 -4 -5 -1
right_child=2 3 4 5 -6 -7 -8
leaf_value=-8.5435577583312998 0.51507154531099586 -3.2242787362979008 2.6510793440992182 -0.50462589216729004 7.1108469548897872 3.1755382336676123 -3.5134385590650599
leaf_weight=20 110 65 55 120 39 42 49
leaf_count=20 110 65 55 120 39 42 49
internal_value=2.96831e-09 -1.62091 2.35191 -0.60247 4.50141 0.449491 -4.97144
internal_weight=500 296 204 227 94 162 69
internal_count=500 296 204 227 94 162 69
is_linear=0
shrinkage=0.1


Tree=14
num_leaves=8
num_cat=0
split_feature=1 3 0 1 3 3 1
split_gain=164363 115393 75495.2 50790.5 42576 36945 32683.9
threshold=-0.8903533275204053 1.1253388747668855 -0.076135313056424139 1.3193490489536692 -1.0939879815172577 -0.43822539715738512 0.39860773787917964
decision_type=2 2 2 2 2 2 2
left_child=5 2 4 -4 -2 -1 -6
right_child=1 -3 3 -5 6 -7 -8
leaf_value=-6.4621324477876945 -5.2368239301901598 4.5643880511323607 0.85014691659344166 6.0681263333275206 -2.2270638856622909 -2.2596891449621093 0.96269886062063026
leaf_weight=35 26 69 167 21 72 52 58
leaf_count=35 26 69 167 21 72 52 58
internal_value=8.70377e-09 0.832151 0.083534 1.43301 -1.54275 -3.95033 -0.803939
internal_weight=500 413 344 188 156 87 130
internal_count=500 413 344 188 156 87 130
is_linear=0
shrinkage=0.1


Tree=15
num_leaves=8
num_cat=0
split_feature=1 1 3 3 0 0 3
split_gain=134355 97237.3 81315.5 57689.7 48078.1 37103.6 23796.4
threshold=-0.79149759693900623 1.6633003223569163 -1.5598863536782039 1.671238445594555 0.64634006042190839 -0.72468713059717749 -0.71456443181581197
decision_type=2 2 2 2 2 2 2
left_child=5 2 -2 4 -4 -1 -7
right_child=1 -3 3 -5 -6 6 -8
leaf_value=-6.8652042181595521 -5.3540312808492914 6.9722978750864675 -0.28730408620748504 5.6247136074563739 2.4074747056751464 -5.1003655002230692 -1.1118993986111423
leaf_weight=23 23 24 243 23 91 21 52
leaf_count=23 23 24 243 23 91 21 52
internal_value=1.30638e-08 0.799075 0.409187 0.780487 0.446902 -3.36277 -2.25927
internal_weight=500 404 380 357 334 96 73
internal_count=500 404 380 357 334 96 73
is_linear=0
shrinkage=0.1


Tree=16
num_leaves=8
num_cat=0
split_feature=1 3 3 0 1 0 0
split_gain=118040 97510.1 69273.1 55721.7 37287 33516.4 22080.5
threshold=0.80376606093249647 -1.5598863536782039 0.75381647545905361 0.32289891672705934 -1.2705941765029696 0.49871409969716418 -0.57712821417586746
decision_type=2 2 2 2 2 2 2
left_child=1 -1 3 4 -3 -2 -4
right_child=5 2 6 -5 -6 -7 -8
leaf_value=-6.5671625455220539 1.7912688582232505 -5.8669288177490238 -0.28096141910978728 0.5310783443831596 -1.6720157161247817 5.6944361717411969 3.0940515997479601
leaf_weight=27 66 25 28 119 139 33 63
leaf_count=27 66 25 28 119 139 33 63
internal_value=-2.74666e-09 -0.763442 -0.344457 -1.1162 -2.31148 3.09232 2.05559
internal_weight=500 401 374 283 164 99 91
internal_count=500 401 374 283 164 99 91
is_linear=0
shrinkage=0.1


Tree=17
num_leaves=8
num_cat=0
split_feature=3 1 0 1 3 3 0
split_gain=101791 60661.4 57855.5 35661.8 30374.5 22027.4 21909.9
threshold=1.0000000180025095e-35 0.12666445877934832 -0.20301925959018766 1.0565446186897629 1.5353354157075654 -1.2669331949524751 -1.2377389605770732
decision_type=2 2 2 2 2 2 2
left_child=2 6 -1 5 -3 -4 -2
right_child=1 4 3 -5 -6 -7 -8
leaf_value=-3.3436632710198562 -2.8898438193581324 2.3838217689001815 -3.4174507900520612 3.3205976863702142 6.6755063772201542 -0.21802380238220379 0.56456049997527324
leaf_weight=96 22 94 27 24 20 106 111
leaf_count=96 22 94 27 24 20 106 111
internal_value=2.72691e-09 1.44404 -1.4098 -0.227308 3.13675 -0.867532 -0.00684473
internal_weight=500 247 253 157 114 133 133
internal_count=500 247 253 157 114 133 133
is_linear=0
shrinkage=0.1


Tree=18
num_leaves=8
num_cat=0
split_feature=1 1 3 3 0 0 3
split_gain=89781.2 59988.4 47213.9 37309.3 32682 28587.1 22004.8
threshold=-0.40586191813177402 1.6633003223569163 -0.68893905962094881 0.68917020937583973 -0.91276344826773725 -0.72468713059717749 1.5123023367447395
decision_type=2 2 2 2 2 2 2
left_child=3 2 -2 4 -1 -4 -7
right_child=1 -3 5 -5 -6 6 -8
leaf_value=-6.3449532855640767 -1.5933973360665237 5.7133196651935583 -0.88630619653884113 0.84925114018576486 -2.0718004869297149 1.3927480595408461 4.7526567112315785
leaf_weight=22 79 24 51 35 96 171 22
leaf_count=22 79 24 51 35 96 171 22
internal_value=6.19866e-09 0.889793 0.531388 -2.01803 -2.86849 1.21933 1.77574
internal_weight=500 347 323 153 118 244 193
internal_count=500 347 323 153 118 244 193
is_linear=0
shrinkage=0.1


Tree=19
num_leaves=8
num_cat=0
split_feature=1 3 1 0 0 3 3
split_gain=76096.7 66103.5 49201.3 35360.8 26106.6 24731.3 16741.1
threshold=0.95242917813828687 -1.5598863536782039 -1.2705941765029696 0.064767680187687499 0.49871409969716418 1.3181476422074299 0.61347030255299762
decision_type=2 2 2 2 2 2 2
left_child=1 -1 -3 6 -2 -5 -4
right_child=4 2 3 5 -6 -7 -8
leaf_value=-5.3283459040853716 1.6409041832675015 -3.4468830630892797 -1.5407510809600353 0.71696131398648388 5.5725544293721523 4.3643479937598819 0.6331307493515459
leaf_weight=27 57 42 116 162 24 21 51
leaf_count=27 57 42 116 162 24 21 51
internal_value=5.02914e-10 -0.542417 -0.212774 0.175319 2.80584 1.13551 -0.876871
internal_weight=500 419 392 350 81 183 167
internal_count=500 419 392 350 81 183 167
is_linear=0
shrinkage=0.1


end of trees

feature_importances:
Column_3=61
Column_1=55
Column_0=24

parameters:
[boosting: gbdt]
[objective: regression]
[metric: l2]
[tree_learner: serial]
[device_type: cpu]
[data_sample_strategy: bagging]
[data: ]
[valid: ]
[num_iterations: 20]
[learning_rate: 0.1]
[num_leaves: 8]
[num_threads: 0]
[seed: 42]
[deterministic: 0]
[force_col_wise: 0]
[force_row_wise: 0]
[histogram_pool_size: -1]
[max_depth: -1]
[min_data_in_leaf: 20]
[min_sum_hessian_in_leaf: 0.001]
[bagging_fraction: 1]
[pos_bagging_fraction: 1]
[neg_bagging_fraction: 1]
[bagging_freq: 0]
[bagging_seed: 400]
[bagging_by_query: 0]
[feature_fraction: 1]
[feature_fraction_bynode: 1]
[feature_fraction_seed: 30056]
[extra_trees: 0]
[extra_seed: 12879]
[early_stopping_round: 0]
[early_stopping_min_delta: 0]
[first_metric_only: 0]
[max_delta_step: 0]
[lambda_l1: 0]
[lambda_l2: 0]
[linear_lambda: 0]
[min_gain_to_split: 0]
[drop_rate: 0.1]
[max_drop: 50]
[skip_drop: 0.5]
[xgboost_dart_mode: 0]
[uniform_drop: 0]
[drop_seed: 17869]
[top_rate: 0.2]
[other_rate: 0.1]
[min_data_per_group: 100]
[max_cat_threshold: 32]
[cat_l2: 10]
[cat_smooth: 10]
[max_cat_to_onehot: 4]
[top_k: 20]
[monotone_constraints: ]
[monotone_constraints_method: basic]
[monotone_penalty: 0]
[feature_contri: ]
[forcedsplits_filename: ]
[refit_decay_rate: 0.9]
[cegb_tradeoff: 1]
[cegb_penalty_split: 0]
[cegb_penalty_feature_lazy: ]
[cegb_penalty_feature_coupled: ]
[path_smooth: 0]
[interaction_constraints: ]
[verbosity: -1]
[saved_feature_importance_type: 0]
[use_quantized_grad: 0]
[num_grad_quant_bins: 4]
[quant_train_renew_leaf: 0]
[stochastic_rounding: 1]
[linear_tree: 0]
[max_bin: 255]
[max_bin_by_feature: ]
[min_data_in_bin: 3]
[bin_construct_sample_cnt: 200000]
[data_random_seed: 175]
[is_enable_sparse: 1]
[enable_bundle: 1]
[use_missing: 1]
[zero_as_missing: 0]
[feature_pre_filter: 1]
[pre_partition: 0]
[two_round: 0]
[header: 0]
[label_column: ]
[weight_column: ]
[group_column: ]
[ignore_column: ]
[categorical_feature: ]
[forcedbins_filename: ]
[precise_float_parser: 0]
[parser_config_file: ]
[objective_seed: 16083]
[num_class: 1]
[is_unbalance: 0]
[scale_pos_weight: 1]
[sigmoid: 1]
[boost_from_average: 1]
[reg_sqrt: 0]
[alpha: 0.9]
[fair_c: 1]
[poisson_max_delta_step: 0.7]
[tweedie_variance_power: 1.5]
[lambdarank_truncation_level: 30]
[lambdarank_norm: 1]
[label_gain: ]
[lambdarank_position_bias_regularization: 0]
[eval_at: ]
[multi_error_top_k: 1]
[auc_mu_weights: ]
[num_machines: 1]
[local_listen_port: 12400]
[time_out: 120]
[machine_list_filename: ]
[machines: ]
[gpu_platform_id: -1]
[gpu_device_id: -1]
[gpu_use_dp: 0]
[num_gpu: 1]

end of parameters

pandas_categorical:null
