{"learner":{"attributes":{},"feature_names":[],"feature_types":[],"gradient_booster":{"model":{"cats":{"enc":[],"feature_segments":[],"sorted_idx":[]},"gbtree_model_param":{"num_parallel_tree":"1","num_trees":"30"},"iteration_indptr":[0,1,2,3,4,5,6,7,8,9,10,11,12,13,14,15,16,17,18,19,20,21,22,23,24,25,26,27,28,29,30],"tree_info":[0,0,0,0,0,0,0,0,0,0,0,0,0,0,0,0,0,0,0,0,0,0,0,0,0,0,0,0,0,0],"trees":[{"base_weights":[-1.0331991E-7,1.0265156E0,-1.668666E0,6.6780806E-2,1.3996902E0,1.0244783E-1,-1.7301145E0,1.012719E0,-4.7220808E-1,1.6458793E0,8.0287546E-1,-1.8328253E0,-8.2545584E-1,1.6382627E-1,-2.1155406E-2,-1.3448654E-1,-1.9884957E-3,1.7263497E-1,3.4355473E-2,1.2022629E-1,-5.2197397E-2,-4.9171608E-2,-1.8473248E-1,1.402703E-1,-1.5688303E-1],"categories":[],"categories_nodes":[],"categories_segments":[],"categories_sizes":[],"default_left":[0,0,0,0,0,0,0,0,0,0,0,0,0,0,0,0,0,0,0,0,0,0,0,0,0],"id":0,"left_children":[1,3,5,7,9,-1,11,13,15,17,19,21,23,-1,-1,-1,-1,-1,-1,-1,-1,-1,-1,-1,-1],"loss_changes":[4.30084E2,5.558188E1,1.7598297E1,2.3203419E1,1.5117142E1,0E0,7.2092285E0,1.2980251E1,1.1450127E1,7.6079407E0,1.8949066E1,7.149353E-1,2.1066906E1,0E0,0E0,0E0,0E0,0E0,0E0,0E0,0E0,0E0,0E0,0E0,0E0],"parents":[2147483647,0,0,1,1,2,2,3,3,4,4,6,6,7,7,8,8,9,9,10,10,11,11,12,12],"right_children":[2,4,6,8,10,-1,12,14,16,18,20,22,24,-1,-1,-1,-1,-1,-1,-1,-1,-1,-1,-1,-1],"split_conditions":[1.4127792E0,1.5598339E-1,-3.7178457E0,-6.206946E-2,9.684594E-1,1.0244783E-1,2.331671E0,4.116389E-1,-1.2256174E0,8.6769235E-1,6.872653E-1,1.4527547E0,-2.2052257E0,1.6382627E-1,-2.1155406E-2,-1.3448654E-1,-1.9884957E-3,1.7263497E-1,3.4355473E-2,1.2022629E-1,-5.2197397E-2,-4.9171608E-2,-1.8473248E-1,1.402703E-1,-1.5688303E-1],"split_indices":[5,9,0,5,2,0,7,7,4,5,7,5,0,0,0,0,0,0,0,0,0,0,0,0,0],"split_type":[0,0,0,0,0,0,0,0,0,0,0,0,0,0,0,0,0,0,0,0,0,0,0,0,0],"sum_hessian":[2.4908357E2,1.544532E2,9.463038E1,4.357232E1,1.10880875E2,1.7613714E0,9.2869E1,1.5496562E1,2.8075756E1,7.725501E1,3.362586E1,8.247876E1,1.03902445E1,1.0032363E1,5.464199E0,8.910903E0,1.9164854E1,7.245258E1,4.8024297E0,2.590815E1,7.7177095E0,1.2556154E0,8.1223145E1,2.3773966E0,8.012848E0],"tree_param":{"num_deleted":"0","num_feature":"10","num_nodes":"25","size_leaf_vector":"1"}},{"base_weights":[5.477573E-4,9.3074316E-1,-1.5148114E0,6.0448673E-2,1.2703984E0,9.610343E-2,-1.571788E0,9.244469E-1,-4.3026122E-1,1.4955512E0,7.2695684E-1,-1.6654695E0,-7.482793E-1,1.4995803E-1,-1.9367706E-2,1.3552542E-1,-6.2117577E-2,1.56898E-1,3.1523447E-2,1.09091476E-1,-4.759769E-2,-3.45647E-2,-1.6784047E-1,1.3091387E-1,-1.4367001E-1],"categories":[],"categories_nodes":[],"categories_segments":[],"categories_sizes":[],"default_left":[0,0,0,0,0,0,0,0,0,0,0,0,0,0,0,0,0,0,0,0,0,0,0,0,0],"id":1,"left_children":[1,3,5,7,9,-1,11,13,15,17,19,21,23,-1,-1,-1,-1,-1,-1,-1,-1,-1,-1,-1,-1],"loss_changes":[3.5180865E2,4.5638184E1,1.4902222E1,1.924904E1,1.2517487E1,0E0,5.9420776E0,1.0851841E1,1.0741051E1,6.2370453E0,1.5631544E1,8.34198E-1,1.7932318E1,0E0,0E0,0E0,0E0,0E0,0E0,0E0,0E0,0E0,0E0,0E0,0E0],"parents":[2147483647,0,0,1,1,2,2,3,3,4,4,6,6,7,7,8,8,9,9,10,10,11,11,12,12],"right_children":[2,4,6,8,10,-1,12,14,16,18,20,22,24,-1,-1,-1,-1,-1,-1,-1,-1,-1,-1,-1,-1],"split_conditions":[1.4127792E0,1.5598339E-1,-3.7178457E0,-6.206946E-2,9.684594E-1,9.610343E-2,2.331671E0,4.116389E-1,-1.0265903E0,8.6769235E-1,6.872653E-1,-2.7033482E0,-2.2052257E0,1.4995803E-1,-1.9367706E-2,1.3552542E-1,-6.2117577E-2,1.56898E-1,3.1523447E-2,1.09091476E-1,-4.759769E-2,-3.45647E-2,-1.6784047E-1,1.3091387E-1,-1.4367001E-1],"split_indices":[5,9,0,5,2,0,7,7,1,5,7,6,0,0,0,0,0,0,0,0,0,0,0,0,0],"split_type":[0,0,0,0,0,0,0,0,0,0,0,0,0,0,0,0,0,0,0,0,0,0,0,0,0],"sum_hessian":[2.475838E2,1.5365144E2,9.393236E1,4.346347E1,1.1018797E2,1.7561011E0,9.2176254E1,1.5423409E1,2.804006E1,7.6670616E1,3.3517357E1,8.184342E1,1.0332833E1,9.9594E0,5.46401E0,2.1194355E0,2.5920624E1,7.187021E1,4.8004103E0,2.580343E1,7.7139254E0,1.0633899E0,8.078003E1,2.3645306E0,7.9683027E0],"tree_param":{"num_deleted":"0","num_feature":"10","num_nodes":"25","size_leaf_vector":"1"}},{"base_weights":[1.8260247E-3,8.5218346E-1,-1.3939453E0,5.9578903E-2,1.1644845E0,9.043511E-2,-1.4477313E0,8.501386E-1,-3.85639E-1,1.3751895E0,6.615113E-1,-1.5500016E0,-7.694044E-1,1.1662849E-1,-8.146355E-2,-9.2531845E-2,2.0800449E-2,1.5809695E-1,9.187828E-2,1.22339286E-1,-3.7447473E-3,-9.831297E-2,-1.6129375E-1,1.3567595E-1,-1.4086927E-1],"categories":[],"categories_nodes":[],"categories_segments":[],"categories_sizes":[],"default_left":[0,0,0,0,0,0,0,0,0,0,0,0,0,0,0,0,0,0,0,0,0,0,0,0,0],"id":2,"left_children":[1,3,5,7,9,-1,11,13,15,17,19,21,23,-1,-1,-1,-1,-1,-1,-1,-1,-1,-1,-1,-1],"loss_changes":[2.9165536E2,3.772785E1,1.280925E1,1.5889772E1,1.0693222E1,0E0,5.1403046E0,9.497962E0,9.474619E0,5.7071686E0,1.349709E1,1.2092133E0,2.0866707E1,0E0,0E0,0E0,0E0,0E0,0E0,0E0,0E0,0E0,0E0,0E0,0E0],"parents":[2147483647,0,0,1,1,2,2,3,3,4,4,6,6,7,7,8,8,9,9,10,10,11,11,12,12],"right_children":[2,4,6,8,10,-1,12,14,16,18,20,22,24,-1,-1,-1,-1,-1,-1,-1,-1,-1,-1,-1,-1],"split_conditions":[1.4127792E0,1.5598339E-1,-3.7178457E0,-6.206946E-2,9.684594E-1,9.043511E-2,2.0927272E0,1.4410357E0,-1.993633E-1,-1.9466633E-1,-5.1388513E-2,1.8748378E0,-1.7987617E0,1.1662849E-1,-8.146355E-2,-9.2531845E-2,2.0800449E-2,1.5809695E-1,9.187828E-2,1.22339286E-1,-3.7447473E-3,-9.831297E-2,-1.6129375E-1,1.3567595E-1,-1.4086927E-1],"split_indices":[5,9,0,5,2,0,7,7,4,5,7,5,0,0,0,0,0,0,0,0,0,0,0,0,0],"split_type":[0,0,0,0,0,0,0,0,0,0,0,0,0,0,0,0,0,0,0,0,0,0,0,0,0],"sum_hessian":[2.4372691E2,1.5169684E2,9.2030075E1,4.3213615E1,1.0848322E2,1.742865E0,9.028722E1,1.52410555E1,2.797256E1,7.52327E1,3.3250523E1,7.734151E1,1.2945707E1,1.3060294E1,2.1807613E0,1.4359591E1,1.3612969E1,5.015527E1,2.5077429E1,1.80168E1,1.5233721E1,9.389545E0,6.795196E1,2.7332127E0,1.0212495E1],"tree_param":{"num_deleted":"0","num_feature":"10","num_nodes":"25","size_leaf_vector":"1"}},{"base_weights":[2.2042086E-3,7.83705E-1,-1.2968099E0,5.3350024E-2,1.0753518E0,8.53279E-2,-1.3482846E0,7.786846E-1,-3.511203E-1,7.7424276E-1,1.4384552E0,-9.0454894E-1,-1.5008484E0,1.3082944E-1,-2.0947244E-2,1.2675318E-1,-5.2605636E-2,1.07295334E-1,4.950763E-3,4.3397594E-2,1.4607029E-1,1.7513437E-2,-1.1855E-1,-1.5225951E-1,-2.6338402E-2],"categories":[],"categories_nodes":[],"categories_segments":[],"categories_sizes":[],"default_left":[0,0,0,0,0,0,0,0,0,0,0,0,0,0,0,0,0,0,0,0,0,0,0,0,0],"id":3,"left_children":[1,3,5,7,9,-1,11,13,15,17,19,21,23,-1,-1,-1,-1,-1,-1,-1,-1,-1,-1,-1,-1],"loss_changes":[2.4399562E2,3.1907135E1,1.1142395E1,1.314551E1,1.0605591E1,0E0,4.6376495E0,8.657026E0,8.838078E0,1.3101017E1,4.2594147E-1,7.844084E0,1.3315735E0,0E0,0E0,0E0,0E0,0E0,0E0,0E0,0E0,0E0,0E0,0E0,0E0],"parents":[2147483647,0,0,1,1,2,2,3,3,4,4,6,6,7,7,8,8,9,9,10,10,11,11,12,12],"right_children":[2,4,6,8,10,-1,12,14,16,18,20,22,24,-1,-1,-1,-1,-1,-1,-1,-1,-1,-1,-1,-1],"split_conditions":[1.4127792E0,1.5598339E-1,-3.7178457E0,-6.206946E-2,1.1495931E0,8.53279E-2,2.253044E0,4.116389E-1,-1.0265903E0,1.0876409E0,-2.7355187E0,-1.7987617E0,1.112279E0,1.3082944E-1,-2.0947244E-2,1.2675318E-1,-5.2605636E-2,1.07295334E-1,4.950763E-3,4.3397594E-2,1.4607029E-1,1.7513437E-2,-1.1855E-1,-1.5225951E-1,-2.6338402E-2],"split_indices":[5,9,0,5,1,0,5,7,1,2,7,0,9,0,0,0,0,0,0,0,0,0,0,0,0],"split_type":[0,0,0,0,0,0,0,0,0,0,0,0,0,0,0,0,0,0,0,0,0,0,0,0,0],"sum_hessian":[2.383459E2,1.4906406E2,8.928184E1,4.287572E1,1.0618834E2,1.7232955E0,8.755854E1,1.5018294E1,2.7857426E1,5.976204E1,4.6426304E1,2.4174738E1,6.33838E1,9.566882E0,5.4514117E0,2.1078818E0,2.5749544E1,4.19792E1,1.778284E1,1.4503403E0,4.4975964E1,5.069499E0,1.9105238E1,6.2062725E1,1.3210784E0],"tree_param":{"num_deleted":"0","num_feature":"10","num_nodes":"25","size_leaf_vector":"1"}},{"base_weights":[3.0963179E-3,7.243411E-1,-1.2144562E0,5.3153813E-2,9.960801E-1,8.0691375E-2,-1.26411E0,2.4877724E-1,-1.3248526E-1,7.1230507E-1,1.3430824E0,-1.3624674E0,-6.2786835E-1,-3.2437168E-2,1.3357562E-1,9.94342E-2,4.484359E-3,8.745797E-2,1.4261287E-1,-1.3980894E-1,-5.2654196E-2,-1.3906801E-1,9.733953E-2],"categories":[],"categories_nodes":[],"categories_segments":[],"categories_sizes":[],"default_left":[0,0,0,0,0,0,0,0,0,0,0,0,0,0,0,0,0,0,0,0,0,0,0],"id":4,"left_children":[1,3,5,7,9,-1,11,13,-1,15,17,19,21,-1,-1,-1,-1,-1,-1,-1,-1,-1,-1],"loss_changes":[2.0561946E2,2.6765709E1,9.762741E0,1.2037554E1,9.344322E0,0E0,4.489258E0,2.4652225E1,0E0,1.1189564E1,5.398712E-1,1.4410858E0,1.7587076E1,0E0,0E0,0E0,0E0,0E0,0E0,0E0,0E0,0E0,0E0],"parents":[2147483647,0,0,1,1,2,2,3,3,4,4,6,6,7,7,9,9,10,10,11,11,12,12],"right_children":[2,4,6,8,10,-1,12,14,-1,16,18,20,22,-1,-1,-1,-1,-1,-1,-1,-1,-1,-1],"split_conditions":[1.4127792E0,1.5598339E-1,-3.7178457E0,2.3638322E0,1.1495931E0,8.0691375E-2,2.0927272E0,-1.09821066E-1,-1.3248526E-1,1.0876409E0,6.7779434E-1,1.5723982E0,1.7349498E-1,-3.2437168E-2,1.3357562E-1,9.94342E-2,4.484359E-3,8.745797E-2,1.4261287E-1,-1.3980894E-1,-5.2654196E-2,-1.3906801E-1,9.733953E-2],"split_indices":[5,9,0,7,1,0,7,0,0,2,9,3,8,0,0,0,0,0,0,0,0,0,0],"split_type":[0,0,0,0,0,0,0,0,0,0,0,0,0,0,0,0,0,0,0,0,0,0,0],"sum_hessian":[2.3214809E2,1.4604193E2,8.6106155E1,4.243193E1,1.0361E2,1.6987898E0,8.4407364E1,3.7874664E1,4.557266E0,5.8677155E1,4.4932846E1,7.211724E1,1.2290129E1,2.5258038E1,1.2616629E1,4.0903557E1,1.77736E1,8.501753E0,3.643109E1,6.852464E1,3.5925963E0,8.413572E0,3.8765562E0],"tree_param":{"num_deleted":"0","num_feature":"10","num_nodes":"23","size_leaf_vector":"1"}},{"base_weights":[3.273124E-3,6.699709E-1,-1.1451201E0,9.9419266E-1,1.3328025E-1,7.6453716E-2,-1.1934569E0,1.2221689E0,2.8354242E-1,-9.146113E-1,4.4551063E-1,-7.6528645E-1,-1.3456389E0,1.2850182E-1,-4.0728774E-2,1.3314565E-1,-5.3482037E-2,5.3048052E-2,-1.5674455E-1,-5.5837464E-2,8.368119E-2,-1.126458E-1,-2.339402E-3,-1.3665855E-1,-2.2173466E-2],"categories":[],"categories_nodes":[],"categories_segments":[],"categories_sizes":[],"default_left":[0,0,0,0,0,0,0,0,0,0,0,0,0,0,0,0,0,0,0,0,0,0,0,0,0],"id":5,"left_children":[1,3,5,7,9,-1,11,13,15,17,19,21,23,-1,-1,-1,-1,-1,-1,-1,-1,-1,-1,-1,-1],"loss_changes":[1.7401846E2,2.4889656E1,8.618729E0,1.4151802E1,1.8504063E1,0E0,4.301262E0,7.431137E0,2.046852E1,1.3118974E1,1.7470776E1,6.3434973E0,1.0869598E0,0E0,0E0,0E0,0E0,0E0,0E0,0E0,0E0,0E0,0E0,0E0,0E0],"parents":[2147483647,0,0,1,1,2,2,3,3,4,4,6,6,7,7,8,8,9,9,10,10,11,11,12,12],"right_children":[2,4,6,8,10,-1,12,14,16,18,20,22,24,-1,-1,-1,-1,-1,-1,-1,-1,-1,-1,-1,-1],"split_conditions":[1.4127792E0,-1.9466633E-1,-3.7178457E0,6.682351E-1,-1.3364711E0,7.6453716E-2,2.253044E0,6.463321E0,-3.03691E-1,7.288446E-2,1.13732435E-1,1.4649072E0,1.112279E0,1.2850182E-1,-4.0728774E-2,1.3314565E-1,-5.3482037E-2,5.3048052E-2,-1.5674455E-1,-5.5837464E-2,8.368119E-2,-1.126458E-1,-2.339402E-3,-1.3665855E-1,-2.2173466E-2],"split_indices":[5,5,0,7,4,0,5,8,2,2,7,7,9,0,0,0,0,0,0,0,0,0,0,0,0],"split_type":[0,0,0,0,0,0,0,0,0,0,0,0,0,0,0,0,0,0,0,0,0,0,0,0,0],"sum_hessian":[2.2528554E2,1.427999E2,8.248564E1,8.848968E1,5.4310215E1,1.6705315E0,8.081511E1,6.6452095E1,2.2037582E1,1.2024597E1,4.2285618E1,2.2772497E1,5.804261E1,6.418772E1,2.264378E0,9.388556E0,1.2649027E1,3.8001444E0,8.224453E0,1.1739892E1,3.0545725E1,1.4967562E1,7.804935E0,5.676867E1,1.273941E0],"tree_param":{"num_deleted":"0","num_feature":"10","num_nodes":"25","size_leaf_vector":"1"}},{"base_weights":[2.4109792E-3,6.2049085E-1,-1.0833198E0,9.311921E-1,1.1968986E-1,7.255741E-2,-1.1305325E0,1.1487824E0,2.6531634E-1,1.4332469E-1,-1.0918502E-1,-7.1259767E-1,-1.2833701E0,1.21054165E-1,-3.765788E-2,1.2717108E-1,-4.849176E-2,-7.165177E-2,3.6586117E-2,2.503174E-2,-9.8047316E-2,-1.3271609E-1,-5.552819E-2],"categories":[],"categories_nodes":[],"categories_segments":[],"categories_sizes":[],"default_left":[0,0,0,0,0,0,0,0,0,0,0,0,0,0,0,0,0,0,0,0,0,0,0],"id":6,"left_children":[1,3,5,7,9,-1,11,13,15,-1,17,19,21,-1,-1,-1,-1,-1,-1,-1,-1,-1,-1],"loss_changes":[1.4766223E2,2.170599E1,7.637436E0,1.2211136E1,1.6641191E1,0E0,4.0795593E0,6.5610657E0,1.7662127E1,0E0,1.4002464E1,6.2255545E0,1.048523E0,0E0,0E0,0E0,0E0,0E0,0E0,0E0,0E0,0E0,0E0],"parents":[2147483647,0,0,1,1,2,2,3,3,4,4,6,6,7,7,8,8,10,10,11,11,12,12],"right_children":[2,4,6,8,10,-1,12,14,16,-1,18,20,22,-1,-1,-1,-1,-1,-1,-1,-1,-1,-1],"split_conditions":[1.4127792E0,-1.9466633E-1,-3.7178457E0,6.682351E-1,-2.0830662E0,7.255741E-2,2.253044E0,6.463321E0,-3.03691E-1,1.4332469E-1,5.288154E-1,-1.7987617E0,3.4709632E-1,1.21054165E-1,-3.765788E-2,1.2717108E-1,-4.849176E-2,-7.165177E-2,3.6586117E-2,2.503174E-2,-9.8047316E-2,-1.3271609E-1,-5.552819E-2],"split_indices":[5,5,0,7,0,0,5,8,2,0,7,0,9,0,0,0,0,0,0,0,0,0,0],"split_type":[0,0,0,0,0,0,0,0,0,0,0,0,0,0,0,0,0,0,0,0,0,0,0],"sum_hessian":[2.1803883E2,1.3921541E2,7.882342E1,8.538341E1,5.3832E1,1.6395137E0,7.718391E1,6.3807587E1,2.1575823E1,7.2070746E0,4.6624928E1,2.2184044E1,5.4999863E1,6.1523018E1,2.2845697E0,8.917901E0,1.2657922E1,2.024016E1,2.6384768E1,4.842513E0,1.734153E1,5.1103455E1,3.8964078E0],"tree_param":{"num_deleted":"0","num_feature":"10","num_nodes":"23","size_leaf_vector":"1"}},{"base_weights":[2.583839E-3,5.7673883E-1,-1.0286562E0,4.989946E-3,8.220805E-1,-5.3069097E-1,-1.2344357E0,1.8979777E-1,-1.2597165E0,5.533437E-1,1.1669061E0,4.900772E-1,-9.221683E-1,-1.2566325E-1,-1.795063E-2,-3.1358283E-2,1.179538E-1,-1.3956058E-1,-3.601368E-2,8.283598E-2,-5.643566E-3,1.3271336E-1,8.6154245E-2,-8.613829E-2,1.2191792E-1,-1.0576375E-1,1.6946323E-2],"categories":[],"categories_nodes":[],"categories_segments":[],"categories_sizes":[],"default_left":[0,0,0,0,0,0,0,0,0,0,0,0,0,0,0,0,0,0,0,0,0,0,0,0,0,0,0],"id":7,"left_children":[1,3,5,7,9,11,13,15,17,19,21,23,25,-1,-1,-1,-1,-1,-1,-1,-1,-1,-1,-1,-1,-1,-1],"loss_changes":[1.2593003E2,1.9159874E1,7.139488E0,1.0062074E1,8.212448E0,1.0041069E1,1.0171204E0,1.9072006E1,1.6841984E-1,9.374926E0,8.610077E-1,8.248007E0,2.7955008E0,0E0,0E0,0E0,0E0,0E0,0E0,0E0,0E0,0E0,0E0,0E0,0E0,0E0,0E0],"parents":[2147483647,0,0,1,1,2,2,3,3,4,4,5,5,6,6,7,7,8,8,9,9,10,10,11,11,12,12],"right_children":[2,4,6,8,10,12,14,16,18,20,22,24,26,-1,-1,-1,-1,-1,-1,-1,-1,-1,-1,-1,-1,-1,-1],"split_conditions":[1.4127792E0,1.5598339E-1,2.253044E0,2.3638322E0,1.1495931E0,-1.7987617E0,1.112279E0,-1.09821066E-1,1.0541462E0,1.0876409E0,-1.2667145E0,1.9768822E-1,1.3701018E0,-1.2566325E-1,-1.795063E-2,-3.1358283E-2,1.179538E-1,-1.3956058E-1,-3.601368E-2,8.283598E-2,-5.643566E-3,1.3271336E-1,8.6154245E-2,-8.613829E-2,1.2191792E-1,-1.0576375E-1,1.6946323E-2],"split_indices":[5,9,5,7,1,0,9,0,2,2,0,7,3,0,0,0,0,0,0,0,0,0,0,0,0,0,0],"split_type":[0,0,0,0,0,0,0,0,0,0,0,0,0,0,0,0,0,0,0,0,0,0,0,0,0,0,0],"sum_hessian":[2.1068471E2,1.3561835E2,7.506637E1,4.102747E1,9.459087E1,2.299638E1,5.206999E1,3.653818E1,4.4892893E0,5.462448E1,3.9966393E1,6.3048263E0,1.6691555E1,5.0809696E1,1.260292E0,2.4672794E1,1.1865385E1,3.4211044E0,1.0681849E0,3.7398815E1,1.7225668E1,2.401789E1,1.5948503E1,2.1458528E0,4.158973E0,1.4876548E1,1.8150066E0],"tree_param":{"num_deleted":"0","num_feature":"10","num_nodes":"27","size_leaf_vector":"1"}},{"base_weights":[2.2034827E-3,6.899301E-1,-7.668579E-1,7.620513E-1,-1.0974946E0,-2.2133102E-1,-1.130909E0,1.0217083E0,4.17946E-1,-2.8376082E-2,-1.2443345E-1,1.0062346E0,-5.20927E-1,-1.1992329E0,-5.478194E-1,7.3115796E-2,1.2483187E-1,1.0485611E-1,-3.0409787E-2,-7.469218E-2,1.3649727E-1,-9.971326E-2,-7.7426014E-4,-1.2515712E-2,-1.2191986E-1,-1.11407354E-1,7.807677E-2],"categories":[],"categories_nodes":[],"categories_segments":[],"categories_sizes":[],"default_left":[0,0,0,0,0,0,0,0,0,0,0,0,0,0,0,0,0,0,0,0,0,0,0,0,0,0,0],"id":8,"left_children":[1,3,5,7,9,11,13,15,17,-1,-1,19,21,23,25,-1,-1,-1,-1,-1,-1,-1,-1,-1,-1,-1,-1],"loss_changes":[1.08551216E2,1.4803459E1,1.899221E1,8.930962E0,1.9798279E-1,1.5243639E1,1.6484375E0,2.9719315E0,2.1598785E1,0E0,0E0,6.172164E0,8.015408E0,9.401703E-1,6.821034E0,0E0,0E0,0E0,0E0,0E0,0E0,0E0,0E0,0E0,0E0,0E0,0E0],"parents":[2147483647,0,0,1,1,2,2,3,3,4,4,5,5,6,6,7,7,8,8,11,11,12,12,13,13,14,14],"right_children":[2,4,6,8,10,12,14,16,18,-1,-1,20,22,24,26,-1,-1,-1,-1,-1,-1,-1,-1,-1,-1,-1,-1],"split_conditions":[5.939101E-1,2.440382E0,1.9881315E0,6.5852815E-1,1.213281E-1,-2.0830662E0,2.0927272E0,1.27759E0,-5.1388513E-2,-2.8376082E-2,-1.2443345E-1,-3.1796455E0,9.7776407E-1,-2.2857773E0,-1.1234816E-1,7.3115796E-2,1.2483187E-1,1.0485611E-1,-3.0409787E-2,-7.469218E-2,1.3649727E-1,-9.971326E-2,-7.7426014E-4,-1.2515712E-2,-1.2191986E-1,-1.11407354E-1,7.807677E-2],"split_indices":[5,7,5,2,1,0,7,9,7,0,0,2,7,6,8,0,0,0,0,0,0,0,0,0,0,0,0],"split_type":[0,0,0,0,0,0,0,0,0,0,0,0,0,0,0,0,0,0,0,0,0,0,0,0,0,0,0],"sum_hessian":[2.0323772E2,1.07346725E2,9.5891E1,1.0373477E2,3.6119595E0,3.9023148E1,5.6867847E1,5.7999783E1,4.5734985E1,1.0004236E0,2.611536E0,7.1927814E0,3.1830366E1,4.9957363E1,6.910486E0,2.726643E1,3.0733353E1,2.417176E1,2.1563223E1,1.0379972E0,6.154784E0,1.6020882E1,1.5809485E1,1.0443406E0,4.891302E1,4.9585667E0,1.9519196E0],"tree_param":{"num_deleted":"0","num_feature":"10","num_nodes":"27","size_leaf_vector":"1"}},{"base_weights":[1.524345E-3,5.0051844E-1,-9.433021E-1,7.9375154E-1,5.8709767E-2,-4.7496882E-1,-1.1466526E0,1.1246606E0,3.8303763E-1,-8.459804E-1,3.298224E-1,4.375274E-1,-8.29193E-1,-1.1699592E0,-1.4673314E-2,1.2267009E-1,-6.1847616E-2,1.2224813E-1,-2.3220873E-2,4.442535E-2,-1.4226417E-1,-2.9902685E-2,8.648857E-2,-7.827754E-2,1.09938316E-1,-9.693636E-2,2.1650854E-2,-1.2245659E-1,-7.24593E-2],"categories":[],"categories_nodes":[],"categories_segments":[],"categories_sizes":[],"default_left":[0,0,0,0,0,0,0,0,0,0,0,0,0,0,0,0,0,0,0,0,0,0,0,0,0,0,0,0,0],"id":9,"left_children":[1,3,5,7,9,11,13,15,17,19,21,23,25,27,-1,-1,-1,-1,-1,-1,-1,-1,-1,-1,-1,-1,-1,-1,-1],"loss_changes":[9.31809E1,1.670895E1,5.960655E0,1.0123665E1,1.3198884E1,7.5988727E0,9.2178726E-1,8.316555E0,1.896298E1,9.877479E0,1.4137918E1,6.4454436E0,2.6242933E0,2.243042E-1,0E0,0E0,0E0,0E0,0E0,0E0,0E0,0E0,0E0,0E0,0E0,0E0,0E0,0E0,0E0],"parents":[2147483647,0,0,1,1,2,2,3,3,4,4,5,5,6,6,7,7,8,8,9,9,10,10,11,11,12,12,13,13],"right_children":[2,4,6,8,10,12,14,16,18,20,22,24,26,28,-1,-1,-1,-1,-1,-1,-1,-1,-1,-1,-1,-1,-1,-1,-1],"split_conditions":[1.4127792E0,-1.9466633E-1,2.253044E0,-5.1388513E-2,-1.3364711E0,-1.7987617E0,1.112279E0,6.463321E0,-3.03691E-1,7.288446E-2,3.466374E-2,1.9768822E-1,1.3701018E0,6.495002E-1,-1.4673314E-2,1.2267009E-1,-6.1847616E-2,1.2224813E-1,-2.3220873E-2,4.442535E-2,-1.4226417E-1,-2.9902685E-2,8.648857E-2,-7.827754E-2,1.09938316E-1,-9.693636E-2,2.1650854E-2,-1.2245659E-1,-7.24593E-2],"split_indices":[5,5,5,7,4,0,9,8,2,2,8,7,3,4,0,0,0,0,0,0,0,0,0,0,0,0,0,0,0],"split_type":[0,0,0,0,0,0,0,0,0,0,0,0,0,0,0,0,0,0,0,0,0,0,0,0,0,0,0,0,0],"sum_hessian":[1.9564066E2,1.2833366E2,6.7307E1,7.665821E1,5.167545E1,2.13869E1,4.59201E1,4.149095E1,3.516726E1,1.1426235E1,4.0249218E1,5.914844E0,1.5472055E1,4.4707973E1,1.2121309E0,3.947634E1,2.0146103E0,1.4456202E1,2.0711056E1,3.6003492E0,7.825886E0,1.87058E1,2.1543417E1,2.015693E0,3.8991513E0,1.3707625E1,1.7644303E0,3.826652E1,6.4414515E0],"tree_param":{"num_deleted":"0","num_feature":"10","num_nodes":"29","size_leaf_vector":"1"}},{"base_weights":[7.4297684E-4,4.6683747E-1,-9.051295E-1,2.2517042E-1,9.603365E-1,-5.888261E-1,-1.2146745E-1,-1.1138722E0,3.2620773E-1,-1.6852395E-1,1.132232E0,2.781956E-1,-9.153006E-1,-1.7957102E-1,7.67792E-2,4.369889E-2,-1.11534014E-1,3.49811E-2,-1.23882435E-1,1.1875033E-1,3.2619625E-2,-7.138305E-2,1.1688868E-1,-1.0102303E-1,2.0149464E-2],"categories":[],"categories_nodes":[],"categories_segments":[],"categories_sizes":[],"default_left":[0,0,0,0,0,0,0,0,0,0,0,0,0,0,0,0,0,0,0,0,0,0,0,0,0],"id":10,"left_children":[1,3,5,7,9,11,-1,13,15,17,19,21,23,-1,-1,-1,-1,-1,-1,-1,-1,-1,-1,-1,-1],"loss_changes":[8.0248085E1,1.4750158E1,5.6067543E0,1.1937084E1,8.136166E0,9.843829E0,0E0,9.369798E0,1.3313725E1,3.918135E0,1.2015038E0,9.700086E0,2.8373508E0,0E0,0E0,0E0,0E0,0E0,0E0,0E0,0E0,0E0,0E0,0E0,0E0],"parents":[2147483647,0,0,1,1,2,2,3,3,4,4,5,5,7,7,8,8,9,9,10,10,11,11,12,12],"right_children":[2,4,6,8,10,12,-1,14,16,18,20,22,24,-1,-1,-1,-1,-1,-1,-1,-1,-1,-1,-1,-1],"split_conditions":[1.4127792E0,1.3227274E0,3.031619E0,-2.0329657E0,-5.717976E-1,-1.795554E0,-1.2146745E-1,-6.9107693E-1,2.440382E0,3.8325205E0,1.3701018E0,1.9768822E-1,1.5723982E0,-1.7957102E-1,7.67792E-2,4.369889E-2,-1.11534014E-1,3.49811E-2,-1.23882435E-1,1.1875033E-1,3.2619625E-2,-7.138305E-2,1.1688868E-1,-1.0102303E-1,2.0149464E-2],"split_indices":[5,9,5,2,1,0,0,7,7,8,3,7,3,0,0,0,0,0,0,0,0,0,0,0,0],"split_type":[0,0,0,0,0,0,0,0,0,0,0,0,0,0,0,0,0,0,0,0,0,0,0,0,0],"sum_hessian":[1.8806052E2,1.2449125E2,6.356927E1,8.4545494E1,3.9945755E1,3.2876846E1,3.0692421E1,5.2284703E0,7.931702E1,5.2814407E0,3.4664314E1,9.033737E0,2.3843111E1,3.8713365E0,1.3571339E0,7.4303734E1,5.013288E0,4.011756E0,1.2696847E0,3.1996965E1,2.6673505E0,4.3676925E0,4.666044E0,2.2063124E1,1.7799878E0],"tree_param":{"num_deleted":"0","num_feature":"10","num_nodes":"25","size_leaf_vector":"1"}},{"base_weights":[-1.087514E-3,5.6894493E-1,-6.618404E-1,6.356386E-1,-9.9183595E-1,-1.9275884E-1,-1.0160731E0,8.970244E-1,3.1407735E-1,-2.8929977E-2,-1.1230806E-1,8.961098E-1,-4.4410458E-1,-1.0895761E0,-4.288205E-1,6.2124062E-2,1.135749E-1,9.097436E-2,-3.0168453E-2,-4.8096817E-2,1.22235775E-1,-1.0399784E-1,-6.9867345E-3,-1.9788478E-2,-1.1108301E-1,-1.00929774E-1,7.7082954E-2],"categories":[],"categories_nodes":[],"categories_segments":[],"categories_sizes":[],"default_left":[0,0,0,0,0,0,0,0,0,0,0,0,0,0,0,0,0,0,0,0,0,0,0,0,0,0,0],"id":11,"left_children":[1,3,5,7,9,11,13,15,17,-1,-1,19,21,23,25,-1,-1,-1,-1,-1,-1,-1,-1,-1,-1,-1,-1],"loss_changes":[6.90851E1,1.0880678E1,1.3919636E1,7.7069283E0,8.317804E-2,1.07387E1,1.6118202E0,2.7106209E0,1.6470234E1,0E0,0E0,3.920311E0,6.9219704E0,5.791664E-1,5.6574235E0,0E0,0E0,0E0,0E0,0E0,0E0,0E0,0E0,0E0,0E0,0E0,0E0],"parents":[2147483647,0,0,1,1,2,2,3,3,4,4,5,5,6,6,7,7,8,8,11,11,12,12,13,13,14,14],"right_children":[2,4,6,8,10,12,14,16,18,-1,-1,20,22,24,26,-1,-1,-1,-1,-1,-1,-1,-1,-1,-1,-1,-1],"split_conditions":[5.939101E-1,2.440382E0,1.9881315E0,6.5852815E-1,7.4108854E-2,-2.0830662E0,2.0927272E0,1.27759E0,-5.1388513E-2,-2.8929977E-2,-1.1230806E-1,6.892624E-1,-9.012551E-1,-2.21857E0,-1.1234816E-1,6.2124062E-2,1.135749E-1,9.097436E-2,-3.0168453E-2,-4.8096817E-2,1.22235775E-1,-1.0399784E-1,-6.9867345E-3,-1.9788478E-2,-1.1108301E-1,-1.00929774E-1,7.7082954E-2],"split_indices":[5,7,5,2,0,0,7,9,7,0,0,8,4,6,8,0,0,0,0,0,0,0,0,0,0,0,0],"split_type":[0,0,0,0,0,0,0,0,0,0,0,0,0,0,0,0,0,0,0,0,0,0,0,0,0,0,0],"sum_hessian":[1.8141986E2,9.7470695E1,8.3949165E1,9.4044815E1,3.425882E0,3.6783688E1,4.7165478E1,5.088919E1,4.3155624E1,1.0436472E0,2.382235E0,6.4173756E0,3.0366312E1,4.1158527E1,6.006951E0,2.5283295E1,2.5605896E1,2.1693079E1,2.1462543E1,1.138323E0,5.2790523E0,1.1028081E1,1.9338232E1,1.1982318E0,3.9960297E1,4.1550913E0,1.8518597E0],"tree_param":{"num_deleted":"0","num_feature":"10","num_nodes":"27","size_leaf_vector":"1"}},{"base_weights":[-1.6575643E-3,4.0290204E-1,-8.399217E-1,6.816091E-1,1.296409E-2,-5.257387E-1,-1.1608418E-1,1.01301E0,2.948257E-1,-6.080166E-1,3.517938E-1,2.8148037E-1,-8.364445E-1,1.1269536E-1,-6.6826686E-2,1.1337163E-1,-2.2833088E-2,-1.7086959E-1,1.3572258E-2,-8.857429E-2,6.469753E-2,-6.353117E-2,1.0869973E-1,-9.363332E-2,2.1767503E-2],"categories":[],"categories_nodes":[],"categories_segments":[],"categories_sizes":[],"default_left":[0,0,0,0,0,0,0,0,0,0,0,0,0,0,0,0,0,0,0,0,0,0,0,0,0],"id":12,"left_children":[1,3,5,7,9,11,-1,13,15,17,19,21,23,-1,-1,-1,-1,-1,-1,-1,-1,-1,-1,-1,-1],"loss_changes":[5.9822296E1,1.2921938E1,5.179287E0,8.592964E0,1.0863398E1,7.971016E0,0E0,7.8312874E0,1.4925894E1,1.5158678E1,1.2766621E1,7.573571E0,2.5752926E0,0E0,0E0,0E0,0E0,0E0,0E0,0E0,0E0,0E0,0E0,0E0,0E0],"parents":[2147483647,0,0,1,1,2,2,3,3,4,4,5,5,7,7,8,8,9,9,10,10,11,11,12,12],"right_children":[2,4,6,8,10,12,-1,14,16,18,20,22,24,-1,-1,-1,-1,-1,-1,-1,-1,-1,-1,-1,-1],"split_conditions":[1.4127792E0,-1.9466633E-1,3.031619E0,-5.1388513E-2,1.792098E-1,-1.795554E0,-1.1608418E-1,6.463321E0,-3.03691E-1,1.849488E-1,-1.2256174E0,1.9768822E-1,1.5723982E0,1.1269536E-1,-6.6826686E-2,1.1337163E-1,-2.2833088E-2,-1.7086959E-1,1.3572258E-2,-8.857429E-2,6.469753E-2,-6.353117E-2,1.0869973E-1,-9.363332E-2,2.1767503E-2],"split_indices":[5,5,5,7,7,0,0,8,2,8,4,7,3,0,0,0,0,0,0,0,0,0,0,0,0],"split_type":[0,0,0,0,0,0,0,0,0,0,0,0,0,0,0,0,0,0,0,0,0,0,0,0,0],"sum_hessian":[1.7440256E2,1.1798196E2,5.6420605E1,6.836807E1,4.9613888E1,2.9842659E1,2.6577946E1,3.5948166E1,3.2419903E1,1.7234102E1,3.2379784E1,8.320337E0,2.1522322E1,3.3975296E1,1.9728725E0,1.2004082E1,2.0415823E1,6.426265E0,1.08078375E1,5.8506203E0,2.6529163E1,3.990212E0,4.3301253E0,1.9761461E1,1.7608619E0],"tree_param":{"num_deleted":"0","num_feature":"10","num_nodes":"25","size_leaf_vector":"1"}},{"base_weights":[-2.5431595E-3,3.549471E-1,-8.5678047E-1,6.4560544E-1,-8.129661E-3,-1.0433168E0,-2.4683693E-1,8.5176337E-1,6.031497E-2,1.1255591E0,-1.824625E-1,-1.1662765E-2,-1.0660595E0,7.0198673E-1,-8.573674E-1,9.235545E-2,-4.623333E-2,1.0152545E-1,-4.546607E-2,3.3970676E-2,1.19832575E-1,-8.6802356E-2,4.5106485E-3,-1.1266208E-1,-6.191054E-2,-6.4137325E-2,1.1943128E-1,-1.0376685E-1,1.0961104E-2],"categories":[],"categories_nodes":[],"categories_segments":[],"categories_sizes":[],"default_left":[0,0,0,0,0,0,0,0,0,0,0,0,0,0,0,0,0,0,0,0,0,0,0,0,0,0,0,0,0],"id":13,"left_children":[1,3,5,7,9,11,13,15,17,19,21,-1,23,25,27,-1,-1,-1,-1,-1,-1,-1,-1,-1,-1,-1,-1,-1,-1],"loss_changes":[5.1773834E1,1.2618895E1,5.433258E0,7.960037E0,1.0903556E1,6.763878E-1,8.146467E0,5.0519714E0,9.495905E0,1.3445854E-2,7.4927964E0,0E0,3.02948E-1,4.5021343E0,1.5738826E0,0E0,0E0,0E0,0E0,0E0,0E0,0E0,0E0,0E0,0E0,0E0,0E0,0E0,0E0],"parents":[2147483647,0,0,1,1,2,2,3,3,4,4,5,5,6,6,7,7,8,8,9,9,10,10,12,12,13,13,14,14],"right_children":[2,4,6,8,10,12,14,16,18,20,22,-1,24,26,28,-1,-1,-1,-1,-1,-1,-1,-1,-1,-1,-1,-1,-1,-1],"split_conditions":[1.6084317E0,-1.9466633E-1,1.4649072E0,6.872653E-1,-2.0830662E0,-2.2857773E0,-1.1125859E0,6.463321E0,-3.03691E-1,-2.498118E0,-1.3364711E0,-1.1662765E-2,6.495002E-1,-1.4055349E-1,1.4222735E0,9.235545E-2,-4.623333E-2,1.0152545E-1,-4.546607E-2,3.3970676E-2,1.19832575E-1,-8.6802356E-2,4.5106485E-3,-1.1266208E-1,-6.191054E-2,-6.4137325E-2,1.1943128E-1,-1.0376685E-1,1.0961104E-2],"split_indices":[5,5,7,7,0,6,0,8,2,2,4,0,4,3,2,0,0,0,0,0,0,0,0,0,0,0,0,0,0],"split_type":[0,0,0,0,0,0,0,0,0,0,0,0,0,0,0,0,0,0,0,0,0,0,0,0,0,0,0,0,0],"sum_hessian":[1.6754236E2,1.1852518E2,4.901718E1,6.539531E1,5.312987E1,3.69932E1,1.2023981E1,4.8024326E1,1.7370981E1,6.3539124E0,4.677596E1,1.032926E0,3.5960274E1,4.649072E0,7.3749084E0,4.5818394E1,2.2059355E0,5.7454696E0,1.1625511E1,1.0188758E0,5.3350368E0,1.0956056E1,3.5819904E1,3.0329964E1,5.6303115E0,1.1656747E0,3.4833977E0,6.154287E0,1.2206213E0],"tree_param":{"num_deleted":"0","num_feature":"10","num_nodes":"29","size_leaf_vector":"1"}},{"base_weights":[-2.7608178E-3,3.4091473E-1,-8.0658674E-1,1.4978151E-1,8.573756E-1,-4.906094E-1,-1.1175301E-1,-1.088581E0,2.4782193E-1,-3.2585987E-1,1.0986426E0,2.71444E-1,-7.9649085E-1,-1.5967165E-1,6.704872E-2,3.500075E-2,-9.921519E-2,3.3891324E-2,-1.3721614E-1,1.1980337E-1,3.487443E-2,-6.2005114E-2,1.0070852E-1,-9.124132E-2,2.0716367E-2],"categories":[],"categories_nodes":[],"categories_segments":[],"categories_sizes":[],"default_left":[0,0,0,0,0,0,0,0,0,0,0,0,0,0,0,0,0,0,0,0,0,0,0,0,0],"id":14,"left_children":[1,3,5,7,9,11,-1,13,15,17,19,21,23,-1,-1,-1,-1,-1,-1,-1,-1,-1,-1,-1,-1],"loss_changes":[4.507575E1,1.11548815E1,4.2529984E0,1.0545933E1,9.111786E0,6.2814217E0,0E0,6.786521E0,1.0388271E1,4.613851E0,1.4976273E0,6.001235E0,2.3788214E0,0E0,0E0,0E0,0E0,0E0,0E0,0E0,0E0,0E0,0E0,0E0,0E0],"parents":[2147483647,0,0,1,1,2,2,3,3,4,4,5,5,7,7,8,8,9,9,10,10,11,11,12,12],"right_children":[2,4,6,8,10,12,-1,14,16,18,20,22,24,-1,-1,-1,-1,-1,-1,-1,-1,-1,-1,-1,-1],"split_conditions":[1.5128769E0,1.4755168E0,3.031619E0,-2.0329657E0,-2.1821661E-1,-1.795554E0,-1.1175301E-1,-6.9107693E-1,2.440382E0,1.496576E0,-3.2045132E-1,1.9768822E-1,1.5723982E0,-1.5967165E-1,6.704872E-2,3.500075E-2,-9.921519E-2,3.3891324E-2,-1.3721614E-1,1.1980337E-1,3.487443E-2,-6.2005114E-2,1.0070852E-1,-9.124132E-2,2.0716367E-2],"split_indices":[5,9,5,2,1,0,0,7,7,2,0,7,3,0,0,0,0,0,0,0,0,0,0,0,0],"split_type":[0,0,0,0,0,0,0,0,0,0,0,0,0,0,0,0,0,0,0,0,0,0,0,0,0],"sum_hessian":[1.6117162E2,1.1330428E2,4.786733E1,8.364043E1,2.9663857E1,2.5020042E1,2.2847286E1,5.3947816E0,7.824564E1,4.964761E0,2.4699095E1,7.19857E0,1.7821472E1,4.257289E0,1.1374928E0,7.295148E1,5.2941613E0,3.4493089E0,1.515452E0,2.1280937E1,3.418158E0,3.3255692E0,3.8730006E0,1.6057713E1,1.7637614E0],"tree_param":{"num_deleted":"0","num_feature":"10","num_nodes":"25","size_leaf_vector":"1"}},{"base_weights":[-4.448252E-3,3.053547E-1,-8.040071E-1,1.2038037E0,1.9266127E-1,-9.9152386E-1,-2.055417E-1,3.3293594E-2,1.25419E-1,4.815927E-1,-1.3738139E-1,-1.8006949E-2,-1.0152948E0,6.7101043E-1,-7.876345E-1,9.086744E-2,-4.683992E-3,4.096444E-3,-1.0352268E-1,-1.0836785E-1,-5.50331E-2,-5.9173226E-2,1.12399876E-1,-9.841253E-2,1.4012548E-2],"categories":[],"categories_nodes":[],"categories_segments":[],"categories_sizes":[],"default_left":[0,0,0,0,0,0,0,0,0,0,0,0,0,0,0,0,0,0,0,0,0,0,0,0,0],"id":15,"left_children":[1,3,5,7,9,11,13,-1,-1,15,17,-1,19,21,23,-1,-1,-1,-1,-1,-1,-1,-1,-1,-1],"loss_changes":[3.9035637E1,1.1269039E1,4.7347755E0,1.2958717E-1,9.804414E0,4.5846558E-1,6.5291557E0,0E0,0E0,1.2381592E1,7.80013E0,0E0,4.2378235E-1,3.6585329E0,1.5101113E0,0E0,0E0,0E0,0E0,0E0,0E0,0E0,0E0,0E0,0E0],"parents":[2147483647,0,0,1,1,2,2,3,3,4,4,5,5,6,6,9,9,10,10,12,12,13,13,14,14],"right_children":[2,4,6,8,10,12,14,-1,-1,16,18,-1,20,22,24,-1,-1,-1,-1,-1,-1,-1,-1,-1,-1],"split_conditions":[1.6084317E0,-2.2208486E0,1.4649072E0,4.920643E-1,-1.9466633E-1,-2.21857E0,-1.1125859E0,3.3293594E-2,1.25419E-1,-5.1388513E-2,2.6192036E0,-1.8006949E-2,6.495002E-1,-1.4055349E-1,1.4222735E0,9.086744E-2,-4.683992E-3,4.096444E-3,-1.0352268E-1,-1.0836785E-1,-5.50331E-2,-5.9173226E-2,1.12399876E-1,-9.841253E-2,1.4012548E-2],"split_indices":[5,0,7,8,5,6,0,0,0,7,8,0,4,3,2,0,0,0,0,0,0,0,0,0,0],"split_type":[0,0,0,0,0,0,0,0,0,0,0,0,0,0,0,0,0,0,0,0,0,0,0,0,0],"sum_hessian":[1.5559764E2,1.1259057E2,4.3007076E1,1.1469313E1,1.0112126E2,3.2246517E1,1.0760558E1,1.0433812E0,1.0425932E1,5.367394E1,4.744732E1,1.1618062E0,3.1084711E1,4.233193E0,6.527365E0,2.928561E1,2.4388329E1,4.0380592E1,7.0667276E0,2.5939096E1,5.1456156E0,1.0367844E0,3.1964087E0,5.33641E0,1.1909553E0],"tree_param":{"num_deleted":"0","num_feature":"10","num_nodes":"25","size_leaf_vector":"1"}},{"base_weights":[-4.71716E-3,2.8326946E-1,-7.797495E-1,1.1617727E0,1.7708106E-1,-9.651642E-1,-1.9763273E-1,3.1865727E-2,1.2125497E-1,2.5104138E-1,-9.5343703E-1,-1.7124563E-2,-9.900186E-1,6.3619155E-1,-7.587776E-1,5.4134307E-3,7.9773344E-2,-1.1930629E-1,1.2320119E-2,-1.0624739E-1,-5.2079957E-2,-4.1153483E-2,1.0663469E-1,-9.597655E-2,1.320267E-2],"categories":[],"categories_nodes":[],"categories_segments":[],"categories_sizes":[],"default_left":[0,0,0,0,0,0,0,0,0,0,0,0,0,0,0,0,0,0,0,0,0,0,0,0,0],"id":16,"left_children":[1,3,5,7,9,11,13,-1,-1,15,17,-1,19,21,23,-1,-1,-1,-1,-1,-1,-1,-1,-1,-1],"loss_changes":[3.4005978E1,1.015784E1,4.2640877E0,1.18798256E-1,8.625211E0,4.4307327E-1,5.7363515E0,0E0,0E0,1.0175396E1,1.7895789E0,0E0,4.6299362E-1,2.7195861E0,1.4100003E0,0E0,0E0,0E0,0E0,0E0,0E0,0E0,0E0,0E0,0E0],"parents":[2147483647,0,0,1,1,2,2,3,3,4,4,5,5,6,6,9,9,10,10,12,12,13,13,14,14],"right_children":[2,4,6,8,10,12,14,-1,-1,16,18,-1,20,22,24,-1,-1,-1,-1,-1,-1,-1,-1,-1,-1],"split_conditions":[1.6084317E0,-2.2208486E0,1.4649072E0,4.920643E-1,2.440382E0,-2.21857E0,-1.1125859E0,3.1865727E-2,1.2125497E-1,-9.0133294E-2,1.1228644E0,-1.7124563E-2,6.495002E-1,1.17124215E-1,1.4222735E0,5.4134307E-3,7.9773344E-2,-1.1930629E-1,1.2320119E-2,-1.0624739E-1,-5.2079957E-2,-4.1153483E-2,1.0663469E-1,-9.597655E-2,1.320267E-2],"split_indices":[5,0,7,8,7,6,0,0,0,0,8,0,4,3,2,0,0,0,0,0,0,0,0,0,0],"split_type":[0,0,0,0,0,0,0,0,0,0,0,0,0,0,0,0,0,0,0,0,0,0,0,0,0],"sum_hessian":[1.5036765E2,1.1009357E2,4.0274075E1,1.0800411E1,9.929315E1,3.0045893E1,1.0228181E1,1.0267984E0,9.773613E0,9.3926285E1,5.366868E0,1.1515702E0,2.8894323E1,4.0606236E0,6.1675577E0,6.986235E1,2.406394E1,4.3013783E0,1.0654894E0,2.3934145E1,4.960179E0,1.194493E0,2.8661306E0,4.9690094E0,1.1985481E0],"tree_param":{"num_deleted":"0","num_feature":"10","num_nodes":"25","size_leaf_vector":"1"}},{"base_weights":[-5.1700505E-3,3.917635E-1,-5.108594E-1,7.185451E-1,1.0160196E-1,-8.6700875E-1,-1.1349887E-1,3.6456183E-1,1.0624509E0,7.491885E-1,-3.9043164E-1,-1.0265902E0,-3.769605E-1,9.0910536E-1,-4.6572784E-1,-1.2946504E-1,7.36584E-2,1.126469E-1,1.7281936E-2,9.441029E-2,-6.861787E-2,1.105106E-1,-7.925429E-2,-2.1565855E-2,-1.0711707E-1,-9.343707E-2,7.268704E-3,-2.5355339E-2,1.13505684E-1,-1.0855736E-1,-1.5814029E-2],"categories":[],"categories_nodes":[],"categories_segments":[],"categories_sizes":[],"default_left":[0,0,0,0,0,0,0,0,0,0,0,0,0,0,0,0,0,0,0,0,0,0,0,0,0,0,0,0,0,0,0],"id":17,"left_children":[1,3,5,7,9,11,13,15,17,19,21,23,25,27,29,-1,-1,-1,-1,-1,-1,-1,-1,-1,-1,-1,-1,-1,-1,-1,-1],"loss_changes":[2.972454E1,7.794319E0,9.116959E0,4.3432026E0,1.4667051E1,2.2866573E0,1.192375E1,1.3713161E1,8.980999E-1,6.1930056E0,1.668758E1,6.8037605E-1,2.5689604E0,2.525713E0,4.4822116E0,0E0,0E0,0E0,0E0,0E0,0E0,0E0,0E0,0E0,0E0,0E0,0E0,0E0,0E0,0E0,0E0],"parents":[2147483647,0,0,1,1,2,2,3,3,4,4,5,5,6,6,7,7,8,8,9,9,10,10,11,11,12,12,13,13,14,14],"right_children":[2,4,6,8,10,12,14,16,18,20,22,24,26,28,30,-1,-1,-1,-1,-1,-1,-1,-1,-1,-1,-1,-1,-1,-1,-1,-1],"split_conditions":[5.939101E-1,3.2803065E-1,4.2398632E-1,1.849488E-1,-5.1388513E-2,6.6754806E-1,-1.7001636E0,-8.0743253E-1,3.1822262E0,6.463321E0,-1.5862719E0,-2.8186438E0,-1.5288757E0,-1.7170143E0,-1.1778996E0,-1.2946504E-1,7.36584E-2,1.126469E-1,1.7281936E-2,9.441029E-2,-6.861787E-2,1.105106E-1,-7.925429E-2,-2.1565855E-2,-1.0711707E-1,-9.343707E-2,7.268704E-3,-2.5355339E-2,1.13505684E-1,-1.0855736E-1,-1.5814029E-2],"split_indices":[5,2,7,8,7,3,0,7,1,8,0,0,4,9,4,0,0,0,0,0,0,0,0,0,0,0,0,0,0,0,0],"split_type":[0,0,0,0,0,0,0,0,0,0,0,0,0,0,0,0,0,0,0,0,0,0,0,0,0,0,0,0,0,0,0],"sum_hessian":[1.4608878E2,8.197162E1,6.411716E1,3.7858643E1,4.411298E1,3.3188652E1,3.0928501E1,1.967114E1,1.81875E1,1.882023E1,2.529275E1,2.4209946E1,8.978707E0,7.518758E0,2.3409744E1,3.148564E0,1.6522577E1,1.6718233E1,1.4692674E0,1.6871445E1,1.948787E0,4.9890704E0,2.0303679E1,1.565763E0,2.2644182E1,3.5276334E0,5.451074E0,1.2035576E0,6.3152003E0,6.9250913E0,1.6484653E1],"tree_param":{"num_deleted":"0","num_feature":"10","num_nodes":"31","size_leaf_vector":"1"}},{"base_weights":[-5.273226E-3,2.2159345E-1,-8.28468E-1,5.0707394E-1,-6.550655E-2,-4.616396E-1,-1.05781175E-1,8.489903E-1,1.607232E-1,-7.5398314E-1,1.4019065E-1,-6.581766E-1,5.7614703E-2,9.8615855E-2,-6.3183784E-2,1.03727296E-1,-2.7603779E-2,3.233247E-2,-1.18481256E-1,-3.6504295E-2,6.6501155E-2,-8.217717E-2,5.0349362E-2],"categories":[],"categories_nodes":[],"categories_segments":[],"categories_sizes":[],"default_left":[0,0,0,0,0,0,0,0,0,0,0,0,0,0,0,0,0,0,0,0,0,0,0],"id":18,"left_children":[1,3,5,7,9,11,-1,13,15,17,19,21,-1,-1,-1,-1,-1,-1,-1,-1,-1,-1,-1],"loss_changes":[2.665661E1,9.20598E0,2.105959E0,6.5225296E0,8.133317E0,3.1606648E0,0E0,6.32329E0,1.1452938E1,6.5081506E0,1.2039174E1,2.6814399E0,0E0,0E0,0E0,0E0,0E0,0E0,0E0,0E0,0E0,0E0,0E0],"parents":[2147483647,0,0,1,1,2,2,3,3,4,4,5,5,7,7,8,8,9,9,10,10,11,11],"right_children":[2,4,6,8,10,12,-1,14,16,18,20,22,-1,-1,-1,-1,-1,-1,-1,-1,-1,-1,-1],"split_conditions":[1.9881315E0,-1.9466633E-1,3.031619E0,-5.1388513E-2,-1.3364711E0,2.0927272E0,-1.05781175E-1,6.463321E0,-3.03691E-1,7.288446E-2,1.7349498E-1,2.9142509E0,5.7614703E-2,9.8615855E-2,-6.3183784E-2,1.03727296E-1,-2.7603779E-2,3.233247E-2,-1.18481256E-1,-3.6504295E-2,6.6501155E-2,-8.217717E-2,5.0349362E-2],"split_indices":[5,5,5,7,4,7,0,8,2,2,8,5,0,0,0,0,0,0,0,0,0,0,0],"split_type":[0,0,0,0,0,0,0,0,0,0,0,0,0,0,0,0,0,0,0,0,0,0,0],"sum_hessian":[1.4075235E2,1.10915596E2,2.9836744E1,5.5230484E1,5.5685116E1,1.2637046E1,1.71997E1,2.7062862E1,2.8167622E1,1.2196718E1,4.34884E1,1.0932439E1,1.7046068E0,2.5074295E1,1.9885671E0,8.910311E0,1.925731E1,3.5555186E0,8.6412E0,2.2312798E1,2.11756E1,9.839378E0,1.0930604E0],"tree_param":{"num_deleted":"0","num_feature":"10","num_nodes":"23","size_leaf_vector":"1"}},{"base_weights":[-5.0234483E-3,2.0667857E-1,-8.0155414E-1,9.9364835E-1,1.0757377E-1,-4.3229085E-1,-1.0418295E-1,-3.4031242E-2,1.1452555E-1,1.7907E-1,-9.192069E-1,2.6776752E-1,-7.2947764E-1,6.238154E-3,9.499498E-2,-1.11952804E-1,3.003179E-3,-2.3941377E-2,8.529236E-2,-8.965806E-2,3.1573944E-2],"categories":[],"categories_nodes":[],"categories_segments":[],"categories_sizes":[],"default_left":[0,0,0,0,0,0,0,0,0,0,0,0,0,0,0,0,0,0,0,0,0],"id":19,"left_children":[1,3,5,7,9,11,-1,-1,-1,13,15,17,19,-1,-1,-1,-1,-1,-1,-1,-1],"loss_changes":[2.3217558E1,8.378244E0,2.1145782E0,2.826088E0,7.3403287E0,2.921786E0,0E0,0E0,0E0,8.236284E0,1.2746067E0,1.580331E0,1.9367676E0,0E0,0E0,0E0,0E0,0E0,0E0,0E0,0E0],"parents":[2147483647,0,0,1,1,2,2,3,3,4,4,5,5,9,9,10,10,11,11,12,12],"right_children":[2,4,6,8,10,12,-1,-1,-1,14,16,18,20,-1,-1,-1,-1,-1,-1,-1,-1],"split_conditions":[1.9881315E0,-2.2208486E0,3.031619E0,-1.9919501E-1,2.440382E0,-1.795554E0,-1.0418295E-1,-3.4031242E-2,1.1452555E-1,4.578766E-1,1.1228644E0,-2.1381106E0,1.7417736E0,6.238154E-3,9.499498E-2,-1.11952804E-1,3.003179E-3,-2.3941377E-2,8.529236E-2,-8.965806E-2,3.1573944E-2],"split_indices":[5,0,5,8,7,0,0,0,0,0,8,0,2,0,0,0,0,0,0,0,0],"split_type":[0,0,0,0,0,0,0,0,0,0,0,0,0,0,0,0,0,0,0,0,0],"sum_hessian":[1.3570332E2,1.0779428E2,2.790905E1,1.1046911E1,9.674737E1,1.2104931E1,1.580412E1,1.0003482E0,1.0046563E1,9.122111E1,5.526258E0,3.6368637E0,8.468067E0,8.01671E1,1.1054011E1,4.415123E0,1.1111349E0,2.2647536E0,1.3721099E0,7.423456E0,1.0446107E0],"tree_param":{"num_deleted":"0","num_feature":"10","num_nodes":"21","size_leaf_vector":"1"}},{"base_weights":[-5.1540434E-3,4.0838632E-1,-3.7601084E-1,8.053907E-1,1.1795227E-1,-1.9012024E-1,-1.0267078E-1,3.1268215E-1,9.507118E-1,7.473209E-1,-2.1172903E-1,-4.4468364E-1,2.777508E-1,-1.0854961E-1,9.440091E-2,1.0578209E-1,-6.669064E-3,1.062459E-1,-1.1214433E-1,-7.149353E-2,7.608222E-2,-6.0217597E-2,1.1794409E-2,1.1154318E-1,-2.9229993E-2],"categories":[],"categories_nodes":[],"categories_segments":[],"categories_sizes":[],"default_left":[0,0,0,0,0,0,0,0,0,0,0,0,0,0,0,0,0,0,0,0,0,0,0,0,0],"id":20,"left_children":[1,3,5,7,9,11,-1,13,15,17,19,21,23,-1,-1,-1,-1,-1,-1,-1,-1,-1,-1,-1,-1],"loss_changes":[2.0610207E1,7.231765E0,8.373839E0,1.6126595E0,8.015626E0,6.8324223E0,0E0,7.702959E0,2.2618828E0,8.987838E0,1.3087195E1,3.3375869E0,1.0098034E1,0E0,0E0,0E0,0E0,0E0,0E0,0E0,0E0,0E0,0E0,0E0,0E0],"parents":[2147483647,0,0,1,1,2,2,3,3,4,4,5,5,7,7,8,8,9,9,10,10,11,11,12,12],"right_children":[2,4,6,8,10,12,-1,14,16,18,20,22,24,-1,-1,-1,-1,-1,-1,-1,-1,-1,-1,-1,-1],"split_conditions":[1.0938993E-1,3.2803065E-1,3.031619E0,-9.628927E-1,-3.9583734E-1,1.3481266E0,-1.0267078E-1,-5.589781E-1,2.6077306E0,6.3418684E0,4.1962023E0,-3.271069E-1,-1.1125859E0,-1.0854961E-1,9.440091E-2,1.0578209E-1,-6.669064E-3,1.062459E-1,-1.1214433E-1,-7.149353E-2,7.608222E-2,-6.0217597E-2,1.1794409E-2,1.1154318E-1,-2.9229993E-2],"split_indices":[5,2,5,7,7,7,0,8,1,8,8,0,0,0,0,0,0,0,0,0,0,0,0,0,0],"split_type":[0,0,0,0,0,0,0,0,0,0,0,0,0,0,0,0,0,0,0,0,0,0,0,0,0],"sum_hessian":[1.3238605E2,6.2543232E1,6.984281E1,2.5674627E1,3.6868603E1,5.532872E1,1.4514088E1,6.5656314E0,1.9108995E1,1.2238414E1,2.463019E1,3.5864697E1,1.9464024E1,1.8186162E0,4.7470155E0,1.7252932E1,1.8560638E0,1.0841609E1,1.396805E0,1.6406313E1,8.223877E0,2.7966066E1,7.89863E0,7.494396E0,1.1969627E1],"tree_param":{"num_deleted":"0","num_feature":"10","num_nodes":"25","size_leaf_vector":"1"}},{"base_weights":[-4.0622195E-3,2.0616367E-1,-6.7030495E-1,1.05112925E-1,1.1436584E-1,-9.443959E-1,-2.1498457E-1,2.4402073E-2,9.097164E-1,-3.388965E-1,-1.0057477E-1,-9.119124E-2,3.3942312E-1,2.4719065E-2,-3.6654588E-2,1.00248925E-1,1.0742868E-2,-6.1009776E-2,1.3090163E-2,-3.66108E-2,1.0288177E-1],"categories":[],"categories_nodes":[],"categories_segments":[],"categories_sizes":[],"default_left":[0,0,0,0,0,0,0,0,0,0,0,0,0,0,0,0,0,0,0,0,0],"id":21,"left_children":[1,3,5,-1,7,9,11,13,15,17,-1,-1,19,-1,-1,-1,-1,-1,-1,-1,-1],"loss_changes":[1.8184965E1,7.5362167E0,3.683261E0,0E0,6.428835E0,3.703251E-1,5.3310823E0,7.2347655E0,5.7215786E-1,4.964287E-1,0E0,0E0,4.2517376E0,0E0,0E0,0E0,0E0,0E0,0E0,0E0,0E0],"parents":[2147483647,0,0,1,1,2,2,4,4,5,5,6,6,7,7,8,8,9,9,12,12],"right_children":[2,4,6,-1,8,10,12,14,16,18,-1,-1,20,-1,-1,-1,-1,-1,-1,-1,-1],"split_conditions":[1.6084317E0,-2.2208486E0,2.2291619E-1,1.05112925E-1,5.8705574E-1,-1.1774166E0,-2.015568E0,1.1778169E0,1.5782565E0,-1.4409816E0,-1.0057477E-1,-9.119124E-2,1.4649072E0,2.4719065E-2,-3.6654588E-2,1.00248925E-1,1.0742868E-2,-6.1009776E-2,1.3090163E-2,-3.66108E-2,1.0288177E-1],"split_indices":[5,0,1,0,0,3,9,2,7,3,0,0,7,0,0,0,0,0,0,0,0],"split_type":[0,0,0,0,0,0,0,0,0,0,0,0,0,0,0,0,0,0,0,0,0],"sum_hessian":[1.27848946E2,9.770859E1,3.014036E1,8.550832E0,8.915775E1,1.8144009E1,1.1996352E1,8.102368E1,8.134077E0,2.2694957E0,1.5874512E1,5.029319E0,6.9670334E0,5.1846024E1,2.9177656E1,7.067308E0,1.0667689E0,1.2495358E0,1.01996E0,3.6749783E0,3.2920551E0],"tree_param":{"num_deleted":"0","num_feature":"10","num_nodes":"21","size_leaf_vector":"1"}},{"base_weights":[-3.685925E-3,3.7338457E-1,-3.4316763E-1,7.5679404E-1,1.0626363E-1,-1.7559683E-1,-9.999429E-2,2.679698E-1,9.068028E-1,7.2129995E-1,-2.0085268E-1,-7.2799444E-1,1.0088051E-2,-1.0155934E-1,9.139159E-2,1.0219067E-1,-1.15598915E-2,1.04131125E-1,-1.0181558E-1,-6.535498E-2,7.056228E-2,-1.2055894E-1,9.859724E-3,-6.368499E-2,3.724726E-2],"categories":[],"categories_nodes":[],"categories_segments":[],"categories_sizes":[],"default_left":[0,0,0,0,0,0,0,0,0,0,0,0,0,0,0,0,0,0,0,0,0,0,0,0,0],"id":22,"left_children":[1,3,5,7,9,11,-1,13,15,17,19,21,23,-1,-1,-1,-1,-1,-1,-1,-1,-1,-1,-1,-1],"loss_changes":[1.6239487E1,6.075692E0,7.171012E0,1.5548878E0,7.0562897E0,5.586917E0,0E0,6.8785458E0,2.276617E0,7.964775E0,1.079654E1,5.526767E0,1.0012915E1,0E0,0E0,0E0,0E0,0E0,0E0,0E0,0E0,0E0,0E0,0E0,0E0],"parents":[2147483647,0,0,1,1,2,2,3,3,4,4,5,5,7,7,8,8,9,9,10,10,11,11,12,12],"right_children":[2,4,6,8,10,12,-1,14,16,18,20,22,24,-1,-1,-1,-1,-1,-1,-1,-1,-1,-1,-1,-1],"split_conditions":[1.0938993E-1,3.2803065E-1,3.031619E0,-9.628927E-1,-3.9583734E-1,-1.3364711E0,-9.999429E-2,-5.589781E-1,2.6077306E0,6.3418684E0,4.1962023E0,4.7050986E-1,-5.044261E-1,-1.0155934E-1,9.139159E-2,1.0219067E-1,-1.15598915E-2,1.04131125E-1,-1.0181558E-1,-6.535498E-2,7.056228E-2,-1.2055894E-1,9.859724E-3,-6.368499E-2,3.724726E-2],"split_indices":[5,2,5,7,7,4,0,8,1,8,8,3,8,0,0,0,0,0,0,0,0,0,0,0,0],"split_type":[0,0,0,0,0,0,0,0,0,0,0,0,0,0,0,0,0,0,0,0,0,0,0,0,0],"sum_hessian":[1.2486156E2,5.9108482E1,6.5753075E1,2.3518408E1,3.5590076E1,5.339671E1,1.2356368E1,6.1768026E0,1.7341604E1,1.1403871E1,2.4186205E1,1.2698651E1,4.0698055E1,1.8762462E0,4.300556E0,1.5587247E1,1.7543576E0,9.970867E0,1.4330031E0,1.6316639E1,7.869567E0,7.7577863E0,4.9408646E0,1.4340195E1,2.6357862E1],"tree_param":{"num_deleted":"0","num_feature":"10","num_nodes":"25","size_leaf_vector":"1"}},{"base_weights":[-4.349963E-3,1.8965122E-1,-5.9691256E-1,1.0470285E-1,1.0477622E-1,-3.117769E-1,-9.864054E-2,1.877634E-2,8.796044E-1,3.189948E-1,-5.922443E-1,2.4337858E-2,-3.6822196E-2,9.678795E-2,1.3529398E-2,-6.67873E-2,6.9411516E-2,-7.815986E-2,1.7934917E-2],"categories":[],"categories_nodes":[],"categories_segments":[],"categories_sizes":[],"default_left":[0,0,0,0,0,0,0,0,0,0,0,0,0,0,0,0,0,0,0],"id":23,"left_children":[1,3,5,-1,7,9,-1,11,13,15,17,-1,-1,-1,-1,-1,-1,-1,-1],"loss_changes":[1.4117698E1,6.6240497E0,3.0561943E0,0E0,5.6681824E0,3.541161E0,0E0,6.852896E0,4.2760563E-1,2.8632183E0,2.1077151E0,0E0,0E0,0E0,0E0,0E0,0E0,0E0,0E0],"parents":[2147483647,0,0,1,1,2,2,4,4,5,5,7,7,8,8,9,9,10,10],"right_children":[2,4,6,-1,8,10,-1,12,14,16,18,-1,-1,-1,-1,-1,-1,-1,-1],"split_conditions":[1.4527547E0,-2.2208486E0,3.031619E0,1.0470285E-1,5.8705574E-1,-1.795554E0,-9.864054E-2,1.1778169E0,1.5782565E0,-2.8839347E0,1.1121006E0,2.4337858E-2,-3.6822196E-2,9.678795E-2,1.3529398E-2,-6.67873E-2,6.9411516E-2,-7.815986E-2,1.7934917E-2],"split_indices":[5,0,5,0,0,0,0,2,7,2,3,0,0,0,0,0,0,0,0],"split_type":[0,0,0,0,0,0,0,0,0,0,0,0,0,0,0,0,0,0,0],"sum_hessian":[1.2082285E2,9.153487E1,2.9287983E1,7.2240405E0,8.431083E1,1.7948738E1,1.1339245E1,7.680978E1,7.5010524E0,5.4821053E0,1.2466633E1,4.8837223E1,2.7972553E1,6.437228E0,1.0638243E0,1.2949425E0,4.1871624E0,9.999678E0,2.4669552E0],"tree_param":{"num_deleted":"0","num_feature":"10","num_nodes":"19","size_leaf_vector":"1"}},{"base_weights":[-3.78464E-3,3.4178758E-1,-3.1470254E-1,7.097407E-1,9.7318895E-2,-1.6662489E-1,-9.731685E-2,4.1108987E-1,1.00291744E-1,6.988516E-1,-1.8978931E-1,-3.903143E-1,2.4374093E-1,-4.5599353E-2,7.0538834E-2,1.0222497E-1,-9.278425E-2,-5.9854783E-2,6.563233E-2,-5.435288E-2,1.4654736E-2,1.0401577E-1,-2.6130786E-2],"categories":[],"categories_nodes":[],"categories_segments":[],"categories_sizes":[],"default_left":[0,0,0,0,0,0,0,0,0,0,0,0,0,0,0,0,0,0,0,0,0,0,0],"id":24,"left_children":[1,3,5,7,9,11,-1,13,-1,15,17,19,21,-1,-1,-1,-1,-1,-1,-1,-1,-1,-1],"loss_changes":[1.2911325E1,5.050807E0,6.0048795E0,1.563139E0,6.2387447E0,4.9458632E0,0E0,3.6060977E0,0E0,7.0701213E0,8.942111E0,2.924447E0,8.0180435E0,0E0,0E0,0E0,0E0,0E0,0E0,0E0,0E0,0E0,0E0],"parents":[2147483647,0,0,1,1,2,2,3,3,4,4,5,5,7,7,9,9,10,10,11,11,12,12],"right_children":[2,4,6,8,10,12,-1,14,-1,16,18,20,22,-1,-1,-1,-1,-1,-1,-1,-1,-1,-1],"split_conditions":[1.0938993E-1,3.2803065E-1,3.031619E0,1.5292624E0,-3.9583734E-1,1.3481266E0,-9.731685E-2,-1.6713457E0,1.00291744E-1,6.3418684E0,4.1962023E0,-3.271069E-1,-1.1125859E0,-4.5599353E-2,7.0538834E-2,1.0222497E-1,-9.278425E-2,-5.9854783E-2,6.563233E-2,-5.435288E-2,1.4654736E-2,1.0401577E-1,-2.6130786E-2],"split_indices":[5,2,5,9,7,7,0,2,0,8,8,0,0,0,0,0,0,0,0,0,0,0,0],"split_type":[0,0,0,0,0,0,0,0,0,0,0,0,0,0,0,0,0,0,0,0,0,0,0],"sum_hessian":[1.1816621E2,5.5917244E1,6.2248962E1,2.1561518E1,3.4355724E1,5.1843338E1,1.0405623E1,1.1871029E1,9.69049E0,1.0636543E1,2.3719183E1,3.3585064E1,1.8258274E1,2.8689356E0,9.002093E0,9.182564E0,1.4539793E0,1.6190239E1,7.5289435E0,2.6118662E1,7.466402E0,6.6741767E0,1.1584098E1],"tree_param":{"num_deleted":"0","num_feature":"10","num_nodes":"23","size_leaf_vector":"1"}},{"base_weights":[-2.3121976E-3,1.2697293E-1,-7.3873603E-1,9.1859E-1,5.327676E-2,-9.355002E-1,-2.4701157E-1,-1.09154E-2,1.073874E-1,1.2001341E-1,-8.677083E-1,-9.730532E-2,-2.6785566E-2,-7.170224E-2,6.2074114E-2,-2.999922E-3,6.006257E-2,-1.0630722E-1,6.238644E-3],"categories":[],"categories_nodes":[],"categories_segments":[],"categories_sizes":[],"default_left":[0,0,0,0,0,0,0,0,0,0,0,0,0,0,0,0,0,0,0],"id":25,"left_children":[1,3,5,7,9,11,13,-1,-1,15,17,-1,-1,-1,-1,-1,-1,-1,-1],"loss_changes":[1.1089866E1,5.732457E0,1.4519157E0,1.4543543E0,5.7416453E0,4.1846275E-2,3.026799E0,0E0,0E0,6.247461E0,1.2144852E0,0E0,0E0,0E0,0E0,0E0,0E0,0E0,0E0],"parents":[2147483647,0,0,1,1,2,2,3,3,4,4,5,5,6,6,9,9,10,10],"right_children":[2,4,6,8,10,12,14,-1,-1,16,18,-1,-1,-1,-1,-1,-1,-1,-1],"split_conditions":[2.1828282E0,-2.4212072E0,-1.5018563E-1,-2.6149654E0,2.440382E0,1.3094441E0,-8.465097E-1,-1.09154E-2,1.073874E-1,-9.0133294E-2,1.1228644E0,-9.730532E-2,-2.6785566E-2,-7.170224E-2,6.2074114E-2,-2.999922E-3,6.006257E-2,-1.0630722E-1,6.238644E-3],"split_indices":[5,0,4,2,7,3,9,0,0,0,8,0,0,0,0,0,0,0,0],"split_type":[0,0,0,0,0,0,0,0,0,0,0,0,0,0,0,0,0,0,0],"sum_hessian":[1.144944E2,9.809978E1,1.6394623E1,7.3784647E0,9.072131E1,1.1064614E1,5.3300076E0,1.0074886E0,6.3709764E0,8.540254E1,5.3187695E0,1.0042323E1,1.0222917E0,3.5700321E0,1.7599754E0,6.580159E1,1.9600948E1,4.277352E0,1.0414178E0],"tree_param":{"num_deleted":"0","num_feature":"10","num_nodes":"19","size_leaf_vector":"1"}},{"base_weights":[-3.049245E-3,3.7260485E-1,-2.4362475E-1,7.1658427E-1,6.807447E-2,-6.113704E-1,6.0903292E-2,8.666465E-1,-4.6376202E-2,-7.541102E-1,4.2625543E-1,-1.0967937E0,-1.7881373E-1,9.5364004E-1,-1.9835769E-1,1.776448E-2,1.0389068E-1,-1.3677101E-1,8.635179E-2,-9.186696E-4,8.732169E-2,-1.2530068E-1,1.8413117E-3,-8.443473E-2,4.665401E-2,1.2625872E-2,1.070401E-1,-1.05889834E-1,7.317867E-3],"categories":[],"categories_nodes":[],"categories_segments":[],"categories_sizes":[],"default_left":[0,0,0,0,0,0,0,0,0,0,0,0,0,0,0,0,0,0,0,0,0,0,0,0,0,0,0,0,0],"id":26,"left_children":[1,3,5,7,9,11,13,15,-1,17,19,21,23,25,27,-1,-1,-1,-1,-1,-1,-1,-1,-1,-1,-1,-1,-1,-1],"loss_changes":[1.0342951E1,4.631889E0,7.849512E0,4.0998755E0,7.626484E0,6.458004E0,9.231763E0,2.0552359E0,0E0,9.01086E0,3.4951868E0,2.5905533E0,8.104604E0,7.309046E-1,7.345555E0,0E0,0E0,0E0,0E0,0E0,0E0,0E0,0E0,0E0,0E0,0E0,0E0,0E0,0E0],"parents":[2147483647,0,0,1,1,2,2,3,3,4,4,5,5,6,6,7,7,9,9,10,10,11,11,12,12,13,13,14,14],"right_children":[2,4,6,8,10,12,14,16,-1,18,20,22,24,26,28,-1,-1,-1,-1,-1,-1,-1,-1,-1,-1,-1,-1,-1,-1],"split_conditions":[-1.9466633E-1,-5.1388513E-2,2.9385546E-1,6.463321E0,-1.542369E0,1.849488E-1,-1.6620467E0,-9.2822E-1,-4.6376202E-2,4.6560125E0,6.947755E-1,8.495845E-1,-1.5144118E0,-8.0805576E-1,-1.1778996E0,1.776448E-2,1.0389068E-1,-1.3677101E-1,8.635179E-2,-9.186696E-4,8.732169E-2,-1.2530068E-1,1.8413117E-3,-8.443473E-2,4.665401E-2,1.2625872E-2,1.070401E-1,-1.05889834E-1,7.317867E-3],"split_indices":[5,7,7,8,5,8,0,6,0,8,9,3,4,9,4,0,0,0,0,0,0,0,0,0,0,0,0,0,0],"split_type":[0,0,0,0,0,0,0,0,0,0,0,0,0,0,0,0,0,0,0,0,0,0,0,0,0,0,0,0,0],"sum_hessian":[1.1244269E2,4.3683273E1,6.8759415E1,1.9877619E1,2.3805656E1,3.0690369E1,3.8069042E1,1.7871332E1,2.0062864E0,6.888377E0,1.6917278E1,1.3737867E1,1.6952501E1,7.9648056E0,3.0104237E1,3.9807005E0,1.3890632E1,5.106045E0,1.7823324E0,9.065178E0,7.8521004E0,1.1941581E1,1.7962871E0,8.193967E0,8.758534E0,1.2423948E0,6.7224107E0,6.5252037E0,2.3579033E1],"tree_param":{"num_deleted":"0","num_feature":"10","num_nodes":"29","size_leaf_vector":"1"}},{"base_weights":[-2.9264763E-3,8.520965E-2,-9.4352804E-2,3.533174E-1,-1.09667756E-1,6.895831E-1,6.5025724E-2,-6.914671E-1,6.732081E-2,9.71558E-3,1.03369094E-1,9.3259156E-2,-2.5910972E-2,1.2986625E-2,-1.0720076E-1,-2.660353E-2,5.0125845E-2],"categories":[],"categories_nodes":[],"categories_segments":[],"categories_sizes":[],"default_left":[0,0,0,0,0,0,0,0,0,0,0,0,0,0,0,0,0],"id":27,"left_children":[1,3,-1,5,7,9,11,13,15,-1,-1,-1,-1,-1,-1,-1,-1],"loss_changes":[9.197832E0,5.3406053E0,0E0,4.118751E0,6.1760025E0,3.9198494E0,7.054814E0,4.5065327E0,6.867421E0,0E0,0E0,0E0,0E0,0E0,0E0,0E0,0E0],"parents":[2147483647,0,0,1,1,3,3,4,4,5,5,6,6,7,7,8,8],"right_children":[2,4,-1,6,8,10,12,14,16,-1,-1,-1,-1,-1,-1,-1,-1],"split_conditions":[3.031619E0,-1.9466633E-1,-9.4352804E-2,-5.1388513E-2,-1.3364711E0,-3.378151E-1,-3.03691E-1,7.288446E-2,3.6112523E-1,9.71558E-3,1.03369094E-1,9.3259156E-2,-2.5910972E-2,1.2986625E-2,-1.0720076E-1,-2.660353E-2,5.0125845E-2],"split_indices":[5,5,0,7,4,6,2,2,8,0,0,0,0,0,0,0,0],"split_type":[0,0,0,0,0,0,0,0,0,0,0,0,0,0,0,0,0],"sum_hessian":[1.0897981E2,1.0047456E2,8.505246E0,4.194904E1,5.8525524E1,1.8720886E1,2.3228153E1,1.297315E1,4.5552376E1,7.349716E0,1.137117E1,5.8073378E0,1.7420816E1,4.3161616E0,8.656989E0,2.5980652E1,1.9571722E1],"tree_param":{"num_deleted":"0","num_feature":"10","num_nodes":"17","size_leaf_vector":"1"}},{"base_weights":[-2.464309E-3,7.986731E-2,-9.305527E-2,6.5857244E-1,-2.333962E-3,-5.9833642E-2,8.660498E-1,2.766658E-1,-2.004263E-1,-1.0695479E-2,1.0062637E-1,6.823921E-2,-7.861463E-3,-7.338384E-2,-3.175344E-3],"categories":[],"categories_nodes":[],"categories_segments":[],"categories_sizes":[],"default_left":[0,0,0,0,0,0,0,0,0,0,0,0,0,0,0],"id":28,"left_children":[1,3,-1,5,7,-1,9,11,13,-1,-1,-1,-1,-1,-1],"loss_changes":[8.26283E0,4.7277856E0,0E0,3.7416167E0,4.9185805E0,0E0,1.6107979E0,5.3806057E0,4.6585846E0,0E0,0E0,0E0,0E0,0E0,0E0],"parents":[2147483647,0,0,1,1,3,3,4,4,6,6,7,7,8,8],"right_children":[2,4,-1,6,8,-1,10,12,14,-1,-1,-1,-1,-1,-1],"split_conditions":[3.031619E0,-2.0830662E0,-9.305527E-2,-1.1198515E0,-1.9466633E-1,-5.9833642E-2,-2.6255682E0,-5.1388513E-2,-1.3364711E0,-1.0695479E-2,1.0062637E-1,6.823921E-2,-7.861463E-3,-7.338384E-2,-3.175344E-3],"split_indices":[5,0,0,7,5,0,2,7,4,0,0,0,0,0,0],"split_type":[0,0,0,0,0,0,0,0,0,0,0,0,0,0,0],"sum_hessian":[1.0616397E2,9.8352936E1,7.81104E0,1.1360708E1,8.6992226E1,1.3426998E0,1.0018008E1,3.5955154E1,5.103707E1,1.2916806E0,8.726328E0,1.6356033E1,1.9599121E1,1.1456453E1,3.958062E1],"tree_param":{"num_deleted":"0","num_feature":"10","num_nodes":"15","size_leaf_vector":"1"}},{"base_weights":[-2.9091698E-3,7.3698886E-2,-9.17527E-2,6.2573224E-1,-2.1340959E-3,-5.7193387E-2,8.3011955E-1,5.7838432E-2,-8.4929425E-1,-1.0089772E-2,9.719571E-2,-2.3903705E-3,8.492948E-2,-2.7016003E-3,-1.0187759E-1],"categories":[],"categories_nodes":[],"categories_segments":[],"categories_sizes":[],"default_left":[0,0,0,0,0,0,0,0,0,0,0,0,0,0,0],"id":29,"left_children":[1,3,-1,5,7,-1,9,11,13,-1,-1,-1,-1,-1,-1],"loss_changes":[7.412988E0,4.089478E0,0E0,3.3628478E0,4.4620852E0,0E0,1.4828153E0,5.3287067E0,7.81631E-1,0E0,0E0,0E0,0E0,0E0,0E0],"parents":[2147483647,0,0,1,1,3,3,4,4,6,6,7,7,8,8],"right_children":[2,4,-1,6,8,-1,10,12,14,-1,-1,-1,-1,-1,-1],"split_conditions":[3.031619E0,-2.0830662E0,-9.17527E-2,-1.1198515E0,2.440382E0,-5.7193387E-2,-2.6255682E0,5.769409E-1,-8.644406E-1,-1.0089772E-2,9.719571E-2,-2.3903705E-3,8.492948E-2,-2.7016003E-3,-1.0187759E-1],"split_indices":[5,0,0,7,7,0,2,0,4,0,0,0,0,0,0],"split_type":[0,0,0,0,0,0,0,0,0,0,0,0,0,0,0],"sum_hessian":[1.03833336E2,9.6656815E1,7.176519E0,1.0798279E1,8.5858536E1,1.3119936E0,9.486285E0,8.105237E1,4.806168E0,1.2923002E0,8.193985E0,7.434388E1,6.7084875E0,1.0194557E0,3.7867122E0],"tree_param":{"num_deleted":"0","num_feature":"10","num_nodes":"15","size_leaf_vector":"1"}}]},"name":"gbtree"},"learner_model_param":{"base_score":"[5.018268E-1]","boost_from_average":"1","num_class":"0","num_feature":"10","num_target":"1"},"objective":{"name":"binary:logistic","reg_loss_param":{"scale_pos_weight":"1"}}},"version":[3,1,1]}