{"learner":{"attributes":{},"feature_names":[],"feature_types":[],"gradient_booster":{"model":{"cats":{"enc":[],"feature_segments":[],"sorted_idx":[]},"gbtree_model_param":{"num_parallel_tree":"1","num_trees":"30"},"iteration_indptr":[0,1,2,3,4,5,6,7,8,9,10,11,12,13,14,15,16,17,18,19,20,21,22,23,24,25,26,27,28,29,30],"tree_info":[0,0,0,0,0,0,0,0,0,0,0,0,0,0,0,0,0,0,0,0,0,0,0,0,0,0,0,0,0,0],"trees":[{"base_weights":[-2.2371965E-7,-4.0500923E1,3.956026E1,-7.390713E1,-2.1298948E1,2.3759998E1,6.840749E1,-1.0205311E2,-5.264951E1,-5.3075428E1,-4.616728E0,-2.8167362E0,4.301627E1,4.962455E1,9.806124E1,-1.3109519E1,-8.176756E0,-7.213224E0,-3.6594334E0,-6.830238E0,-2.8032339E0,-2.3288796E0,1.8353642E0,-3.3567045E0,1.0061997E0,2.3661926E0,6.7779193E0,2.347081E0,7.119316E0,7.9585924E0,1.1266974E1],"categories":[],"categories_nodes":[],"categories_segments":[],"categories_sizes":[],"default_left":[0,0,0,0,0,0,0,0,0,0,0,0,0,0,0,0,0,0,0,0,0,0,0,0,0,0,0,0,0,0,0],"id":0,"left_children":[1,3,5,7,9,11,13,15,17,19,21,23,25,27,29,-1,-1,-1,-1,-1,-1,-1,-1,-1,-1,-1,-1,-1,-1,-1,-1],"loss_changes":[1.5995795E6,3.148663E5,2.2856812E5,1.02116125E5,1.6655488E5,1.679011E5,9.4386E4,3.4194062E4,3.002175E4,3.935553E4,8.939462E4,5.5257918E4,8.953647E4,6.1011156E4,9.40675E3,0E0,0E0,0E0,0E0,0E0,0E0,0E0,0E0,0E0,0E0,0E0,0E0,0E0,0E0,0E0,0E0],"parents":[2147483647,0,0,1,1,2,2,3,3,4,4,5,5,6,6,7,7,8,8,9,9,10,10,11,11,12,12,13,13,14,14],"right_children":[2,4,6,8,10,12,14,16,18,20,22,24,26,28,30,-1,-1,-1,-1,-1,-1,-1,-1,-1,-1,-1,-1,-1,-1,-1,-1],"split_conditions":[1.840163E-2,-3.4319228E-1,4.2178008E-1,-9.787637E-1,-4.1222075E-1,-1.7280173E-1,8.431053E-1,-8.268069E-2,-3.8736197E-1,-5.64774E-1,-5.7035136E-1,-8.3534706E-1,7.916627E-1,-1.627929E-1,2.5256884E-1,-1.3109519E1,-8.176756E0,-7.213224E0,-3.6594334E0,-6.830238E0,-2.8032339E0,-2.3288796E0,1.8353642E0,-3.3567045E0,1.0061997E0,2.3661926E0,6.7779193E0,2.347081E0,7.119316E0,7.9585924E0,1.1266974E1],"split_indices":[1,0,0,1,3,3,1,3,3,1,1,0,1,4,4,0,0,0,0,0,0,0,0,0,0,0,0,0,0,0,0],"split_type":[0,0,0,0,0,0,0,0,0,0,0,0,0,0,0,0,0,0,0,0,0,0,0,0,0,0,0,0,0,0,0],"sum_hessian":[9.963476E2,4.9230887E2,5.0403873E2,1.7865277E2,3.136561E2,3.268432E2,1.7719554E2,7.523615E1,1.03416626E2,1.0722711E2,2.0642897E2,1.3767854E2,1.8916466E2,1.10118805E2,6.707674E1,2.8693798E1,4.654235E1,4.5143208E1,5.8273422E1,6.560806E1,4.1619053E1,1.1386056E2,9.2568405E1,4.0166756E1,9.751178E1,1.0727532E2,8.188933E1,5.0713116E1,5.940569E1,3.2465572E1,3.4611164E1],"tree_param":{"num_deleted":"0","num_feature":"5","num_nodes":"31","size_leaf_vector":"1"}},{"base_weights":[-6.8184375E-3,-3.653655E1,3.5674496E1,-5.7912106E1,-1.1254665E1,1.2584322E1,5.244552E1,-7.916634E1,-3.0692438E1,-4.072853E1,4.535068E0,1.2993038E0,5.9273376E1,2.513413E1,6.877199E1,-8.472613E0,-3.9884133E0,-5.297353E0,-1.7267706E0,-8.537185E0,-3.1706064E0,-1.1624982E0,2.7926226E0,-3.3330262E0,1.4071803E0,3.0064447E0,7.783756E0,1.2902209E0,7.4736953E0,5.6191616E0,9.101733E0],"categories":[],"categories_nodes":[],"categories_segments":[],"categories_sizes":[],"default_left":[0,0,0,0,0,0,0,0,0,0,0,0,0,0,0,0,0,0,0,0,0,0,0,0,0,0,0,0,0,0,0],"id":1,"left_children":[1,3,5,7,9,11,13,15,17,19,21,23,25,27,29,-1,-1,-1,-1,-1,-1,-1,-1,-1,-1,-1,-1,-1,-1,-1,-1],"loss_changes":[1.301275E6,2.6593944E5,1.9491419E5,1.5207556E5,1.0594093E5,1.125732E5,1.2857869E5,2.9235125E4,3.4600133E4,2.9263781E4,5.6598855E4,7.707982E4,2.0214734E4,6.6329984E4,4.590975E4,0E0,0E0,0E0,0E0,0E0,0E0,0E0,0E0,0E0,0E0,0E0,0E0,0E0,0E0,0E0,0E0],"parents":[2147483647,0,0,1,1,2,2,3,3,4,4,5,5,6,6,7,7,8,8,9,9,10,10,11,11,12,12,13,13,14,14],"right_children":[2,4,6,8,10,12,14,16,18,20,22,24,26,28,30,-1,-1,-1,-1,-1,-1,-1,-1,-1,-1,-1,-1,-1,-1,-1,-1],"split_conditions":[1.840163E-2,1.7183934E-1,-1.7280173E-1,-6.172532E-1,-2.8803888E-1,1.3705361E0,-3.2602352E-1,9.961182E-1,-3.8736197E-1,-1.5355722E0,-5.7035136E-1,-5.327255E-1,1.14227645E-1,1.5490202E0,8.936977E-1,-8.472613E0,-3.9884133E0,-5.297353E0,-1.7267706E0,-8.537185E0,-3.1706064E0,-1.1624982E0,2.7926226E0,-3.3330262E0,1.4071803E0,3.0064447E0,7.783756E0,1.2902209E0,7.4736953E0,5.6191616E0,9.101733E0],"split_indices":[1,0,3,1,3,1,0,3,3,1,1,0,4,1,1,0,0,0,0,0,0,0,0,0,0,0,0,0,0,0,0],"split_type":[0,0,0,0,0,0,0,0,0,0,0,0,0,0,0,0,0,0,0,0,0,0,0,0,0,0,0,0,0,0,0],"sum_hessian":[9.963476E2,4.9230887E2,5.0403873E2,2.66064E2,2.2624487E2,2.1280342E2,2.912353E2,1.4833191E2,1.17732086E2,7.837219E1,1.4787268E2,1.7220766E2,4.059577E1,1.0991158E2,1.8132373E2,1.2892735E2,1.9404545E1,4.315747E1,7.4574615E1,1.1753507E1,6.661868E1,8.775154E1,6.012114E1,4.596771E1,1.26239944E2,1.679304E1,2.380273E1,8.9180115E1,2.0731464E1,1.1807495E2,6.324877E1],"tree_param":{"num_deleted":"0","num_feature":"5","num_nodes":"31","size_leaf_vector":"1"}},{"base_weights":[-3.3430175E-3,-3.1454384E1,3.3823643E1,-5.1052837E1,-8.894079E0,2.0138906E1,5.8862206E1,-7.133315E1,-2.7050316E1,-3.503221E1,5.578163E0,1.19988785E1,6.525998E1,4.05679E1,8.111826E1,-7.880388E0,-4.2588825E0,-4.7366443E0,-1.4791503E0,-7.570236E0,-2.6955733E0,-1.0475582E0,2.6241481E0,-4.0467355E-2,3.944819E0,5.097512E0,9.710467E0,2.3009784E0,6.8841662E0,7.0340548E0,1.0156471E1],"categories":[],"categories_nodes":[],"categories_segments":[],"categories_sizes":[],"default_left":[0,0,0,0,0,0,0,0,0,0,0,0,0,0,0,0,0,0,0,0,0,0,0,0,0,0,0,0,0,0,0],"id":2,"left_children":[1,3,5,7,9,11,13,15,17,19,21,23,25,27,29,-1,-1,-1,-1,-1,-1,-1,-1,-1,-1,-1,-1,-1,-1,-1,-1],"loss_changes":[1.062136E6,2.2828731E5,1.6362919E5,1.327295E5,9.162856E4,1.1400841E5,6.570894E4,2.87115E4,3.1253E4,2.6298227E4,5.2167895E4,9.058009E4,1.6676266E4,4.5583125E4,9.483406E3,0E0,0E0,0E0,0E0,0E0,0E0,0E0,0E0,0E0,0E0,0E0,0E0,0E0,0E0,0E0,0E0],"parents":[2147483647,0,0,1,1,2,2,3,3,4,4,5,5,6,6,7,7,8,8,9,9,10,10,11,11,12,12,13,13,14,14],"right_children":[2,4,6,8,10,12,14,16,18,20,22,24,26,28,30,-1,-1,-1,-1,-1,-1,-1,-1,-1,-1,-1,-1,-1,-1,-1,-1],"split_conditions":[7.7368304E-2,1.7183934E-1,4.2178008E-1,-6.172532E-1,-2.8803888E-1,1.5860168E0,2.9089707E-1,6.041209E-1,-3.8736197E-1,-1.405567E0,-5.7035136E-1,4.730383E-1,2.0752609E0,8.431053E-1,4.632063E-1,-7.880388E0,-4.2588825E0,-4.7366443E0,-1.4791503E0,-7.570236E0,-2.6955733E0,-1.0475582E0,2.6241481E0,-4.0467355E-2,3.944819E0,5.097512E0,9.710467E0,2.3009784E0,6.8841662E0,7.0340548E0,1.0156471E1],"split_indices":[1,0,0,1,3,1,4,4,3,1,1,3,1,1,3,0,0,0,0,0,0,0,0,0,0,0,0,0,0,0,0],"split_type":[0,0,0,0,0,0,0,0,0,0,0,0,0,0,0,0,0,0,0,0,0,0,0,0,0,0,0,0,0,0,0],"sum_hessian":[9.963476E2,5.1634235E2,4.8000525E2,2.756331E2,2.4070926E2,3.1153903E2,1.6846623E2,1.4833191E2,1.2730117E2,8.5274826E1,1.5543442E2,2.649982E2,4.6540836E1,9.401195E1,7.4454285E1,1.16350555E2,3.198135E1,4.6829052E1,8.0472115E1,1.27412815E1,7.253355E1,8.775154E1,6.7682884E1,1.8320044E2,8.1797745E1,3.3923985E1,1.2616855E1,5.9115074E1,3.4896873E1,5.1662308E1,2.279198E1],"tree_param":{"num_deleted":"0","num_feature":"5","num_nodes":"31","size_leaf_vector":"1"}},{"base_weights":[1.5083119E-2,-3.8199562E1,2.2837305E1,-5.637833E1,-1.695804E1,9.449732E0,4.8656242E1,-7.407544E1,-3.9843468E1,-4.463406E1,-5.983914E0,-9.251289E0,2.7082117E1,2.4030954E1,6.242797E1,-8.3744335E0,-3.8678148E0,-5.893045E0,-2.5508833E0,-6.4070177E0,-2.4054987E0,-3.430856E0,2.0441082E-1,-2.8161788E0,5.9328693E-1,1.1817816E0,4.953539E0,6.8295646E-1,5.3909507E0,4.650067E0,7.6782503E0],"categories":[],"categories_nodes":[],"categories_segments":[],"categories_sizes":[],"default_left":[0,0,0,0,0,0,0,0,0,0,0,0,0,0,0,0,0,0,0,0,0,0,0,0,0,0,0,0,0,0,0],"id":3,"left_children":[1,3,5,7,9,11,13,15,17,19,21,23,25,27,29,-1,-1,-1,-1,-1,-1,-1,-1,-1,-1,-1,-1,-1,-1,-1,-1],"loss_changes":[8.7070225E5,1.4318838E5,2.1559281E5,5.5782188E4,5.245095E4,1.3638973E5,7.0800375E4,2.954425E4,2.7479656E4,1.8109281E4,2.8595262E4,5.7912566E4,7.233394E4,3.9766867E4,2.7546375E4,0E0,0E0,0E0,0E0,0E0,0E0,0E0,0E0,0E0,0E0,0E0,0E0,0E0,0E0,0E0,0E0],"parents":[2147483647,0,0,1,1,2,2,3,3,4,4,5,5,6,6,7,7,8,8,9,9,10,10,11,11,12,12,13,13,14,14],"right_children":[2,4,6,8,10,12,14,16,18,20,22,24,26,28,30,-1,-1,-1,-1,-1,-1,-1,-1,-1,-1,-1,-1,-1,-1,-1,-1],"split_conditions":[-2.885487E-1,1.7183934E-1,7.916627E-1,-9.787637E-1,-6.538984E-1,-7.0859457E-4,-3.7326825E-1,7.918593E-1,-2.4903604E-1,-1.1676592E-1,-1.3122191E0,-3.1905395E-1,2.6929474E-1,1.5860168E0,1.3001892E-2,-8.3744335E0,-3.8678148E0,-5.893045E0,-2.5508833E0,-6.4070177E0,-2.4054987E0,-3.430856E0,2.0441082E-1,-2.8161788E0,5.9328693E-1,1.1817816E0,4.953539E0,6.8295646E-1,5.3909507E0,4.650067E0,7.6782503E0],"split_indices":[1,0,1,1,3,3,0,3,2,2,1,4,4,1,4,0,0,0,0,0,0,0,0,0,0,0,0,0,0,0,0],"split_type":[0,0,0,0,0,0,0,0,0,0,0,0,0,0,0,0,0,0,0,0,0,0,0,0,0,0,0,0,0,0,0],"sum_hessian":[9.963476E2,3.722912E2,6.240564E2,1.9971683E2,1.7257437E2,4.1186377E2,2.1219263E2,9.47871E1,1.04929726E2,4.8129E1,1.24445366E2,2.0010571E2,2.1175806E2,7.709094E1,1.3510168E2,7.337785E1,2.1409246E1,4.367034E1,6.1259388E1,2.3664995E1,2.4464006E1,2.6759237E1,9.768613E1,8.873705E1,1.1136866E2,1.26968185E2,8.478986E1,4.9704266E1,2.738668E1,6.6052025E1,6.904967E1],"tree_param":{"num_deleted":"0","num_feature":"5","num_nodes":"31","size_leaf_vector":"1"}},{"base_weights":[3.1365673E-3,-2.4535555E1,2.955429E1,-4.0953495E1,-6.6410856E0,6.4615912E0,4.1559475E1,-5.7565216E1,-2.1624006E1,-2.0384224E1,1.024727E1,-3.5479398E0,4.6341095E1,2.7172949E1,6.2164566E1,-8.100467E0,-4.855057E0,-5.0164804E0,-1.055608E0,-3.0409563E0,-1.0572731E-1,-5.794961E-1,2.5184498E0,-1.6745011E0,1.9829463E0,1.4362488E0,6.5748935E0,1.29401E0,4.846773E0,5.2633514E0,8.020721E0],"categories":[],"categories_nodes":[],"categories_segments":[],"categories_sizes":[],"default_left":[0,0,0,0,0,0,0,0,0,0,0,0,0,0,0,0,0,0,0,0,0,0,0,0,0,0,0,0,0,0,0],"id":4,"left_children":[1,3,5,7,9,11,13,15,17,19,21,23,25,27,29,-1,-1,-1,-1,-1,-1,-1,-1,-1,-1,-1,-1,-1,-1,-1,-1],"loss_changes":[7.239484E5,1.5997066E5,1.2529419E5,9.002922E4,6.105921E4,6.2476977E4,8.659306E4,2.8242656E4,4.1478184E4,2.8039973E4,2.8491973E4,3.911594E4,1.8538086E4,5.3063125E4,1.6700844E4,0E0,0E0,0E0,0E0,0E0,0E0,0E0,0E0,0E0,0E0,0E0,0E0,0E0,0E0,0E0,0E0],"parents":[2147483647,0,0,1,1,2,2,3,3,4,4,5,5,6,6,7,7,8,8,9,9,10,10,11,11,12,12,13,13,14,14],"right_children":[2,4,6,8,10,12,14,16,18,20,22,24,26,28,30,-1,-1,-1,-1,-1,-1,-1,-1,-1,-1,-1,-1,-1,-1,-1,-1],"split_conditions":[1.409827E-1,-5.915714E-1,-3.2861847E-1,1.7183934E-1,1.845513E-1,1.5490202E0,1.390604E-1,-1.4400508E0,-6.701152E-1,4.359754E-1,1.4866745E-1,2.8119144E-1,-1.4705738E-1,8.87504E-1,9.0393484E-1,-8.100467E0,-4.855057E0,-5.0164804E0,-1.055608E0,-3.0409563E0,-1.0572731E-1,-5.794961E-1,2.5184498E0,-1.6745011E0,1.9829463E0,1.4362488E0,6.5748935E0,1.29401E0,4.846773E0,5.2633514E0,8.020721E0],"split_indices":[1,1,0,0,0,1,3,1,3,3,3,4,2,1,0,0,0,0,0,0,0,0,0,0,0,0,0,0,0,0,0],"split_type":[0,0,0,0,0,0,0,0,0,0,0,0,0,0,0,0,0,0,0,0,0,0,0,0,0,0,0,0,0,0,0],"sum_hessian":[9.963476E2,5.444319E2,4.5191568E2,2.8325787E2,2.61174E2,1.551033E2,2.968124E2,1.5127467E2,1.3198322E2,1.4388145E2,1.1729256E2,1.2471226E2,3.039104E1,1.7614577E2,1.2066663E2,3.9800762E1,1.1147391E2,3.5893196E1,9.609002E1,9.4360855E1,4.95206E1,5.6849537E1,6.044302E1,7.9894005E1,4.4818253E1,1.2135393E1,1.8255648E1,1.0654301E2,6.960276E1,8.1520485E1,3.9146145E1],"tree_param":{"num_deleted":"0","num_feature":"5","num_nodes":"31","size_leaf_vector":"1"}},{"base_weights":[1.0352131E-2,-2.2119099E1,2.666012E1,-5.729361E1,-1.5062288E1,1.5297041E1,4.7178116E1,-9.125701E1,-4.9456524E1,-2.8651608E1,1.8367082E0,8.504515E0,5.2799637E1,-1.0895964E0,5.231325E1,-9.6847E0,-4.041497E0,-6.4500694E0,-3.7387245E0,-6.6808124E0,-2.1921265E0,-1.2045311E0,1.7919241E0,-9.223937E-2,3.3799279E0,2.8482099E0,6.2308145E0,-2.2553833E0,2.8233984E0,2.999824E0,6.269965E0],"categories":[],"categories_nodes":[],"categories_segments":[],"categories_sizes":[],"default_left":[0,0,0,0,0,0,0,0,0,0,0,0,0,0,0,0,0,0,0,0,0,0,0,0,0,0,0,0,0,0,0],"id":5,"left_children":[1,3,5,7,9,11,13,15,17,19,21,23,25,27,29,-1,-1,-1,-1,-1,-1,-1,-1,-1,-1,-1,-1,-1,-1,-1,-1],"loss_changes":[5.887701E5,1.3452406E5,1.048745E5,1.9651219E4,1.0469018E5,7.418058E4,3.994997E4,5.871406E2,1.1378297E4,6.340878E4,4.5767617E4,5.946121E4,8.568805E3,1.0994439E4,3.1840281E4,0E0,0E0,0E0,0E0,0E0,0E0,0E0,0E0,0E0,0E0,0E0,0E0,0E0,0E0,0E0,0E0],"parents":[2147483647,0,0,1,1,2,2,3,3,4,4,5,5,6,6,7,7,8,8,9,9,10,10,11,11,12,12,13,13,14,14],"right_children":[2,4,6,8,10,12,14,16,18,20,22,24,26,28,30,-1,-1,-1,-1,-1,-1,-1,-1,-1,-1,-1,-1,-1,-1,-1,-1],"split_conditions":[1.409827E-1,-1.3260477E0,4.2178008E-1,-9.647054E-1,1.4866745E-1,1.101323E0,-1.1840305E0,4.968736E-1,-3.8817683E-1,-9.661567E-1,-7.972641E-3,6.127739E-1,-6.4976525E-1,5.9042203E-1,-3.182375E-1,-9.6847E0,-4.041497E0,-6.4500694E0,-3.7387245E0,-6.6808124E0,-2.1921265E0,-1.2045311E0,1.7919241E0,-9.223937E-2,3.3799279E0,2.8482099E0,6.2308145E0,-2.2553833E0,2.8233984E0,2.999824E0,6.269965E0],"split_indices":[1,1,0,3,3,3,3,4,0,0,2,4,4,1,2,0,0,0,0,0,0,0,0,0,0,0,0,0,0,0,0],"split_type":[0,0,0,0,0,0,0,0,0,0,0,0,0,0,0,0,0,0,0,0,0,0,0,0,0,0,0,0,0,0,0],"sum_hessian":[9.963476E2,5.444319E2,4.5191568E2,8.978443E1,4.5464746E2,2.9196692E2,1.5994876E2,1.4837826E1,7.494661E1,2.5161552E2,2.0303194E2,2.4823332E2,4.373362E1,1.545618E1,1.4449258E2,1.2552806E1,2.2850199E0,3.1427954E1,4.3518658E1,3.6388844E1,2.1522667E2,1.0910576E2,9.3926186E1,1.815401E2,6.669322E1,1.3416645E1,3.0316975E1,9.057295E0,6.3988843E0,4.7127697E1,9.736488E1],"tree_param":{"num_deleted":"0","num_feature":"5","num_nodes":"31","size_leaf_vector":"1"}},{"base_weights":[-7.058533E-4,-2.8233902E1,1.7428972E1,-4.2548023E1,-1.174595E1,6.9659166E0,3.722782E1,-5.7726707E1,-3.0044903E1,-2.4462204E1,2.6766214E0,-9.912226E0,2.0148445E1,3.2112083E0,4.409551E1,-8.676837E0,-4.8980045E0,-5.422776E0,-2.0956252E0,-3.570423E0,5.0722923E-2,-2.344628E0,9.948125E-1,-3.108296E0,1.8447894E-1,9.220765E-1,4.2321773E0,-2.1379435E0,2.0927472E0,1.8762722E0,5.236354E0],"categories":[],"categories_nodes":[],"categories_segments":[],"categories_sizes":[],"default_left":[0,0,0,0,0,0,0,0,0,0,0,0,0,0,0,0,0,0,0,0,0,0,0,0,0,0,0,0,0,0,0],"id":6,"left_children":[1,3,5,7,9,11,13,15,17,19,21,23,25,27,29,-1,-1,-1,-1,-1,-1,-1,-1,-1,-1,-1,-1,-1,-1,-1,-1],"loss_changes":[4.912823E5,8.943741E4,1.2761314E5,3.6905375E4,3.27972E4,9.0329125E4,4.966353E4,1.883425E4,2.3859344E4,2.6669707E4,1.6289231E4,4.4439836E4,5.479936E4,1.651886E4,3.6153844E4,0E0,0E0,0E0,0E0,0E0,0E0,0E0,0E0,0E0,0E0,0E0,0E0,0E0,0E0,0E0,0E0],"parents":[2147483647,0,0,1,1,2,2,3,3,4,4,5,5,6,6,7,7,8,8,9,9,10,10,11,11,12,12,13,13,14,14],"right_children":[2,4,6,8,10,12,14,16,18,20,22,24,26,28,30,-1,-1,-1,-1,-1,-1,-1,-1,-1,-1,-1,-1,-1,-1,-1,-1],"split_conditions":[-2.6665232E-1,1.7183934E-1,7.916627E-1,-2.998382E-1,1.7225438E-1,-3.1905395E-1,-8.9783007E-1,-1.3230898E0,-1.3260477E0,5.507976E-1,-1.3122191E0,-3.5962966E-1,4.977431E-1,-6.9460034E-1,-5.756378E-1,-8.676837E0,-4.8980045E0,-5.422776E0,-2.0956252E0,-3.570423E0,5.0722923E-2,-2.344628E0,9.948125E-1,-3.108296E0,1.8447894E-1,9.220765E-1,4.2321773E0,-2.1379435E0,2.0927472E0,1.8762722E0,5.236354E0],"split_indices":[1,0,1,2,3,4,3,0,1,4,1,0,0,0,2,0,0,0,0,0,0,0,0,0,0,0,0,0,0,0,0],"split_type":[0,0,0,0,0,0,0,0,0,0,0,0,0,0,0,0,0,0,0,0,0,0,0,0,0,0,0,0,0,0,0],"sum_hessian":[9.963476E2,3.8007272E2,6.162749E2,2.0260197E2,1.7747075E2,4.0408224E2,2.1219263E2,8.987612E1,1.12725845E2,9.394456E1,8.352619E1,1.7731128E2,2.2677097E2,3.5890354E1,1.7630228E2,1.8738445E1,7.113768E1,2.94362E1,8.328965E1,6.448257E1,2.9461992E1,1.7703152E1,6.582304E1,6.272295E1,1.14588326E2,1.528552E2,7.391577E1,1.494271E1,2.0947645E1,4.4186512E1,1.3211577E2],"tree_param":{"num_deleted":"0","num_feature":"5","num_nodes":"31","size_leaf_vector":"1"}},{"base_weights":[-1.7344492E-2,-2.5478643E1,1.5701137E1,-4.5918667E1,-1.5925744E1,-2.2336733E-1,2.7193274E1,-5.495782E1,-2.3350506E1,-3.8652435E1,-8.221846E0,-1.8686148E1,1.2250465E1,1.3251778E1,4.0942368E1,-5.017526E0,-1.1592476E1,-2.997149E0,1.5583877E-1,-5.5840797E0,-2.2706487E0,-3.0369296E0,-1.5949468E-1,-2.9006164E0,1.4820622E-1,-1.0663053E-1,3.0722673E0,5.0033635E-1,4.111829E0,3.192909E0,6.755829E0],"categories":[],"categories_nodes":[],"categories_segments":[],"categories_sizes":[],"default_left":[0,0,0,0,0,0,0,0,0,0,0,0,0,0,0,0,0,0,0,0,0,0,0,0,0,0,0,0,0,0,0],"id":7,"left_children":[1,3,5,7,9,11,13,15,17,19,21,23,25,27,29,-1,-1,-1,-1,-1,-1,-1,-1,-1,-1,-1,-1,-1,-1,-1,-1],"loss_changes":[3.9955144E5,7.367755E4,1.1297145E5,2.3368234E4,4.5419445E4,6.0045797E4,6.818384E4,1.9126484E4,6.0329746E3,1.6784258E4,2.8772055E4,2.1922652E4,3.831151E4,4.105407E4,4.1033438E4,0E0,0E0,0E0,0E0,0E0,0E0,0E0,0E0,0E0,0E0,0E0,0E0,0E0,0E0,0E0,0E0],"parents":[2147483647,0,0,1,1,2,2,3,3,4,4,5,5,6,6,7,7,8,8,9,9,10,10,11,11,12,12,13,13,14,14],"right_children":[2,4,6,8,10,12,14,16,18,20,22,24,26,28,30,-1,-1,-1,-1,-1,-1,-1,-1,-1,-1,-1,-1,-1,-1,-1,-1],"split_conditions":[-2.6665232E-1,-4.5001286E-1,-1.7280173E-1,5.265367E-1,-8.0587006E-1,-7.566561E-2,-5.390485E-2,4.860363E-1,5.7736355E-1,-1.5774699E-1,-1.3260477E0,2.8119144E-1,5.9042203E-1,8.595879E-1,9.82691E-1,-5.017526E0,-1.1592476E1,-2.997149E0,1.5583877E-1,-5.5840797E0,-2.2706487E0,-3.0369296E0,-1.5949468E-1,-2.9006164E0,1.4820622E-1,-1.0663053E-1,3.0722673E0,5.0033635E-1,4.111829E0,3.192909E0,6.755829E0],"split_indices":[1,0,3,4,3,0,4,4,3,2,1,4,1,2,1,0,0,0,0,0,0,0,0,0,0,0,0,0,0,0,0],"split_type":[0,0,0,0,0,0,0,0,0,0,0,0,0,0,0,0,0,0,0,0,0,0,0,0,0,0,0,0,0,0,0],"sum_hessian":[9.963476E2,3.8007272E2,6.162749E2,1.1984262E2,2.602301E2,2.587328E2,3.5754208E2,8.454492E1,3.52977E1,6.48636E1,1.953665E2,1.0412184E2,1.5461093E2,1.78504E2,1.790381E2,8.008559E1,4.4593368E0,2.7724943E1,7.572757E0,3.0011698E1,3.48519E1,4.4168907E1,1.5119759E2,6.858756E1,3.553428E1,9.0390175E1,6.4220764E1,1.3864499E2,3.9859013E1,1.353892E2,4.3648895E1],"tree_param":{"num_deleted":"0","num_feature":"5","num_nodes":"31","size_leaf_vector":"1"}},{"base_weights":[-3.1380232E-2,-1.6662477E1,1.9996986E1,-3.3194344E1,-7.1960015E0,3.7408638E0,2.9989115E1,-5.135806E1,-2.2125498E1,-1.8484884E1,5.9937067E0,-1.1686785E1,1.85263E1,-1.0371689E0,3.557468E1,-5.6789603E0,-9.729514E-1,-2.9460173E0,3.6251912E-1,-4.309606E0,-1.1885408E0,-2.5362062E-1,2.7026608E0,-5.2206335E0,-4.4329563E-1,2.8369695E-2,3.017353E0,-2.13656E0,7.825869E-1,2.4782104E0,5.0481772E0],"categories":[],"categories_nodes":[],"categories_segments":[],"categories_sizes":[],"default_left":[0,0,0,0,0,0,0,0,0,0,0,0,0,0,0,0,0,0,0,0,0,0,0,0,0,0,0,0,0,0,0],"id":8,"left_children":[1,3,5,7,9,11,13,15,17,19,21,23,25,27,29,-1,-1,-1,-1,-1,-1,-1,-1,-1,-1,-1,-1,-1,-1,-1,-1],"loss_changes":[3.325434E5,8.512039E4,7.345639E4,3.8737203E4,5.1942887E4,3.9805766E4,4.862278E4,1.6255922E4,2.3713379E4,2.9992691E4,2.9005908E4,2.491281E4,1.8903941E4,8.048556E3,3.697778E4,0E0,0E0,0E0,0E0,0E0,0E0,0E0,0E0,0E0,0E0,0E0,0E0,0E0,0E0,0E0,0E0],"parents":[2147483647,0,0,1,1,2,2,3,3,4,4,5,5,6,6,7,7,8,8,9,9,10,10,11,11,12,12,13,13,14,14],"right_children":[2,4,6,8,10,12,14,16,18,20,22,24,26,28,30,-1,-1,-1,-1,-1,-1,-1,-1,-1,-1,-1,-1,-1,-1,-1,-1],"split_conditions":[1.409827E-1,-3.4319228E-1,-2.4903604E-1,-3.6096618E-1,2.4219457E-2,7.319699E-2,-9.493989E-1,1.03754E0,7.4791026E-1,-8.2723093E-1,5.3665274E-1,3.2078573E-1,-1.3944627E-1,-1.8697417E0,2.5256884E-1,-5.6789603E0,-9.729514E-1,-2.9460173E0,3.6251912E-1,-4.309606E0,-1.1885408E0,-2.5362062E-1,2.7026608E0,-5.2206335E0,-4.4329563E-1,2.8369695E-2,3.017353E0,-2.13656E0,7.825869E-1,2.4782104E0,5.0481772E0],"split_indices":[1,0,2,2,2,4,3,3,4,3,4,1,0,3,4,0,0,0,0,0,0,0,0,0,0,0,0,0,0,0,0],"split_type":[0,0,0,0,0,0,0,0,0,0,0,0,0,0,0,0,0,0,0,0,0,0,0,0,0,0,0,0,0,0,0],"sum_hessian":[9.963476E2,5.444319E2,4.5191568E2,1.9732503E2,3.4710687E2,1.725575E2,2.793582E2,7.333845E1,1.2398658E2,1.86814E2,1.6029288E2,8.454736E1,8.801014E1,4.274358E1,2.3661461E2,6.4551765E1,8.786676E0,9.638795E1,2.7598627E1,3.8332363E1,1.4848163E2,1.1466841E2,4.562447E1,1.1896576E1,7.265079E1,3.469425E1,5.331589E1,1.25494E1,3.019418E1,1.3879266E2,9.7821945E1],"tree_param":{"num_deleted":"0","num_feature":"5","num_nodes":"31","size_leaf_vector":"1"}},{"base_weights":[-3.699553E-2,-2.4927538E1,1.1467839E1,-5.6465523E1,-1.993889E1,2.817008E0,2.8104095E1,-9.320178E0,-4.548211E1,-3.1349358E1,-7.3739576E0,-8.363093E0,1.7609924E1,1.8464117E1,4.7828857E1,-8.349582E0,-3.800888E0,-3.607758E0,1.03490375E-1,-1.0986375E0,3.6047018E0,-2.1268594E0,2.697114E-1,1.4138753E0,6.259345E0,4.1881832E-1,2.9953187E0,3.3728108E0,5.5273876E0],"categories":[],"categories_nodes":[],"categories_segments":[],"categories_sizes":[],"default_left":[0,0,0,0,0,0,0,0,0,0,0,0,0,0,0,0,0,0,0,0,0,0,0,0,0,0,0,0,0],"id":9,"left_children":[1,3,5,7,9,11,13,-1,15,17,19,21,23,25,27,-1,-1,-1,-1,-1,-1,-1,-1,-1,-1,-1,-1,-1,-1],"loss_changes":[2.8588788E5,4.8525516E4,9.818247E4,1.2931547E4,3.905678E4,7.462049E4,4.3509453E4,0E0,6.688008E3,2.1980078E4,2.1057592E4,3.6761633E4,2.9431172E4,2.5863262E4,6.115703E3,0E0,0E0,0E0,0E0,0E0,0E0,0E0,0E0,0E0,0E0,0E0,0E0,0E0,0E0],"parents":[2147483647,0,0,1,1,2,2,3,3,4,4,5,5,6,6,8,8,9,9,10,10,11,11,12,12,13,13,14,14],"right_children":[2,4,6,8,10,12,14,-1,16,18,20,22,24,26,28,-1,-1,-1,-1,-1,-1,-1,-1,-1,-1,-1,-1,-1,-1],"split_conditions":[-5.0140214E-1,-1.0158788E0,4.2178008E-1,-1.9875689E0,1.7183934E-1,5.2980417E-1,4.6926758E-1,-9.320178E0,-2.128734E0,1.0519476E0,1.4363354E0,-1.1676592E-1,2.0752609E0,3.8237996E-2,2.3855495E-1,-8.349582E0,-3.800888E0,-3.607758E0,1.03490375E-1,-1.0986375E0,3.6047018E0,-2.1268594E0,2.697114E-1,1.4138753E0,6.259345E0,4.1881832E-1,2.9953187E0,3.3728108E0,5.5273876E0],"split_indices":[1,3,0,3,0,1,4,0,1,2,3,2,1,2,1,0,0,0,0,0,0,0,0,0,0,0,0,0,0],"split_type":[0,0,0,0,0,0,0,0,0,0,0,0,0,0,0,0,0,0,0,0,0,0,0,0,0,0,0,0,0],"sum_hessian":[9.963476E2,3.1458368E2,6.817639E2,4.1555153E1,2.7302853E2,4.4929858E2,2.3246533E2,7.841611E0,3.371354E1,1.4230424E2,1.3072429E2,2.561453E2,1.9315329E2,1.5745116E2,7.5014175E1,3.8676248E0,2.9845915E1,1.24074814E2,1.8229427E1,1.2137357E2,9.350718E0,1.1778545E2,1.3835983E2,1.8053644E2,1.2616855E1,7.081872E1,8.663244E1,2.7831694E1,4.7182487E1],"tree_param":{"num_deleted":"0","num_feature":"5","num_nodes":"29","size_leaf_vector":"1"}},{"base_weights":[-3.7646107E-2,-2.2505981E1,1.03476095E1,-3.007669E1,-3.31736E0,-2.6016784E0,1.988683E1,-4.073803E1,-1.39094305E1,-2.8411884E1,2.7221248E0,-1.6896463E1,7.8378487E0,1.45347595E1,4.453283E1,-5.584174E0,-3.0845716E0,-1.9790496E0,1.3545417E0,-3.321041E0,8.0855876E-1,-2.6807077E0,6.804171E-1,-4.333037E0,-9.9893504E-1,-2.2867052E-1,2.330092E0,4.063383E-1,2.5892746E0,3.6601167E0,6.622223E0],"categories":[],"categories_nodes":[],"categories_segments":[],"categories_sizes":[],"default_left":[0,0,0,0,0,0,0,0,0,0,0,0,0,0,0,0,0,0,0,0,0,0,0,0,0,0,0,0,0,0,0],"id":10,"left_children":[1,3,5,7,9,11,13,15,17,19,21,23,25,27,29,-1,-1,-1,-1,-1,-1,-1,-1,-1,-1,-1,-1,-1,-1,-1,-1],"loss_changes":[2.3295338E5,4.5745562E4,8.439089E4,3.8417953E4,1.3779461E4,4.3484047E4,5.1226984E4,1.8564156E4,1.5025463E4,3.355294E3,9.0762E3,2.2011492E4,2.6444523E4,3.849882E4,9.563281E3,0E0,0E0,0E0,0E0,0E0,0E0,0E0,0E0,0E0,0E0,0E0,0E0,0E0,0E0,0E0,0E0],"parents":[2147483647,0,0,1,1,2,2,3,3,4,4,5,5,6,6,7,7,8,8,9,9,10,10,11,11,12,12,13,13,14,14],"right_children":[2,4,6,8,10,12,14,16,18,20,22,24,26,28,30,-1,-1,-1,-1,-1,-1,-1,-1,-1,-1,-1,-1,-1,-1,-1,-1],"split_conditions":[-5.0140214E-1,5.507976E-1,-1.590452E-1,2.1677557E-1,-1.1677796E0,-6.17642E-2,1.0800481E0,-3.4319228E-1,1.0960699E0,9.965705E-1,-1.7608088E0,-9.983854E-1,5.9042203E-1,-5.390485E-2,1.1894705E0,-5.584174E0,-3.0845716E0,-1.9790496E0,1.3545417E0,-3.321041E0,8.0855876E-1,-2.6807077E0,6.804171E-1,-4.333037E0,-9.9893504E-1,-2.2867052E-1,2.330092E0,4.063383E-1,2.5892746E0,3.6601167E0,6.622223E0],"split_indices":[1,4,3,3,0,0,2,0,0,2,1,4,1,4,4,0,0,0,0,0,0,0,0,0,0,0,0,0,0,0,0],"split_type":[0,0,0,0,0,0,0,0,0,0,0,0,0,0,0,0,0,0,0,0,0,0,0,0,0,0,0,0,0,0,0],"sum_hessian":[9.963476E2,3.1458368E2,6.817639E2,2.2517525E2,8.9408424E1,2.8950046E2,3.9226346E2,1.3477768E2,9.039757E1,1.6625177E1,7.278325E1,1.2192742E2,1.6757304E2,3.2358435E2,6.86791E1,5.150073E1,8.3276955E1,7.4679695E1,1.5717872E1,1.4772957E1,1.8522207E0,8.163326E0,6.461993E1,2.4166729E1,9.77607E1,1.0178241E2,6.579063E1,1.690699E2,1.5451445E2,5.22567E1,1.6422403E1],"tree_param":{"num_deleted":"0","num_feature":"5","num_nodes":"31","size_leaf_vector":"1"}},{"base_weights":[-3.7650175E-2,-1.0029573E1,2.0274862E1,-1.5128866E1,1.4463137E1,1.343501E1,3.70339E1,-2.169194E1,3.0166652E0,-2.9898086E0,2.3587578E1,7.0428734E0,3.8171577E1,2.0511827E1,4.6402473E1,-4.1457143E0,-1.4589499E0,-8.4689933E-1,1.4746907E0,-2.206553E0,4.6949965E-1,1.06259E0,3.5429325E0,-1.1968035E0,1.286692E0,2.574951E0,5.9799833E0,5.7117003E-1,3.5061052E0,4.008103E0,6.3112254E0],"categories":[],"categories_nodes":[],"categories_segments":[],"categories_sizes":[],"default_left":[0,0,0,0,0,0,0,0,0,0,0,0,0,0,0,0,0,0,0,0,0,0,0,0,0,0,0,0,0,0,0],"id":11,"left_children":[1,3,5,7,9,11,13,15,17,19,21,23,25,27,29,-1,-1,-1,-1,-1,-1,-1,-1,-1,-1,-1,-1,-1,-1,-1,-1],"loss_changes":[2.0262608E5,8.37955E4,3.723553E4,6.6083266E4,1.8515166E4,3.6942477E4,1.3727992E4,5.656203E4,2.008154E4,6.0628203E3,1.1315039E4,2.0995738E4,1.1382836E4,7.575216E3,3.7795156E3,0E0,0E0,0E0,0E0,0E0,0E0,0E0,0E0,0E0,0E0,0E0,0E0,0E0,0E0,0E0,0E0],"parents":[2147483647,0,0,1,1,2,2,3,3,4,4,5,5,6,6,7,7,8,8,9,9,10,10,11,11,12,12,13,13,14,14],"right_children":[2,4,6,8,10,12,14,16,18,20,22,24,26,28,30,-1,-1,-1,-1,-1,-1,-1,-1,-1,-1,-1,-1,-1,-1,-1,-1],"split_conditions":[4.4863576E-1,9.5042384E-1,5.92527E-1,6.041209E-1,-5.955349E-1,1.5860168E0,-3.2602352E-1,-9.787637E-1,-2.7514905E-2,-8.6277574E-1,2.2465892E-2,-8.0227727E-1,6.1971146E-1,1.1663705E0,9.0393484E-1,-4.1457143E0,-1.4589499E0,-8.4689933E-1,1.4746907E0,-2.206553E0,4.6949965E-1,1.06259E0,3.5429325E0,-1.1968035E0,1.286692E0,2.574951E0,5.9799833E0,5.7117003E-1,3.5061052E0,4.008103E0,6.3112254E0],"split_indices":[1,0,3,4,4,1,0,1,2,1,3,0,4,3,0,0,0,0,0,0,0,0,0,0,0,0,0,0,0,0,0],"split_type":[0,0,0,0,0,0,0,0,0,0,0,0,0,0,0,0,0,0,0,0,0,0,0,0,0,0,0,0,0,0,0],"sum_hessian":[9.963476E2,6.6817303E2,3.281746E2,5.533499E2,1.1482311E2,2.3433662E2,9.383796E1,4.062261E2,1.4712378E2,3.965143E1,7.517168E1,1.8723758E2,4.709904E1,3.5109512E1,5.8728447E1,1.0610692E2,3.001192E2,7.447735E1,7.264643E1,1.0849293E1,2.8802137E1,3.6794586E1,3.8377094E1,4.3661705E1,1.4357588E2,3.1308006E1,1.5791033E1,1.8095018E1,1.7014494E1,4.5074898E1,1.3653546E1],"tree_param":{"num_deleted":"0","num_feature":"5","num_nodes":"31","size_leaf_vector":"1"}},{"base_weights":[-1.2896337E-2,-9.029767E0,1.8317373E1,-2.326797E1,-1.5044596E0,1.0253853E1,3.0925516E1,-7.9522853E0,-2.1097778E1,-3.4210114E1,2.2055743E0,-8.202126E0,1.7227955E1,1.6093916E1,3.9632645E1,-3.2255046E0,-1.2202892E0,-5.361671E0,-1.7154531E0,-1.4330183E0,8.438245E-1,-1.7251123E0,6.424842E-1,1.0055956E0,4.0060134E0,8.512127E-1,3.067395E0,2.7407447E-1,4.2792597E0],"categories":[],"categories_nodes":[],"categories_segments":[],"categories_sizes":[],"default_left":[0,0,0,0,0,0,0,0,0,0,0,0,0,0,0,0,0,0,0,0,0,0,0,0,0,0,0,0,0],"id":12,"left_children":[1,3,5,7,9,11,13,-1,15,17,19,21,23,25,27,-1,-1,-1,-1,-1,-1,-1,-1,-1,-1,-1,-1,-1,-1],"loss_changes":[1.6500866E5,7.166478E4,3.3148766E4,2.6562078E4,5.332608E4,2.6175938E4,1.5880156E4,0E0,2.1845078E4,1.3899168E4,4.083929E4,7.542624E3,2.3688227E4,5.155206E3,9.198328E3,0E0,0E0,0E0,0E0,0E0,0E0,0E0,0E0,0E0,0E0,0E0,0E0,0E0,0E0],"parents":[2147483647,0,0,1,1,2,2,3,3,4,4,5,5,6,6,8,8,9,9,10,10,11,11,12,12,13,13,14,14],"right_children":[2,4,6,8,10,12,14,-1,16,18,20,22,24,26,28,-1,-1,-1,-1,-1,-1,-1,-1,-1,-1,-1,-1,-1,-1],"split_conditions":[4.4863576E-1,-4.0439743E-1,3.0524313E-1,-2.220421E0,-1.2829922E0,-6.9460034E-1,-3.0780846E-1,-7.9522853E0,-6.17642E-2,-4.0364847E-1,-6.763923E-1,1.3705361E0,7.35622E-1,3.8193545E-1,-1.4720371E0,-3.2255046E0,-1.2202892E0,-5.361671E0,-1.7154531E0,-1.4330183E0,8.438245E-1,-1.7251123E0,6.424842E-1,1.0055956E0,4.0060134E0,8.512127E-1,3.067395E0,2.7407447E-1,4.2792597E0],"split_indices":[1,3,4,3,0,0,2,0,0,2,4,1,3,3,3,0,0,0,0,0,0,0,0,0,0,0,0,0,0],"split_type":[0,0,0,0,0,0,0,0,0,0,0,0,0,0,0,0,0,0,0,0,0,0,0,0,0,0,0,0,0],"sum_hessian":[9.963476E2,6.6817303E2,3.281746E2,2.3031508E2,4.3785794E2,2.0126749E2,1.269071E2,7.2310576E0,2.2308401E2,4.3771454E1,3.940865E2,5.514854E1,1.4611894E2,4.799739E1,7.8909706E1,9.779232E1,1.25291695E2,1.9471865E1,2.429959E1,1.0752229E2,2.8656418E2,3.3959827E1,2.1188713E1,1.12287766E2,3.383118E1,3.261896E1,1.53784275E1,6.3730245E0,7.253668E1],"tree_param":{"num_deleted":"0","num_feature":"5","num_nodes":"29","size_leaf_vector":"1"}},{"base_weights":[-1.9290587E-2,-1.8284344E1,7.852873E0,-4.389418E1,-1.42537985E1,1.1420101E0,2.084626E1,-6.3249836E1,-3.0555681E1,-3.9528854E1,-1.0793574E1,-3.422878E0,2.2546642E1,1.3632273E1,3.555283E1,-6.7920327E0,-2.513541E0,-3.7193344E0,-1.9832157E0,-4.6948895E0,-1.1212151E0,-2.742726E0,-6.0137165E-1,-8.7491035E-1,1.3560952E0,1.667662E0,3.8928018E0,-9.026691E-1,1.8529869E0,-8.348217E-1,3.7349174E0],"categories":[],"categories_nodes":[],"categories_segments":[],"categories_sizes":[],"default_left":[0,0,0,0,0,0,0,0,0,0,0,0,0,0,0,0,0,0,0,0,0,0,0,0,0,0,0,0,0,0,0],"id":13,"left_children":[1,3,5,7,9,11,13,15,17,19,21,23,25,27,29,-1,-1,-1,-1,-1,-1,-1,-1,-1,-1,-1,-1,-1,-1,-1,-1],"loss_changes":[1.4354769E5,3.041179E4,6.0809945E4,8.499469E3,2.2424242E4,4.513205E4,2.4717805E4,1.0610039E3,1.1028164E3,6.005336E3,1.8216475E4,3.457695E4,7.1574844E3,1.8033639E4,6.4279062E3,0E0,0E0,0E0,0E0,0E0,0E0,0E0,0E0,0E0,0E0,0E0,0E0,0E0,0E0,0E0,0E0],"parents":[2147483647,0,0,1,1,2,2,3,3,4,4,5,5,6,6,7,7,8,8,9,9,10,10,11,11,12,12,13,13,14,14],"right_children":[2,4,6,8,10,12,14,16,18,20,22,24,26,28,30,-1,-1,-1,-1,-1,-1,-1,-1,-1,-1,-1,-1,-1,-1,-1,-1],"split_conditions":[-5.64774E-1,-1.0158788E0,4.2178008E-1,-1.1936368E0,-1.4084613E0,1.0143701E0,4.9365485E-1,5.265367E-1,-1.4331518E0,1.2495049E0,-1.4511757E0,6.870658E-1,6.4600617E-1,-7.847619E-1,-1.9689231E0,-6.7920327E0,-2.513541E0,-3.7193344E0,-1.9832157E0,-4.6948895E0,-1.1212151E0,-2.742726E0,-6.0137165E-1,-8.7491035E-1,1.3560952E0,1.667662E0,3.8928018E0,-9.026691E-1,1.8529869E0,-8.348217E-1,3.7349174E0],"split_indices":[1,3,0,1,0,3,4,4,3,4,1,4,2,2,2,0,0,0,0,0,0,0,0,0,0,0,0,0,0,0,0],"split_type":[0,0,0,0,0,0,0,0,0,0,0,0,0,0,0,0,0,0,0,0,0,0,0,0,0,0,0,0,0,0,0],"sum_hessian":[9.963476E2,2.9968756E2,6.9666003E2,3.940707E1,2.602805E2,4.601093E2,2.365507E2,1.4550606E1,2.4856464E1,3.0087065E1,2.3019344E2,3.7992432E2,8.018499E1,1.599954E2,7.65553E1,1.2265586E1,2.2850199E0,1.3828494E1,1.102797E1,2.3318697E1,6.7683687E0,5.0325363E1,1.7986807E2,2.8959158E2,9.0332726E1,6.051748E1,1.9667513E1,2.8285957E1,1.3170944E2,2.8659775E0,7.368932E1],"tree_param":{"num_deleted":"0","num_feature":"5","num_nodes":"31","size_leaf_vector":"1"}},{"base_weights":[-3.1675626E-2,-7.7259254E0,1.5609921E1,-1.6884573E1,2.1594565E0,1.0952304E1,3.3051346E1,-2.2129864E1,1.6324174E0,-2.3284765E1,5.654479E0,4.006384E0,2.5490234E1,4.3676143E0,3.8303307E1,-3.8966413E0,-1.5476729E0,-8.7667274E-1,1.3410665E0,-4.044942E0,-1.7688391E0,-1.1546619E-1,2.0554597E0,-5.362301E-1,1.2126129E0,1.634396E0,3.689425E0,-1.9117153E-1,2.3572948E0,2.696221E0,4.7235203E0],"categories":[],"categories_nodes":[],"categories_segments":[],"categories_sizes":[],"default_left":[0,0,0,0,0,0,0,0,0,0,0,0,0,0,0,0,0,0,0,0,0,0,0,0,0,0,0,0,0,0,0],"id":14,"left_children":[1,3,5,7,9,11,13,15,17,19,21,23,25,27,29,-1,-1,-1,-1,-1,-1,-1,-1,-1,-1,-1,-1,-1,-1,-1,-1],"loss_changes":[1.20151734E5,6.0621184E4,2.6378672E4,3.3784656E4,2.8829217E4,2.6283066E4,1.02094375E4,2.9734906E4,9.626156E3,3.0470625E3,2.8891928E4,1.3605806E4,8.189E3,1.466774E3,4.6110547E3,0E0,0E0,0E0,0E0,0E0,0E0,0E0,0E0,0E0,0E0,0E0,0E0,0E0,0E0,0E0,0E0],"parents":[2147483647,0,0,1,1,2,2,3,3,4,4,5,5,6,6,7,7,8,8,9,9,10,10,11,11,12,12,13,13,14,14],"right_children":[2,4,6,8,10,12,14,16,18,20,22,24,26,28,30,-1,-1,-1,-1,-1,-1,-1,-1,-1,-1,-1,-1,-1,-1,-1,-1],"split_conditions":[4.4863576E-1,2.4219457E-2,1.5860168E0,7.918593E-1,-1.3260477E0,4.730383E-1,-1.3565818E0,-5.536493E-1,-7.613553E-1,-1.9982007E0,5.17659E-1,2.0793708E-2,2.0109905E-1,2.0752609E0,-2.3701197E-1,-3.8966413E0,-1.5476729E0,-8.7667274E-1,1.3410665E0,-4.044942E0,-1.7688391E0,-1.1546619E-1,2.0554597E0,-5.362301E-1,1.2126129E0,1.634396E0,3.689425E0,-1.9117153E-1,2.3572948E0,2.696221E0,4.7235203E0],"split_indices":[1,2,1,3,1,3,0,0,2,1,3,0,0,1,3,0,0,0,0,0,0,0,0,0,0,0,0,0,0,0,0],"split_type":[0,0,0,0,0,0,0,0,0,0,0,0,0,0,0,0,0,0,0,0,0,0,0,0,0,0,0,0,0,0,0],"sum_hessian":[9.963476E2,6.6817303E2,3.281746E2,3.46468E2,3.2170502E2,2.60293E2,6.788158E1,2.6983652E2,7.6631454E1,3.816881E1,2.8353622E2,1.7700114E2,8.329186E1,1.0788965E1,5.7092613E1,7.505192E1,1.947846E2,4.0834187E1,3.5797268E1,7.8535104E0,3.03153E1,1.9523782E2,8.8298386E1,8.233795E1,9.466319E1,4.757157E1,3.572029E1,8.809193E0,1.9797729E0,2.6924463E1,3.0168152E1],"tree_param":{"num_deleted":"0","num_feature":"5","num_nodes":"31","size_leaf_vector":"1"}},{"base_weights":[-2.1757433E-2,-1.5567082E1,6.5452323E0,-3.8378258E1,-1.1984505E1,-4.048957E0,1.3256889E1,-7.48293E0,-3.2070698E1,-3.1575794E1,-8.168236E0,-2.6605278E1,1.965397E-1,-6.384678E0,1.7260748E1,-4.6140304E0,-2.3135839E0,-3.877775E0,-1.6043824E0,-1.665651E0,1.1810573E-1,-3.2985058E0,4.881544E-1,-1.1019171E0,7.146551E-1,-1.4453708E0,3.8723597E-1,1.3603555E0,3.8007627E0],"categories":[],"categories_nodes":[],"categories_segments":[],"categories_sizes":[],"default_left":[0,0,0,0,0,0,0,0,0,0,0,0,0,0,0,0,0,0,0,0,0,0,0,0,0,0,0,0,0],"id":15,"left_children":[1,3,5,7,9,11,13,-1,15,17,19,21,23,25,27,-1,-1,-1,-1,-1,-1,-1,-1,-1,-1,-1,-1,-1,-1],"loss_changes":[1.0191711E5,2.3770188E4,4.995883E4,6.7486797E3,1.9009273E4,2.6145023E4,3.3917797E4,0E0,3.4166836E3,4.038582E3,1.7243484E4,8.84817E3,1.8063084E4,6.1410693E3,2.6598445E4,0E0,0E0,0E0,0E0,0E0,0E0,0E0,0E0,0E0,0E0,0E0,0E0,0E0,0E0],"parents":[2147483647,0,0,1,1,2,2,3,3,4,4,5,5,6,6,8,8,9,9,10,10,11,11,12,12,13,13,14,14],"right_children":[2,4,6,8,10,12,14,-1,16,18,20,22,24,26,28,-1,-1,-1,-1,-1,-1,-1,-1,-1,-1,-1,-1,-1,-1],"split_conditions":[-5.7035136E-1,-1.0158788E0,-2.4903604E-1,-1.6694052E0,-9.0938747E-1,-9.983854E-1,-9.647054E-1,-7.48293E0,-1.3481854E0,4.2178008E-1,1.2499322E-2,1.0143701E0,-1.4214654E-1,2.8119144E-1,1.1894705E0,-4.6140304E0,-2.3135839E0,-3.877775E0,-1.6043824E0,-1.665651E0,1.1810573E-1,-3.2985058E0,4.881544E-1,-1.1019171E0,7.146551E-1,-1.4453708E0,3.8723597E-1,1.3603555E0,3.8007627E0],"split_indices":[1,3,2,2,4,4,3,0,1,0,2,3,0,4,4,0,0,0,0,0,0,0,0,0,0,0,0,0,0],"split_type":[0,0,0,0,0,0,0,0,0,0,0,0,0,0,0,0,0,0,0,0,0,0,0,0,0,0,0,0,0],"sum_hessian":[9.963476E2,2.9549164E2,7.0085596E2,3.8790466E1,2.5670117E2,2.7196402E2,4.2889194E2,4.1196747E0,3.467079E1,4.0665546E1,2.1603563E2,4.224573E1,2.2971828E2,7.25232E1,3.5636874E2,1.184871E1,2.2822083E1,2.6760464E1,1.3905085E1,1.1282218E2,1.03213455E2,3.5088593E1,7.1571417E0,8.766375E1,1.4205452E2,4.036199E1,3.2161213E1,3.0437088E2,5.199784E1],"tree_param":{"num_deleted":"0","num_feature":"5","num_nodes":"29","size_leaf_vector":"1"}},{"base_weights":[-4.0171538E-2,-6.141258E0,1.4520225E1,-1.0342288E1,1.2679214E1,1.0766593E1,3.2546448E1,-3.2899418E1,-7.3814435E0,-7.407345E-1,1.9247572E1,8.441757E0,4.3468483E1,1.2660915E0,3.5675858E1,-4.4340386E0,-2.089596E0,-2.9983482E0,-4.461793E-1,-1.5053886E0,5.0877124E-1,3.855323E-1,2.5054624E0,2.919477E-1,2.1112227E0,8.4475225E-1,4.630864E0,-6.8110055E-1,7.09355E-1,2.6593378E0,4.5288014E0],"categories":[],"categories_nodes":[],"categories_segments":[],"categories_sizes":[],"default_left":[0,0,0,0,0,0,0,0,0,0,0,0,0,0,0,0,0,0,0,0,0,0,0,0,0,0,0,0,0,0,0],"id":16,"left_children":[1,3,5,7,9,11,13,15,17,19,21,23,25,27,29,-1,-1,-1,-1,-1,-1,-1,-1,-1,-1,-1,-1,-1,-1,-1,-1],"loss_changes":[8.868778E4,5.5757227E4,1.9597E4,3.820786E4,1.1370615E4,1.8296713E4,4.8799297E3,8.207422E3,3.353441E4,3.6887573E3,7.6382246E3,1.6061943E4,1.2055039E3,3.1249048E2,2.7854023E3,0E0,0E0,0E0,0E0,0E0,0E0,0E0,0E0,0E0,0E0,0E0,0E0,0E0,0E0,0E0,0E0],"parents":[2147483647,0,0,1,1,2,2,3,3,4,4,5,5,6,6,7,7,8,8,9,9,10,10,11,11,12,12,13,13,14,14],"right_children":[2,4,6,8,10,12,14,16,18,20,22,24,26,28,30,-1,-1,-1,-1,-1,-1,-1,-1,-1,-1,-1,-1,-1,-1,-1,-1],"split_conditions":[5.1378596E-1,9.1915417E-1,8.929539E-1,-1.1509936E0,-5.955349E-1,2.0752609E0,-1.5144703E0,1.6936083E-1,-1.4400508E0,-8.6277574E-1,-5.622875E-1,5.1326746E-1,-1.51937E0,5.414627E-1,1.1608268E0,-4.4340386E0,-2.089596E0,-2.9983482E0,-4.461793E-1,-1.5053886E0,5.0877124E-1,3.855323E-1,2.5054624E0,2.919477E-1,2.1112227E0,8.4475225E-1,4.630864E0,-6.8110055E-1,7.09355E-1,2.6593378E0,4.5288014E0],"split_indices":[1,0,0,4,4,1,3,3,1,1,2,3,3,1,1,0,0,0,0,0,0,0,0,0,0,0,0,0,0,0,0],"split_type":[0,0,0,0,0,0,0,0,0,0,0,0,0,0,0,0,0,0,0,0,0,0,0,0,0,0,0,0,0,0,0],"sum_hessian":[9.963476E2,7.0254565E2,2.9380194E2,5.7471136E2,1.278343E2,2.4448886E2,4.9313072E1,6.551039E1,5.09201E2,4.2299187E1,8.553511E1,2.2943599E2,1.5052871E1,4.6125383E0,4.4700535E1,3.2161774E1,3.3348614E1,5.7191547E1,4.5200943E2,1.1782239E1,3.0516949E1,2.388612E1,6.1648987E1,1.6064925E2,6.8786736E1,1.427327E0,1.3625544E1,1.8623989E0,2.7501392E0,2.4920197E1,1.9780338E1],"tree_param":{"num_deleted":"0","num_feature":"5","num_nodes":"31","size_leaf_vector":"1"}},{"base_weights":[-2.911432E-2,-6.805839E0,1.0815034E1,-1.072495E1,9.784672E0,-1.01777E0,1.5965282E1,-1.8825296E1,-2.6196811E0,-1.8996317E0,1.6953081E1,-4.351989E0,1.3192792E0,-1.8912226E1,1.7755707E1,-3.1075609E0,-1.1828421E0,-2.450696E0,1.2710695E-1,-1.4326329E0,5.0292367E-1,-1.455221E0,1.950158E0,-3.590087E-1,1.3916138E0,-2.9756126E0,-1.0971752E0,6.352947E-1,2.3030853E0],"categories":[],"categories_nodes":[],"categories_segments":[],"categories_sizes":[],"default_left":[0,0,0,0,0,0,0,0,0,0,0,0,0,0,0,0,0,0,0,0,0,0,0,0,0,0,0,0,0],"id":17,"left_children":[1,3,5,7,9,11,13,15,17,19,21,-1,23,25,27,-1,-1,-1,-1,-1,-1,-1,-1,-1,-1,-1,-1,-1,-1],"loss_changes":[7.336649E4,4.0053016E4,2.3414965E4,3.2612355E4,9.909412E3,1.1716357E4,1.7044656E4,2.094511E4,2.1305428E4,4.0102627E3,6.160092E3,0E0,6.9905063E3,8.402041E2,1.5193781E4,0E0,0E0,0E0,0E0,0E0,0E0,0E0,0E0,0E0,0E0,0E0,0E0,0E0,0E0],"parents":[2147483647,0,0,1,1,2,2,3,3,4,4,5,5,6,6,7,7,8,8,9,9,10,10,12,12,13,13,14,14],"right_children":[2,4,6,8,10,12,14,16,18,20,22,-1,24,26,28,-1,-1,-1,-1,-1,-1,-1,-1,-1,-1,-1,-1,-1,-1],"split_conditions":[2.867741E-1,8.5246867E-1,-5.112157E-1,-2.227898E-2,-3.3744574E-3,-1.607661E0,-1.8697417E0,-4.0364847E-1,-9.245641E-1,-3.0780846E-1,-1.2693305E0,-4.351989E0,1.2024512E0,4.148655E-1,-6.067003E-1,-3.1075609E0,-1.1828421E0,-2.450696E0,1.2710695E-1,-1.4326329E0,5.0292367E-1,-1.455221E0,1.950158E0,-3.590087E-1,1.3916138E0,-2.9756126E0,-1.0971752E0,6.352947E-1,2.3030853E0],"split_indices":[1,4,2,3,0,4,3,2,0,2,2,0,1,2,4,0,0,0,0,0,0,0,0,0,0,0,0,0,0],"split_type":[0,0,0,0,0,0,0,0,0,0,0,0,0,0,0,0,0,0,0,0,0,0,0,0,0,0,0,0,0],"sum_hessian":[9.963476E2,6.1339636E2,3.8295123E2,4.964706E2,1.1692574E2,1.16376396E2,2.6657483E2,2.476492E2,2.4882141E2,4.4738407E1,7.218734E1,5.147164E0,1.1122923E2,1.25494E1,2.5402544E2,8.8776184E1,1.5887302E2,3.6755558E1,2.1206586E2,1.5633182E1,2.9105227E1,5.0498238E0,6.713751E1,8.05511E1,3.067813E1,4.1434717E0,8.405929E0,8.10443E1,1.7298114E2],"tree_param":{"num_deleted":"0","num_feature":"5","num_nodes":"29","size_leaf_vector":"1"}},{"base_weights":[-3.773612E-2,-1.0778352E1,5.790096E0,-1.5813539E1,1.2294465E0,1.9745871E0,2.0955296E1,-2.123156E1,-3.153716E0,-2.8454664E1,4.388511E0,-9.307879E0,7.590982E0,-9.144943E0,2.309741E1,-3.3426673E0,-1.477793E0,-1.1441096E0,5.6210977E-1,-4.553581E0,-1.5877726E0,-9.2246926E-1,1.1057053E0,-1.334546E0,6.9185966E-1,4.806417E-1,2.8694232E0,-1.3327554E0,-5.538755E-1,1.966485E0,3.9988847E0],"categories":[],"categories_nodes":[],"categories_segments":[],"categories_sizes":[],"default_left":[0,0,0,0,0,0,0,0,0,0,0,0,0,0,0,0,0,0,0,0,0,0,0,0,0,0,0,0,0,0,0],"id":18,"left_children":[1,3,5,7,9,11,13,15,17,19,21,23,25,27,29,-1,-1,-1,-1,-1,-1,-1,-1,-1,-1,-1,-1,-1,-1,-1,-1],"loss_changes":[6.2490875E4,2.1251066E4,3.7406844E4,1.690832E4,9.940623E3,3.290696E4,8.593E3,1.3132453E4,5.5435537E3,1.4686494E3,8.769024E3,1.1405116E4,2.0224848E4,6.725433E1,6.2664766E3,0E0,0E0,0E0,0E0,0E0,0E0,0E0,0E0,0E0,0E0,0E0,0E0,0E0,0E0,0E0,0E0],"parents":[2147483647,0,0,1,1,2,2,3,3,4,4,5,5,6,6,7,7,8,8,9,9,10,10,11,11,12,12,13,13,14,14],"right_children":[2,4,6,8,10,12,14,16,18,20,22,24,26,28,30,-1,-1,-1,-1,-1,-1,-1,-1,-1,-1,-1,-1,-1,-1,-1,-1],"split_conditions":[-3.240682E-1,5.92527E-1,9.137716E-1,5.265367E-1,-1.9782252E0,-3.570292E-1,-1.6115674E0,-5.112157E-1,1.2499322E-2,-2.2193003E0,-5.359634E-1,1.2960631E0,1.4473057E0,-7.801991E-1,1.0490092E0,-3.3426673E0,-1.477793E0,-1.1441096E0,5.6210977E-1,-4.553581E0,-1.5877726E0,-9.2246926E-1,1.1057053E0,-1.334546E0,6.9185966E-1,4.806417E-1,2.8694232E0,-1.3327554E0,-5.538755E-1,1.966485E0,3.9988847E0],"split_indices":[1,3,2,4,1,0,0,2,2,1,4,1,1,3,4,0,0,0,0,0,0,0,0,0,0,0,0,0,0,0,0],"split_type":[0,0,0,0,0,0,0,0,0,0,0,0,0,0,0,0,0,0,0,0,0,0,0,0,0,0,0,0,0,0,0],"sum_hessian":[9.963476E2,3.501593E2,6.461883E2,2.4648477E2,1.03674515E2,5.1719434E2,1.2899399E2,1.7213788E2,7.43469E1,9.201878E0,9.447263E1,1.7167287E2,3.4552145E2,8.3529005E0,1.2064108E2,5.812409E1,1.1401379E2,3.8079155E1,3.6267742E1,2.790894E0,6.4109836E0,3.0936123E1,6.353651E1,1.376095E2,3.406337E1,3.063292E2,3.9192253E1,2.6192436E0,5.7336574E0,1.02064445E2,1.8576637E1],"tree_param":{"num_deleted":"0","num_feature":"5","num_nodes":"31","size_leaf_vector":"1"}},{"base_weights":[-3.8549196E-2,-1.5145735E1,3.4770203E0,-2.1629637E1,-2.9483063E0,-6.319458E0,8.52858E0,-2.5078207E1,-2.95959E-1,-3.641026E1,1.1044933E-1,-1.3197361E1,1.5390662E0,-3.7163095E0,1.2639939E1,-4.772972E0,-2.2028012E0,-5.7392853E-1,1.3366786E0,-4.2183423E0,-1.5497897E0,-2.1764553E-1,3.233981E0,-2.9335868E0,-9.936628E-1,-3.3713076E-1,2.0936935E0,-2.294743E0,1.0899186E-1,1.0321935E0,3.5161731E0],"categories":[],"categories_nodes":[],"categories_segments":[],"categories_sizes":[],"default_left":[0,0,0,0,0,0,0,0,0,0,0,0,0,0,0,0,0,0,0,0,0,0,0,0,0,0,0,0,0,0,0],"id":19,"left_children":[1,3,5,7,9,11,13,15,17,19,21,23,25,27,29,-1,-1,-1,-1,-1,-1,-1,-1,-1,-1,-1,-1,-1,-1,-1,-1],"loss_changes":[5.3022152E4,1.4841285E4,4.0132996E4,9.033988E3,6.817572E3,1.4944142E4,2.6969121E4,6.2571875E3,1.4238143E3,1.9742676E1,4.6394844E3,7.462375E3,1.2430724E4,1.2520969E4,2.054948E4,0E0,0E0,0E0,0E0,0E0,0E0,0E0,0E0,0E0,0E0,0E0,0E0,0E0,0E0,0E0,0E0],"parents":[2147483647,0,0,1,1,2,2,3,3,4,4,5,5,6,6,7,7,8,8,9,9,10,10,11,11,12,12,13,13,14,14],"right_children":[2,4,6,8,10,12,14,16,18,20,22,24,26,28,30,-1,-1,-1,-1,-1,-1,-1,-1,-1,-1,-1,-1,-1,-1,-1,-1],"split_conditions":[-9.0370184E-1,5.7736355E-1,-4.0439743E-1,1.1593298E0,-2.128734E0,1.14227645E-1,-5.756378E-1,-1.8363597E0,-3.3744574E-3,8.861912E-1,1.9625872E0,-1.6002711E0,7.189533E-1,-7.837657E-1,1.5301952E0,-4.772972E0,-2.2028012E0,-5.7392853E-1,1.3366786E0,-4.2183423E0,-1.5497897E0,-2.1764553E-1,3.233981E0,-2.9335868E0,-9.936628E-1,-3.3713076E-1,2.0936935E0,-2.294743E0,1.0899186E-1,1.0321935E0,3.5161731E0],"split_indices":[1,3,3,4,1,4,2,0,0,0,3,4,0,0,4,0,0,0,0,0,0,0,0,0,0,0,0,0,0,0,0],"split_type":[0,0,0,0,0,0,0,0,0,0,0,0,0,0,0,0,0,0,0,0,0,0,0,0,0,0,0,0,0,0,0],"sum_hessian":[9.963476E2,1.8746416E2,8.088834E2,1.2189433E2,6.556982E1,2.7511075E2,5.337727E2,1.0478106E2,1.7113277E1,4.578513E0,6.0991306E1,1.4634659E2,1.2876418E2,1.3419498E2,3.995777E2,1.0696683E1,9.408437E1,1.2652409E1,4.46087E0,2.790894E0,1.7876191E0,5.782096E1,3.1703424E0,2.3254625E1,1.2309196E2,1.0341254E2,2.5351633E1,2.6077356E1,1.0811763E2,3.6361203E2,3.5965652E1],"tree_param":{"num_deleted":"0","num_feature":"5","num_nodes":"31","size_leaf_vector":"1"}},{"base_weights":[-4.3490563E-2,-4.540791E0,1.0689477E1,-7.9194975E0,1.0592607E1,5.2295427E0,1.9534935E1,-2.654205E1,-5.476318E0,7.3184032E0,3.1038713E1,-1.820747E1,8.112146E0,1.60837E1,3.8305946E1,-2.888728E0,1.0808303E0,-9.643941E-1,5.292209E-1,4.6978885E-1,2.8027549E0,1.6357313E0,3.6602094E0,-2.6673293E0,-6.992161E-1,-2.1503124E0,1.0315653E0,7.8870195E-1,2.1571681E0,1.9995393E0,4.283689E0],"categories":[],"categories_nodes":[],"categories_segments":[],"categories_sizes":[],"default_left":[0,0,0,0,0,0,0,0,0,0,0,0,0,0,0,0,0,0,0,0,0,0,0,0,0,0,0,0,0,0,0],"id":20,"left_children":[1,3,5,7,9,11,13,15,17,19,21,23,25,27,29,-1,-1,-1,-1,-1,-1,-1,-1,-1,-1,-1,-1,-1,-1,-1,-1],"loss_changes":[4.8189887E4,3.60571E4,1.4135488E4,2.6048504E4,8.397621E3,1.25550625E4,6.649422E3,6.138207E3,2.2948434E4,5.9659155E3,8.286094E2,1.7525156E3,1.093894E4,4.168828E3,5.2845703E2,0E0,0E0,0E0,0E0,0E0,0E0,0E0,0E0,0E0,0E0,0E0,0E0,0E0,0E0,0E0,0E0],"parents":[2147483647,0,0,1,1,2,2,3,3,4,4,5,5,6,6,7,7,8,8,9,9,10,10,11,11,12,12,13,13,14,14],"right_children":[2,4,6,8,10,12,14,16,18,20,22,24,26,28,30,-1,-1,-1,-1,-1,-1,-1,-1,-1,-1,-1,-1,-1,-1,-1,-1],"split_conditions":[5.1378596E-1,9.1915417E-1,3.0524313E-1,-1.1509936E0,2.015275E0,-1.111458E0,1.6155828E0,1.6562083E0,6.215719E-1,1.2208213E0,-8.0587006E-1,9.413106E-1,-1.7249179E0,-1.2951724E-1,-5.765104E-1,-2.888728E0,1.0808303E0,-9.643941E-1,5.292209E-1,4.6978885E-1,2.8027549E0,1.6357313E0,3.6602094E0,-2.6673293E0,-6.992161E-1,-2.1503124E0,1.0315653E0,7.8870195E-1,2.1571681E0,1.9995393E0,4.283689E0],"split_indices":[1,0,4,4,0,2,4,3,3,2,3,1,3,0,3,0,0,0,0,0,0,0,0,0,0,0,0,0,0,0,0],"split_type":[0,0,0,0,0,0,0,0,0,0,0,0,0,0,0,0,0,0,0,0,0,0,0,0,0,0,0,0,0,0,0],"sum_hessian":[9.963476E2,7.0254565E2,2.9380194E2,5.7471136E2,1.278343E2,1.8265054E2,1.1115139E2,6.551039E1,5.09201E2,1.1135934E2,1.6474955E1,1.9422176E1,1.6322836E2,9.5457436E1,1.5693955E1,6.185321E1,3.6571774E0,3.6719427E2,1.4200668E2,9.9939896E1,1.1419446E1,5.6101923E0,1.0864761E1,1.0282322E1,9.139855E0,1.0697303E1,1.5253105E2,3.925882E1,5.619862E1,4.1868863E0,1.1507069E1],"tree_param":{"num_deleted":"0","num_feature":"5","num_nodes":"31","size_leaf_vector":"1"}},{"base_weights":[-2.80428E-2,-2.974782E0,1.5207126E1,-2.7501095E1,-1.1856775E0,-6.933812E0,1.7685741E1,-3.7083206E1,-1.8400146E1,-1.44347315E1,1.8573874E0,2.9624918E0,-1.0321513E1,7.3359766E0,2.1878447E1,-3.9542043E0,-9.451483E-1,-2.1821764E0,-1.0190349E-1,-3.492273E0,-1.1468633E0,-9.730308E-2,1.6137695E0,6.9906974E-1,-3.290678E-1,-1.4342741E0,-5.916516E-1,-6.3737E-1,1.2015715E0,1.8597908E0,3.888684E0],"categories":[],"categories_nodes":[],"categories_segments":[],"categories_sizes":[],"default_left":[0,0,0,0,0,0,0,0,0,0,0,0,0,0,0,0,0,0,0,0,0,0,0,0,0,0,0,0,0,0,0],"id":21,"left_children":[1,3,5,7,9,11,13,15,17,19,21,23,25,27,29,-1,-1,-1,-1,-1,-1,-1,-1,-1,-1,-1,-1,-1,-1,-1,-1],"loss_changes":[4.4820227E4,3.667506E4,9.002223E3,4.273508E3,3.150347E4,6.007898E2,6.166078E3,1.4401719E3,1.8291787E3,8.467992E3,2.5713363E4,1.5183205E2,1.4353467E2,2.869906E3,5.0381797E3,0E0,0E0,0E0,0E0,0E0,0E0,0E0,0E0,0E0,0E0,0E0,0E0,0E0,0E0,0E0,0E0],"parents":[2147483647,0,0,1,1,2,2,3,3,4,4,5,5,6,6,7,7,8,8,9,9,10,10,11,11,12,12,13,13,14,14],"right_children":[2,4,6,8,10,12,14,16,18,20,22,24,26,28,30,-1,-1,-1,-1,-1,-1,-1,-1,-1,-1,-1,-1,-1,-1,-1,-1],"split_conditions":[1.0519476E0,-1.4084613E0,-1.4794443E0,-4.0364847E-1,-8.560838E-1,1.340461E0,-3.7061432E-1,1.1460276E0,1.2715551E0,-1.1936368E0,9.82691E-1,1.5860168E0,-7.801991E-1,-1.2946814E0,1.1143217E0,-3.9542043E0,-9.451483E-1,-2.1821764E0,-1.0190349E-1,-3.492273E0,-1.1468633E0,-9.730308E-2,1.6137695E0,6.9906974E-1,-3.290678E-1,-1.4342741E0,-5.916516E-1,-6.3737E-1,1.2015715E0,1.8597908E0,3.888684E0],"split_indices":[2,0,0,2,3,2,3,4,3,1,1,1,3,4,1,0,0,0,0,0,0,0,0,0,0,0,0,0,0,0,0],"split_type":[0,0,0,0,0,0,0,0,0,0,0,0,0,0,0,0,0,0,0,0,0,0,0,0,0,0,0,0,0,0,0],"sum_hessian":[9.963476E2,8.35544E2,1.6080359E2,5.5829E1,7.79715E2,1.600821E1,1.4479538E2,2.5697853E1,3.0131145E1,1.4493706E2,6.3477795E2,4.1144395E0,1.189377E1,4.2538372E1,1.02257E2,2.320215E1,2.4957027E0,2.4961733E1,5.1694136E0,1.6966803E1,1.2797026E2,5.305521E2,1.0422584E2,2.4306827E0,1.6837568E0,5.038351E0,6.855419E0,1.07330475E1,3.1805325E1,8.7477936E1,1.477907E1],"tree_param":{"num_deleted":"0","num_feature":"5","num_nodes":"31","size_leaf_vector":"1"}},{"base_weights":[-3.0903125E-2,-1.8108133E1,2.1460564E0,-4.8494022E1,-1.5441455E1,-1.9718876E0,1.0942817E1,-5.3922725E0,-1.624442E0,-2.1445389E1,-4.938062E0,-3.998698E0,1.732443E1,8.532255E0,2.616772E1,-3.980856E0,-1.7846816E0,-6.5470344E-1,2.1935723E0,-1.7377459E0,-1.1072447E-1,-2.6840356E-1,2.15297E0,5.374314E-1,2.0819292E0,1.9749638E0,3.368882E0],"categories":[],"categories_nodes":[],"categories_segments":[],"categories_sizes":[],"default_left":[0,0,0,0,0,0,0,0,0,0,0,0,0,0,0,0,0,0,0,0,0,0,0,0,0,0,0],"id":22,"left_children":[1,3,5,7,9,11,13,-1,-1,15,17,19,21,23,25,-1,-1,-1,-1,-1,-1,-1,-1,-1,-1,-1,-1],"loss_changes":[3.928788E4,7.9458633E3,3.2299293E4,5.5791016E2,6.207383E3,2.3839393E4,1.0209547E4,0E0,0E0,3.4791836E3,1.7742274E3,2.1288645E4,4.9344316E3,9.468111E3,1.1869336E3,0E0,0E0,0E0,0E0,0E0,0E0,0E0,0E0,0E0,0E0,0E0,0E0],"parents":[2147483647,0,0,1,1,2,2,3,3,4,4,5,5,6,6,9,9,10,10,11,11,12,12,13,13,14,14],"right_children":[2,4,6,8,10,12,14,-1,-1,16,18,20,22,24,26,-1,-1,-1,-1,-1,-1,-1,-1,-1,-1,-1,-1],"split_conditions":[-1.2845843E0,-1.9196732E0,4.968736E-1,5.265367E-1,2.6256132E-1,1.2715551E0,1.317394E0,-5.3922725E0,-1.624442E0,-1.2946814E0,2.015275E0,-9.5393944E-1,-1.296832E0,7.318707E-1,1.7958178E-1,-3.980856E0,-1.7846816E0,-6.5470344E-1,2.1935723E0,-1.7377459E0,-1.1072447E-1,-2.6840356E-1,2.15297E0,5.374314E-1,2.0819292E0,1.9749638E0,3.368882E0],"split_indices":[2,3,4,4,0,3,2,0,0,4,0,1,0,0,3,0,0,0,0,0,0,0,0,0,0,0,0],"split_type":[0,0,0,0,0,0,0,0,0,0,0,0,0,0,0,0,0,0,0,0,0,0,0,0,0,0,0],"sum_hessian":[9.963476E2,1.063028E2,8.900448E2,7.1900063E0,9.91128E1,6.0677625E2,2.8326855E2,5.5788536E0,1.6111529E0,6.2401302E1,3.6711494E1,5.4981824E2,5.6958E1,2.458962E2,3.737237E1,8.576078E0,5.3825222E1,3.5351337E1,1.3601568E0,9.682035E1,4.5299786E2,9.954887E0,4.7003113E1,1.9676279E2,4.9133408E1,2.2121239E1,1.525113E1],"tree_param":{"num_deleted":"0","num_feature":"5","num_nodes":"27","size_leaf_vector":"1"}},{"base_weights":[-3.1064954E-2,-2.7535257E0,1.2857882E1,-5.3444066E0,1.0867312E1,6.5009522E0,2.1610703E1,-7.6065073E0,9.60223E0,-6.3027053E0,1.3290131E1,-1.543818E0,1.2923955E1,6.6299667E0,2.5793236E1,-1.0615579E0,4.9786115E-1,6.0764825E-1,2.8636634E0,2.1940196E-1,-9.1841966E-1,-1.9448678E-1,1.5517684E0,-6.3442004E-1,7.080214E-1,8.926489E-1,2.8118234E0,-8.7796845E-2,1.1085949E0,1.2838946E-1,2.74187E0],"categories":[],"categories_nodes":[],"categories_segments":[],"categories_sizes":[],"default_left":[0,0,0,0,0,0,0,0,0,0,0,0,0,0,0,0,0,0,0,0,0,0,0,0,0,0,0,0,0,0,0],"id":23,"left_children":[1,3,5,7,9,11,13,15,17,19,21,23,25,27,29,-1,-1,-1,-1,-1,-1,-1,-1,-1,-1,-1,-1,-1,-1,-1,-1],"loss_changes":[3.5031984E4,2.9145648E4,9.546787E3,2.3510268E4,5.577292E3,5.305188E3,4.391574E3,2.2874012E4,5.9707656E3,4.3656628E2,3.9684863E3,1.9618015E3,3.2100176E3,5.8646924E2,2.2188398E3,0E0,0E0,0E0,0E0,0E0,0E0,0E0,0E0,0E0,0E0,0E0,0E0,0E0,0E0,0E0,0E0],"parents":[2147483647,0,0,1,1,2,2,3,3,4,4,5,5,6,6,7,7,8,8,9,9,10,10,11,11,12,12,13,13,14,14],"right_children":[2,4,6,8,10,12,14,16,18,20,22,24,26,28,30,-1,-1,-1,-1,-1,-1,-1,-1,-1,-1,-1,-1,-1,-1,-1,-1],"split_conditions":[9.1915417E-1,1.0519476E0,2.1273978E-1,1.2657079E0,-1.4794443E0,-1.7294607E-1,-6.5737253E-1,9.413106E-1,2.0615036E0,1.340461E0,-1.2946814E0,1.4532754E0,9.67826E-1,-1.5144703E0,-1.5002218E0,-1.0615579E0,4.9786115E-1,6.0764825E-1,2.8636634E0,2.1940196E-1,-9.1841966E-1,-1.9448678E-1,1.5517684E0,-6.3442004E-1,7.080214E-1,8.926489E-1,2.8118234E0,-8.7796845E-2,1.1085949E0,1.2838946E-1,2.74187E0],"split_indices":[0,2,1,4,0,2,3,1,4,2,4,0,3,3,2,0,0,0,0,0,0,0,0,0,0,0,0,0,0,0,0],"split_type":[0,0,0,0,0,0,0,0,0,0,0,0,0,0,0,0,0,0,0,0,0,0,0,0,0,0,0,0,0,0,0],"sum_hessian":[9.963476E2,8.2324457E2,1.7310303E2,6.92188E2,1.3105655E2,1.01285164E2,7.181786E1,6.01626E2,9.056206E1,1.600821E1,1.1504835E2,4.5303036E1,5.5982124E1,1.6239042E1,5.5578823E1,4.8566187E2,1.1596407E2,7.75219E1,1.3040165E1,4.1144395E0,1.189377E1,1.46919565E1,1.0035639E2,2.9273134E1,1.6029903E1,4.557839E1,1.0403736E1,6.3473277E0,9.891714E0,3.5680668E0,5.2010757E1],"tree_param":{"num_deleted":"0","num_feature":"5","num_nodes":"31","size_leaf_vector":"1"}},{"base_weights":[-1.6693164E-2,-7.6074433E0,4.1072397E0,-2.6857306E1,-5.336762E0,-1.7040137E0,9.687868E0,-3.1297567E1,-1.2191724E0,-8.997545E0,4.8278723E0,-8.25319E0,5.541319E0,7.8570633E0,2.7987898E1,-3.3662713E0,-7.9377687E-1,1.0807239E-1,-4.3541643E-1,-1.2357908E0,1.5354642E-1,-6.655077E-1,8.3255816E-1,-2.509011E0,-5.676633E-1,3.060188E-1,2.2232716E0,-3.7348357E-1,1.002288E0,1.7309897E0,3.1816459E0],"categories":[],"categories_nodes":[],"categories_segments":[],"categories_sizes":[],"default_left":[0,0,0,0,0,0,0,0,0,0,0,0,0,0,0,0,0,0,0,0,0,0,0,0,0,0,0,0,0,0,0],"id":24,"left_children":[1,3,5,7,9,11,13,15,17,19,21,23,25,27,29,-1,-1,-1,-1,-1,-1,-1,-1,-1,-1,-1,-1,-1,-1,-1,-1],"loss_changes":[3.125196E4,1.5218566E4,2.0995752E4,4.155037E3,1.1787597E4,1.5123374E4,1.0841283E4,1.4651914E3,5.14137E1,8.244457E3,3.4380642E3,7.1150713E3,6.2043115E3,7.6071836E3,6.6078125E2,0E0,0E0,0E0,0E0,0E0,0E0,0E0,0E0,0E0,0E0,0E0,0E0,0E0,0E0,0E0,0E0],"parents":[2147483647,0,0,1,1,2,2,3,3,4,4,5,5,6,6,7,7,8,8,9,9,10,10,11,11,12,12,13,13,14,14],"right_children":[2,4,6,8,10,12,14,16,18,20,22,24,26,28,30,-1,-1,-1,-1,-1,-1,-1,-1,-1,-1,-1,-1,-1,-1,-1,-1],"split_conditions":[-3.4319228E-1,-1.3885425E0,2.4219457E-2,9.413106E-1,6.6592425E-1,3.471375E-2,1.2289805E0,8.3352894E-1,-1.0773761E0,6.1971146E-1,-7.726594E-1,-1.5631908E0,1.4015986E0,-8.182207E-1,-8.7826324E-1,-3.3662713E0,-7.9377687E-1,1.0807239E-1,-4.3541643E-1,-1.2357908E0,1.5354642E-1,-6.655077E-1,8.3255816E-1,-2.509011E0,-5.676633E-1,3.060188E-1,2.2232716E0,-3.7348357E-1,1.002288E0,1.7309897E0,3.1816459E0],"split_indices":[0,2,2,1,3,4,3,4,0,4,4,4,1,1,4,0,0,0,0,0,0,0,0,0,0,0,0,0,0,0,0],"split_type":[0,0,0,0,0,0,0,0,0,0,0,0,0,0,0,0,0,0,0,0,0,0,0,0,0,0,0,0,0,0,0],"sum_hessian":[9.963476E2,3.50448E2,6.458996E2,3.583409E1,3.146139E2,3.1675208E2,3.2914752E2,3.0356E1,5.4780912E0,2.3139282E2,8.322108E1,1.6629561E2,1.5045647E2,3.0051248E2,2.8635063E1,2.7164576E1,3.1914241E0,3.5378904E0,1.9402008E0,1.7529494E2,5.6097885E1,1.9219835E1,6.400124E1,2.0911072E1,1.4538454E2,1.3201599E2,1.8440477E1,4.719431E1,2.5331816E2,9.014508E0,1.9620554E1],"tree_param":{"num_deleted":"0","num_feature":"5","num_nodes":"31","size_leaf_vector":"1"}},{"base_weights":[-1.5433346E-2,-1.4517862E1,1.8591337E0,-4.392099E0,-1.1826176E1,-1.6575302E0,9.872783E0,-3.1626196E1,-9.158485E0,-3.2225237E0,1.6864235E1,9.5804906E-1,1.4839729E1,-3.5504365E0,-6.7949794E-2,-1.1845411E0,1.5841047E-1,-1.7827457E0,-1.3387977E-1,2.284813E-1,2.3081264E0,-1.3063319E0,4.0169987E-1,1.3202924E0,3.52267E0],"categories":[],"categories_nodes":[],"categories_segments":[],"categories_sizes":[],"default_left":[0,0,0,0,0,0,0,0,0,0,0,0,0,0,0,0,0,0,0,0,0,0,0,0,0],"id":25,"left_children":[1,3,5,-1,7,9,11,13,15,17,19,21,23,-1,-1,-1,-1,-1,-1,-1,-1,-1,-1,-1,-1],"loss_changes":[2.7140658E4,8.524633E3,2.4930732E4,0E0,5.312377E3,1.7889531E4,1.1931383E4,1.4382891E3,2.757227E3,1.5608141E4,4.306994E3,4.238515E3,5.3139062E3,0E0,0E0,0E0,0E0,0E0,0E0,0E0,0E0,0E0,0E0,0E0,0E0],"parents":[2147483647,0,0,1,1,2,2,4,4,5,5,6,6,7,7,8,8,9,9,10,10,11,11,12,12],"right_children":[2,4,6,-1,8,10,12,14,16,18,20,22,24,-1,-1,-1,-1,-1,-1,-1,-1,-1,-1,-1,-1],"split_conditions":[-1.1936368E0,-2.2193003E0,5.6484234E-1,-4.392099E0,-1.3728595E0,1.5860168E0,-5.359634E-1,7.6883966E-1,9.7885805E-1,-1.2374266E0,-4.7417817E-1,-1.607661E0,2.0884428E0,-3.5504365E0,-6.7949794E-2,-1.1845411E0,1.5841047E-1,-1.7827457E0,-1.3387977E-1,2.284813E-1,2.3081264E0,-1.3063319E0,4.0169987E-1,1.3202924E0,3.52267E0],"split_indices":[1,1,3,0,2,1,4,0,4,4,2,4,3,0,0,0,0,0,0,0,0,0,0,0,0],"split_type":[0,0,0,0,0,0,0,0,0,0,0,0,0,0,0,0,0,0,0,0,0,0,0,0,0],"sum_hessian":[9.963476E2,1.1327334E2,8.830743E2,8.215255E0,1.0505808E2,6.142941E2,2.6878015E2,1.1185117E1,9.387296E1,5.6719507E2,4.709904E1,9.659794E1,1.721822E2,9.808645E0,1.3764715E0,7.500911E1,1.8863857E1,6.3831528E1,5.0336353E2,1.4488914E1,3.2610126E1,1.6714203E1,7.9883736E1,1.6091081E2,1.1271401E1],"tree_param":{"num_deleted":"0","num_feature":"5","num_nodes":"25","size_leaf_vector":"1"}},{"base_weights":[-1.837993E-2,-2.3243387E0,1.0898675E1,-1.3128922E1,1.367907E-1,8.696065E0,2.8680922E1,-3.314471E1,-9.894184E0,-1.2222545E1,2.1085784E0,5.0974655E0,1.8782927E1,1.4108773E0,3.3827572E0,-3.8309076E0,-1.147733E0,-1.3590267E0,-2.0562509E-1,-1.8515888E0,-6.8476224E-1,-1.7488132E-1,8.467946E-1,3.11206E-1,1.9163271E0,1.1373898E0,2.5558035E0],"categories":[],"categories_nodes":[],"categories_segments":[],"categories_sizes":[],"default_left":[0,0,0,0,0,0,0,0,0,0,0,0,0,0,0,0,0,0,0,0,0,0,0,0,0,0,0],"id":26,"left_children":[1,3,5,7,9,11,13,15,17,19,21,23,25,-1,-1,-1,-1,-1,-1,-1,-1,-1,-1,-1,-1,-1,-1],"loss_changes":[2.5132838E4,2.1919676E4,6.569742E3,9.573561E3,1.64101E4,5.5795215E3,9.292031E2,1.8934766E3,3.8272754E3,3.0071963E3,1.4258884E4,3.1968464E3,1.7543174E3,0E0,0E0,0E0,0E0,0E0,0E0,0E0,0E0,0E0,0E0,0E0,0E0,0E0,0E0],"parents":[2147483647,0,0,1,1,2,2,3,3,4,4,5,5,6,6,7,7,8,8,9,9,10,10,11,11,12,12],"right_children":[2,4,6,8,10,12,14,16,18,20,22,24,26,-1,-1,-1,-1,-1,-1,-1,-1,-1,-1,-1,-1,-1,-1],"split_conditions":[9.1915417E-1,-8.560838E-1,2.062525E0,-1.9875689E0,-1.17388E0,5.414627E-1,-8.0587006E-1,4.3295982E-1,5.4628426E-1,-4.8536354E-1,3.5561335E-1,1.2208213E0,2.2465892E-2,1.4108773E0,3.3827572E0,-3.8309076E0,-1.147733E0,-1.3590267E0,-2.0562509E-1,-1.8515888E0,-6.8476224E-1,-1.7488132E-1,8.467946E-1,3.11206E-1,1.9163271E0,1.1373898E0,2.5558035E0],"split_indices":[0,3,0,3,2,1,3,2,2,0,1,2,3,0,0,0,0,0,0,0,0,0,0,0,0,0,0],"split_type":[0,0,0,0,0,0,0,0,0,0,0,0,0,0,0,0,0,0,0,0,0,0,0,0,0,0,0],"sum_hessian":[9.963476E2,8.2324457E2,1.7310303E2,1.5192877E2,6.713158E2,1.5534958E2,1.7753454E1,1.9850727E1,1.3207805E2,9.164959E1,5.796662E2,1.1560984E2,3.973973E1,5.6101923E0,1.2143262E1,1.540979E1,4.440936E0,8.925484E1,4.282322E1,4.109166E1,5.055793E1,3.612614E2,2.1840477E2,1.0238003E2,1.3229815E1,2.026137E1,1.9478361E1],"tree_param":{"num_deleted":"0","num_feature":"5","num_nodes":"27","size_leaf_vector":"1"}},{"base_weights":[-1.4229301E-2,-1.6778904E1,1.3637067E0,-2.7728298E1,-1.0612372E1,-3.6849114E-1,1.5979336E1,-4.6422725E0,-2.3128672E1,-2.1254608E1,-6.9387083E0,-1.9042564E1,8.570975E-1,7.8798065E0,2.0113594E1,-3.1829622E0,-1.6328833E0,-2.276347E0,-8.0419695E-1,-9.771674E-1,2.6720023E-1,-3.1440747E0,-1.5967653E0,-2.2016625E-1,7.883177E-1,4.5453483E-1,2.5550582E0,1.6846058E0,2.8818076E0],"categories":[],"categories_nodes":[],"categories_segments":[],"categories_sizes":[],"default_left":[0,0,0,0,0,0,0,0,0,0,0,0,0,0,0,0,0,0,0,0,0,0,0,0,0,0,0,0,0],"id":27,"left_children":[1,3,5,7,9,11,13,-1,15,17,19,21,23,25,27,-1,-1,-1,-1,-1,-1,-1,-1,-1,-1,-1,-1,-1,-1],"loss_changes":[2.3062258E4,4.8253574E3,2.3361564E4,1.2219805E3,1.812251E3,1.8915074E4,3.115463E3,0E0,8.658467E2,6.371289E1,1.081087E3,1.4384336E3,1.6691256E4,1.9275886E3,1.3373105E3,0E0,0E0,0E0,0E0,0E0,0E0,0E0,0E0,0E0,0E0,0E0,0E0,0E0,0E0],"parents":[2147483647,0,0,1,1,2,2,3,3,4,4,5,5,6,6,8,8,9,9,10,10,11,11,12,12,13,13,14,14],"right_children":[2,4,6,8,10,12,14,-1,16,18,20,22,24,26,28,-1,-1,-1,-1,-1,-1,-1,-1,-1,-1,-1,-1,-1,-1],"split_conditions":[-1.4084613E0,-4.0364847E-1,1.2615192E0,-1.6548874E0,-2.0173388E0,-1.5631908E0,-5.092134E-1,-4.6422725E0,-2.1492103E-1,1.5490202E0,1.0571222E0,-1.3728595E0,5.6484234E-1,1.2809396E0,7.214793E-1,-3.1829622E0,-1.6328833E0,-2.276347E0,-8.0419695E-1,-9.771674E-1,2.6720023E-1,-3.1440747E0,-1.5967653E0,-2.2016625E-1,7.883177E-1,4.5453483E-1,2.5550582E0,1.6846058E0,2.8818076E0],"split_indices":[0,2,2,3,0,4,4,0,4,1,1,2,3,1,3,0,0,0,0,0,0,0,0,0,0,0,0,0,0],"split_type":[0,0,0,0,0,0,0,0,0,0,0,0,0,0,0,0,0,0,0,0,0,0,0,0,0,0,0,0,0],"sum_hessian":[9.963476E2,7.4823975E1,9.215236E2,2.5697853E1,4.912612E1,8.2475146E2,9.677213E1,3.2788403E0,2.2419014E1,1.1378393E1,3.7747726E1,4.9899796E1,7.748517E2,3.368499E1,6.308714E1,8.219961E0,1.4199053E1,9.563413E0,1.8149804E0,2.9141027E1,8.6067E0,8.08317E0,4.1816628E1,5.4031537E2,2.345363E2,2.9395342E1,4.289648E0,4.8002884E1,1.5084257E1],"tree_param":{"num_deleted":"0","num_feature":"5","num_nodes":"29","size_leaf_vector":"1"}},{"base_weights":[-2.2677543E-2,-9.767487E0,2.0745451E0,-3.8602588E0,-8.133404E0,-1.4917957E1,3.2764542E0,-2.8098001E1,-6.352813E0,-2.3386036E1,-9.237958E0,-9.717379E-1,8.105208E0,-3.1144035E0,-5.4683334E-1,-1.0004741E0,1.5145786E-1,-2.853364E0,-1.0787898E0,-1.3279691E0,-1.0618236E-1,-3.2104844E-1,1.038186E0,6.204425E-1,1.9452924E0],"categories":[],"categories_nodes":[],"categories_segments":[],"categories_sizes":[],"default_left":[0,0,0,0,0,0,0,0,0,0,0,0,0,0,0,0,0,0,0,0,0,0,0,0,0],"id":28,"left_children":[1,3,5,-1,7,9,11,13,15,17,19,21,23,-1,-1,-1,-1,-1,-1,-1,-1,-1,-1,-1,-1],"loss_changes":[2.0403088E4,8.016914E3,1.6827598E4,0E0,5.81467E3,2.402961E3,1.5764106E4,7.611387E2,4.4994326E3,1.0674736E3,1.1174963E3,1.0441991E4,7.6354883E3,0E0,0E0,0E0,0E0,0E0,0E0,0E0,0E0,0E0,0E0,0E0,0E0],"parents":[2147483647,0,0,1,1,2,2,4,4,5,5,6,6,7,7,8,8,9,9,10,10,11,11,12,12],"right_children":[2,4,6,-1,8,10,12,14,16,18,20,22,24,-1,-1,-1,-1,-1,-1,-1,-1,-1,-1,-1,-1],"split_conditions":[-9.5393944E-1,-2.2193003E0,-1.51937E0,-3.8602588E0,-1.8363597E0,-4.1510028E-1,1.845513E-1,1.1460276E0,4.6217266E-1,5.2127993E-1,2.8119144E-1,1.2357821E0,1.4532754E0,-3.1144035E0,-5.4683334E-1,-1.0004741E0,1.5145786E-1,-2.853364E0,-1.0787898E0,-1.3279691E0,-1.0618236E-1,-3.2104844E-1,1.038186E0,6.204425E-1,1.9452924E0],"split_indices":[1,1,3,0,0,2,0,4,4,4,4,1,0,0,0,0,0,0,0,0,0,0,0,0,0],"split_type":[0,0,0,0,0,0,0,0,0,0,0,0,0,0,0,0,0,0,0,0,0,0,0,0,0],"sum_hessian":[9.963476E2,1.7580534E2,8.2054224E2,8.215255E0,1.6759009E2,5.3450542E1,7.6709174E2,1.2512743E1,1.5507735E2,2.0207193E1,3.3243347E1,4.0850238E2,3.5858932E2,1.0696683E1,1.8160596E0,1.05728195E2,4.9349148E1,1.3447593E1,6.7596E0,2.1828568E1,1.141478E1,3.418185E2,6.6683876E1,3.0846677E2,5.012255E1],"tree_param":{"num_deleted":"0","num_feature":"5","num_nodes":"25","size_leaf_vector":"1"}},{"base_weights":[-3.0891854E-2,-1.7300732E0,1.0870653E1,-1.0234059E1,5.777585E-1,-3.3429325E0,1.2955383E1,-1.326043E1,-3.95915E-1,-1.7487267E1,1.7377696E0,-6.3554006E0,1.8037194E0,7.4222603E0,1.7384918E1,-2.976178E0,-1.0721475E0,-1.5058655E0,1.8846074E-1,-1.9659039E0,-4.7436395E-1,1.0689601E-2,1.3868548E0,-8.373519E-1,-4.3392062E-1,4.8483762E-1,-3.3981174E-1,4.842783E-1,2.4806964E0,1.2619593E0,2.304301E0],"categories":[],"categories_nodes":[],"categories_segments":[],"categories_sizes":[],"default_left":[0,0,0,0,0,0,0,0,0,0,0,0,0,0,0,0,0,0,0,0,0,0,0,0,0,0,0,0,0,0,0],"id":29,"left_children":[1,3,5,7,9,11,13,15,17,19,21,23,25,27,29,-1,-1,-1,-1,-1,-1,-1,-1,-1,-1,-1,-1,-1,-1,-1,-1],"loss_changes":[1.8493377E4,1.6957082E4,4.0325254E3,5.4856035E3,1.4286539E4,2.9077325E2,2.753541E3,5.588408E3,1.5135637E3,1.0453125E3,1.2663349E4,1.0803101E1,1.3415678E2,2.3030735E3,1.4503281E3,0E0,0E0,0E0,0E0,0E0,0E0,0E0,0E0,0E0,0E0,0E0,0E0,0E0,0E0,0E0,0E0],"parents":[2147483647,0,0,1,1,2,2,3,3,4,4,5,5,6,6,7,7,8,8,9,9,10,10,11,11,12,12,13,13,14,14],"right_children":[2,4,6,8,10,12,14,16,18,20,22,24,26,28,30,-1,-1,-1,-1,-1,-1,-1,-1,-1,-1,-1,-1,-1,-1,-1,-1],"split_conditions":[1.1442931E0,-7.424842E-1,-1.4084613E0,9.413106E-1,-1.5631908E0,-1.6135614E0,-3.020455E-1,-1.066235E0,-2.0173388E0,9.1915417E-1,1.172729E0,-7.801991E-1,-1.5256563E0,1.2809396E0,1.7958178E-1,-2.976178E0,-1.0721475E0,-1.5058655E0,1.8846074E-1,-1.9659039E0,-4.7436395E-1,1.0689601E-2,1.3868548E0,-8.373519E-1,-4.3392062E-1,4.8483762E-1,-3.3981174E-1,4.842783E-1,2.4806964E0,1.2619593E0,2.304301E0],"split_indices":[2,0,0,1,4,0,4,3,0,0,1,3,0,1,3,0,0,0,0,0,0,0,0,0,0,0,0,0,0,0,0],"split_type":[0,0,0,0,0,0,0,0,0,0,0,0,0,0,0,0,0,0,0,0,0,0,0,0,0,0,0,0,0,0,0],"sum_hessian":[9.963476E2,8.627201E2,1.3362752E2,1.8341843E2,6.7930164E2,1.7015202E1,1.1661231E2,1.400033E2,4.3415123E1,4.0138817E1,6.3916284E2,1.0584791E1,6.430412E0,5.3037067E1,6.357525E1,1.7239182E1,1.2276412E2,5.089399E0,3.832572E1,3.383072E1,6.3080974E0,5.6430585E2,7.485701E1,3.7140577E0,6.8707333E0,4.099126E0,2.331286E0,4.7297764E1,5.7393003E0,3.6263752E1,2.7311497E1],"tree_param":{"num_deleted":"0","num_feature":"5","num_nodes":"31","size_leaf_vector":"1"}}]},"name":"gbtree"},"learner_model_param":{"base_score":"[1.0632848E0]","boost_from_average":"1","num_class":"0","num_feature":"5","num_target":"1"},"objective":{"name":"reg:squarederror","reg_loss_param":{"scale_pos_weight":"1"}}},"version":[3,1,1]}