{"learner":{"attributes":{},"feature_names":[],"feature_types":["q","q","q","c","c"],"gradient_booster":{"model":{"cats":{"enc":[],"feature_segments":[],"sorted_idx":[]},"gbtree_model_param":{"num_parallel_tree":"1","num_trees":"5"},"iteration_indptr":[0,1,2,3,4,5],"tree_info":[0,0,0,0,0],"trees":[{"base_weights":[-5.0411888E-8,7.570744E0,-4.2842197E0,4.7627993E0,3.432808E0,3.6372612E0,-7.8853035E0,1.7842131E0,1.3826525E-1,2.6008394E-1,1.3508835E0,-1.6690434E0,-3.1771362E0],"categories":[0,1,2,1,2,1,2,0,1,1],"categories_nodes":[0,1,2,4,6],"categories_segments":[0,3,5,7,9],"categories_sizes":[3,2,2,2,1],"default_left":[1,1,1,0,1,0,1,0,0,0,0,0,0],"id":0,"left_children":[1,3,5,-1,7,9,11,-1,-1,-1,-1,-1,-1],"loss_changes":[6.5518154E3,2.4542632E3,3.7085247E3,0E0,3.7091437E2,9.4423096E1,5.000791E2,0E0,0E0,0E0,0E0,0E0,0E0],"parents":[2147483647,0,0,1,1,2,2,4,4,5,5,6,6],"right_children":[2,4,6,-1,8,10,12,-1,-1,-1,-1,-1,-1],"split_conditions":[1E-45,1E-45,1E-45,4.7627993E0,1E-45,-5.622875E-1,1E-45,1.7842131E0,1.3826525E-1,2.6008394E-1,1.3508835E0,-1.6690434E0,-3.1771362E0],"split_indices":[4,3,3,0,3,0,3,0,0,0,0,0,0],"split_type":[1,1,1,0,1,0,1,0,0,0,0,0,0],"sum_hessian":[2E2,7.2E1,1.28E2,2.3E1,4.9E1,4E1,8.8E1,2.6E1,2.3E1,1E1,3E1,4.9E1,3.9E1],"tree_param":{"num_deleted":"0","num_feature":"5","num_nodes":"13","size_leaf_vector":"1"}},{"base_weights":[1.7164435E-2,5.3911E0,-3.0240328E0,3.3934941E0,2.4414153E0,2.5853746E0,-5.574164E0,1.2687738E0,9.851403E-2,1.8915196E-1,9.5869154E-1,-1.1783447E0,-2.2478237E0],"categories":[0,1,2,1,2,1,2,0,1,1],"categories_nodes":[0,1,2,4,6],"categories_segments":[0,3,5,7,9],"categories_sizes":[3,2,2,2,1],"default_left":[1,1,1,0,1,0,1,0,0,0,0,0,0],"id":1,"left_children":[1,3,5,-1,7,9,11,-1,-1,-1,-1,-1,-1],"loss_changes":[3.3012854E3,1.247237E3,1.8597206E3,0E0,1.8749866E2,4.6897522E1,2.5169019E2,0E0,0E0,0E0,0E0,0E0,0E0],"parents":[2147483647,0,0,1,1,2,2,4,4,5,5,6,6],"right_children":[2,4,6,-1,8,10,12,-1,-1,-1,-1,-1,-1],"split_conditions":[1E-45,1E-45,1E-45,3.3934941E0,1E-45,-5.622875E-1,1E-45,1.2687738E0,9.851403E-2,1.8915196E-1,9.5869154E-1,-1.1783447E0,-2.2478237E0],"split_indices":[4,3,3,0,3,0,3,0,0,0,0,0,0],"split_type":[1,1,1,0,1,0,1,0,0,0,0,0,0],"sum_hessian":[2E2,7.2E1,1.28E2,2.3E1,4.9E1,4E1,8.8E1,2.6E1,2.3E1,1E1,3E1,4.9E1,3.9E1],"tree_param":{"num_deleted":"0","num_feature":"5","num_nodes":"13","size_leaf_vector":"1"}},{"base_weights":[2.4365699E-2,3.8389862E0,-2.1344843E0,2.4178646E0,1.7363365E0,1.8377583E0,-3.9404109E0,8.8759944E-2,1.066864E0,1.0377559E-1,6.7395854E-1,-1.4626399E0,-5.187606E-1],"categories":[0,1,2,1,2,1,2],"categories_nodes":[0,1,2],"categories_segments":[0,3,5],"categories_sizes":[3,2,2],"default_left":[1,1,1,0,0,0,0,0,0,0,0,0,0],"id":2,"left_children":[1,3,5,-1,7,9,11,-1,-1,-1,-1,-1,-1],"loss_changes":[1.6634681E3,6.338345E2,9.3263306E2,0E0,1.3002174E2,2.4225464E1,1.7558606E2,0E0,0E0,0E0,0E0,0E0,0E0],"parents":[2147483647,0,0,1,1,2,2,4,4,5,5,6,6],"right_children":[2,4,6,-1,8,10,12,-1,-1,-1,-1,-1,-1],"split_conditions":[1E-45,1E-45,1E-45,2.4178646E0,2.1409374E-1,-5.9939265E-1,4.4381943E-1,8.8759944E-2,1.066864E0,1.0377559E-1,6.7395854E-1,-1.4626399E0,-5.187606E-1],"split_indices":[4,3,3,0,0,0,0,0,0,0,0,0,0],"split_type":[1,1,1,0,0,0,0,0,0,0,0,0,0],"sum_hessian":[2E2,7.2E1,1.28E2,2.3E1,4.9E1,4E1,8.8E1,2.8E1,2.1E1,9E0,3.1E1,6.1E1,2.7E1],"tree_param":{"num_deleted":"0","num_feature":"5","num_nodes":"13","size_leaf_vector":"1"}},{"base_weights":[2.8846191E-2,2.736242E0,-1.5034697E0,5.7424283E0,1.238548E0,1.3054001E0,-2.7805505E0,1.0644416E0,1.9853444E0,7.3531574E-1,-5.313766E-2,2.807108E-1,8.902206E-1,-4.8684427E-1,-1.2474622E0],"categories":[0,1,2,1,2,1,2,1,1],"categories_nodes":[0,1,2,4,6],"categories_segments":[0,3,5,7,8],"categories_sizes":[3,2,2,1,1],"default_left":[1,1,1,0,1,0,1,0,0,0,0,0,0,0,0],"id":3,"left_children":[1,3,5,7,9,11,13,-1,-1,-1,-1,-1,-1,-1,-1],"loss_changes":[8.379796E2,3.2155908E2,4.663726E2,2.2619507E1,8.625966E1,2.2415337E1,1.3520374E2,0E0,0E0,0E0,0E0,0E0,0E0,0E0,0E0],"parents":[2147483647,0,0,1,1,2,2,3,3,4,4,5,5,6,6],"right_children":[2,4,6,8,10,12,14,-1,-1,-1,-1,-1,-1,-1,-1],"split_conditions":[1E-45,1E-45,1E-45,-5.0347567E-1,1E-45,1.3686316E0,1E-45,1.0644416E0,1.9853444E0,7.3531574E-1,-5.313766E-2,2.807108E-1,8.902206E-1,-4.8684427E-1,-1.2474622E0],"split_indices":[4,3,3,0,3,2,3,0,0,0,0,0,0,0,0],"split_type":[1,1,1,0,1,0,1,0,0,0,0,0,0,0,0],"sum_hessian":[2E2,7.2E1,1.28E2,2.3E1,4.9E1,4E1,8.8E1,8E0,1.5E1,2.6E1,2.3E1,3.4E1,6E0,4.9E1,3.9E1],"tree_param":{"num_deleted":"0","num_feature":"5","num_nodes":"15","size_leaf_vector":"1"}},{"base_weights":[3.595645E-2,1.9664922E0,-1.056796E0,4.146774E0,8.8062716E-1,9.423394E-1,-1.9658719E0,7.805905E-1,1.4269662E0,-2.6481012E-1,5.209171E-1,2.1970049E-1,1.0074856E0,-1.3480753E0,-4.0508908E-1],"categories":[0,1,2,1,2,1,2],"categories_nodes":[0,1,2],"categories_segments":[0,3,5],"categories_sizes":[3,2,2],"default_left":[1,1,1,0,0,0,0,0,0,0,0,0,0,0,0],"id":4,"left_children":[1,3,5,7,9,11,13,-1,-1,-1,-1,-1,-1,-1,-1],"loss_changes":[4.261073E2,1.6917508E2,2.362927E2,1.0231415E1,7.698224E1,1.834235E1,1.3241605E2,0E0,0E0,0E0,0E0,0E0,0E0,0E0,0E0],"parents":[2147483647,0,0,1,1,2,2,3,3,4,4,5,5,6,6],"right_children":[2,4,6,8,10,12,14,-1,-1,-1,-1,-1,-1,-1,-1],"split_conditions":[1E-45,1E-45,1E-45,-5.0347567E-1,-5.637246E-1,1.4535341E0,-6.771617E-1,7.805905E-1,1.4269662E0,-2.6481012E-1,5.209171E-1,2.1970049E-1,1.0074856E0,-1.3480753E0,-4.0508908E-1],"split_indices":[4,3,3,0,0,0,0,0,0,0,0,0,0,0,0],"split_type":[1,1,1,0,0,0,0,0,0,0,0,0,0,0,0],"sum_hessian":[2E2,7.2E1,1.28E2,2.3E1,4.9E1,4E1,8.8E1,8E0,1.5E1,1.6E1,3.3E1,3.8E1,2E0,1.6E1,7.2E1],"tree_param":{"num_deleted":"0","num_feature":"5","num_nodes":"15","size_leaf_vector":"1"}}]},"name":"gbtree"},"learner_model_param":{"base_score":"[2.0254636E0]","boost_from_average":"1","num_class":"0","num_feature":"5","num_target":"1"},"objective":{"name":"reg:squarederror","reg_loss_param":{"scale_pos_weight":"1"}}},"version":[3,1,1]}