{
  "bstr_version": 1,
  "model_type": "gbdt",
  "model": {
    "meta": {
      "task": "regression",
      "num_features": 8,
      "num_classes": null,
      "feature_names": null,
      "feature_types": null
    },
    "forest": {
      "trees": [
        {
          "num_nodes": 77,
          "split_indices": [
            1,
            5,
            5,
            1,
            2,
            1,
            7,
            7,
            6,
            5,
            4,
            5,
            3,
            6,
            1,
            0,
            1,
            3,
            0,
            4,
            0,
            1,
            0,
            0,
            4,
            0,
            0,
            7,
            0,
            5,
            0,
            0,
            0,
            0,
            1,
            2,
            0,
            4,
            7,
            0,
            0,
            0,
            0,
            0,
            0,
            6,
            0,
            4,
            0,
            0,
            0,
            7,
            4,
            0,
            0,
            0,
            0,
            0,
            0,
            0,
            0,
            0,
            0,
            0,
            0,
            0,
            0,
            0,
            0,
            0,
            0,
            0,
            0,
            0,
            0,
            0,
            0
          ],
          "thresholds": [
            -0.12578692,
            0.55979043,
            -0.10703036,
            -1.0097307,
            0.32416636,
            1.8260098,
            -0.6226995,
            0.31978193,
            -0.60021687,
            1.105526,
            -0.14408755,
            -1.5625459,
            0.3885786,
            0.391804,
            1.0441608,
            -0.7184073,
            -1.4400508,
            1.0240625,
            0.20292301,
            0.3773005,
            -0.6115178,
            -0.8639908,
            9.467643,
            -10.526927,
            -0.6097829,
            12.561637,
            0.7334765,
            -1.1290518,
            -1.2002964,
            0.39922312,
            0.048521627,
            -5.6503277,
            -20.172852,
            -10.794434,
            -1.3118362,
            1.0302835,
            -0.93194515,
            0.8524333,
            0.5820977,
            -4.5097976,
            -1.4480139,
            -1.3659083,
            2.0840437,
            -0.27846995,
            1.7639208,
            0.55248994,
            0.7716987,
            -0.13014306,
            -1.9937357,
            0.14649692,
            6.508056,
            -0.024125088,
            -0.75427586,
            13.782275,
            24.636786,
            -1.2277907,
            -5.3420744,
            -14.507393,
            -4.035757,
            -9.034247,
            -3.4710224,
            -3.389078,
            0.49170694,
            -0.0014430523,
            -0.3828628,
            -8.082018,
            -1.49246,
            1.7386433,
            -4.2585025,
            -5.3110356,
            -0.5553487,
            -0.014096165,
            1.7824084,
            -0.6961375,
            8.282027,
            6.25894,
            15.249587
          ],
          "children_left": [
            1,
            3,
            5,
            7,
            9,
            11,
            13,
            15,
            17,
            19,
            21,
            23,
            25,
            27,
            29,
            31,
            33,
            35,
            37,
            39,
            41,
            43,
            0,
            0,
            45,
            0,
            0,
            47,
            49,
            51,
            53,
            0,
            0,
            0,
            55,
            57,
            0,
            59,
            61,
            0,
            63,
            0,
            0,
            0,
            0,
            65,
            67,
            69,
            71,
            0,
            0,
            73,
            75,
            0,
            0,
            0,
            0,
            0,
            0,
            0,
            0,
            0,
            0,
            0,
            0,
            0,
            0,
            0,
            0,
            0,
            0,
            0,
            0,
            0,
            0,
            0,
            0
          ],
          "children_right": [
            2,
            4,
            6,
            8,
            10,
            12,
            14,
            16,
            18,
            20,
            22,
            24,
            26,
            28,
            30,
            32,
            34,
            36,
            38,
            40,
            42,
            44,
            0,
            0,
            46,
            0,
            0,
            48,
            50,
            52,
            54,
            0,
            0,
            0,
            56,
            58,
            0,
            60,
            62,
            0,
            64,
            0,
            0,
            0,
            0,
            66,
            68,
            70,
            72,
            0,
            0,
            74,
            76,
            0,
            0,
            0,
            0,
            0,
            0,
            0,
            0,
            0,
            0,
            0,
            0,
            0,
            0,
            0,
            0,
            0,
            0,
            0,
            0,
            0,
            0,
            0,
            0
          ],
          "default_left": [
            false,
            false,
            false,
            false,
            false,
            false,
            false,
            false,
            false,
            false,
            false,
            false,
            false,
            false,
            false,
            false,
            false,
            false,
            false,
            false,
            false,
            false,
            false,
            false,
            false,
            false,
            false,
            false,
            false,
            false,
            false,
            false,
            false,
            false,
            false,
            false,
            false,
            false,
            false,
            false,
            false,
            false,
            false,
            false,
            false,
            false,
            false,
            false,
            false,
            false,
            false,
            false,
            false,
            false,
            false,
            false,
            false,
            false,
            false,
            false,
            false,
            false,
            false,
            false,
            false,
            false,
            false,
            false,
            false,
            false,
            false,
            false,
            false,
            false,
            false,
            false,
            false
          ],
          "leaf_values": {
            "type": "scalar",
            "values": [
              -1.0485672e-6,
              -89.724,
              60.06317,
              -114.01865,
              1.6416458,
              -5.137769,
              109.27457,
              -167.11162,
              -80.15889,
              -23.21753,
              55.229584,
              -25.354042,
              111.74802,
              7.3021574,
              137.46501,
              -196.50957,
              -83.752014,
              -129.17445,
              -57.880707,
              -35.930218,
              4.308813,
              11.837057,
              9.467643,
              -10.526927,
              -15.236657,
              12.561637,
              0.7334765,
              -27.657877,
              56.2019,
              107.99393,
              200.70923,
              -5.6503277,
              -20.172852,
              -10.794434,
              -47.647755,
              -139.22313,
              -0.93194515,
              -80.45727,
              -17.311087,
              -4.5097976,
              -2.5620391,
              -1.3659083,
              2.0840437,
              -0.27846995,
              1.7639208,
              -69.13352,
              1.557443,
              -47.10987,
              13.297581,
              0.14649692,
              6.508056,
              58.414406,
              133.42189,
              13.782275,
              24.636786,
              -1.2277907,
              -5.3420744,
              -14.507393,
              -4.035757,
              -9.034247,
              -3.4710224,
              -3.389078,
              0.49170694,
              -0.0014430523,
              -0.3828628,
              -8.082018,
              -1.49246,
              1.7386433,
              -4.2585025,
              -5.3110356,
              -0.5553487,
              -0.014096165,
              1.7824084,
              -0.6961375,
              8.282027,
              6.25894,
              15.249587
            ]
          },
          "categories": {
            "node_indices": [],
            "category_sets": []
          },
          "linear_coefficients": {
            "node_indices": [],
            "coefficients": []
          },
          "gains": null,
          "covers": null
        },
        {
          "num_nodes": 85,
          "split_indices": [
            1,
            5,
            5,
            1,
            2,
            1,
            7,
            7,
            6,
            5,
            4,
            4,
            3,
            6,
            1,
            0,
            1,
            3,
            0,
            4,
            0,
            1,
            0,
            6,
            1,
            0,
            0,
            7,
            0,
            7,
            0,
            0,
            1,
            7,
            0,
            4,
            7,
            0,
            0,
            0,
            0,
            0,
            0,
            5,
            4,
            5,
            7,
            4,
            0,
            0,
            6,
            5,
            6,
            0,
            0,
            0,
            0,
            0,
            0,
            0,
            0,
            0,
            0,
            0,
            0,
            0,
            0,
            0,
            0,
            0,
            0,
            0,
            0,
            0,
            0,
            0,
            0,
            0,
            0,
            0,
            0,
            0,
            0,
            0,
            0
          ],
          "thresholds": [
            -0.12578692,
            0.55979043,
            -0.10703036,
            -1.0097307,
            0.32416636,
            1.8260098,
            -0.6226995,
            0.31978193,
            -0.60021687,
            1.105526,
            -0.14408755,
            0.059218433,
            0.3885786,
            0.391804,
            0.968645,
            -17.837763,
            -1.4400508,
            1.0240625,
            0.20292301,
            0.3773005,
            -0.6115178,
            -0.8639908,
            8.836467,
            0.6308117,
            0.38240975,
            11.484927,
            0.6968027,
            -1.1290518,
            -1.2002964,
            0.014688195,
            0.048521627,
            -9.984851,
            -1.3118362,
            -0.48388582,
            -0.88534796,
            0.8524333,
            0.5820977,
            -4.123244,
            -1.4480139,
            -1.2748476,
            1.9451075,
            -0.26454645,
            1.6463261,
            -0.7591327,
            -0.79287285,
            -0.7128458,
            -0.23681861,
            -0.13014306,
            -1.9937357,
            0.13917208,
            0.71299845,
            0.39922312,
            -1.2239403,
            -1.7131345,
            22.463562,
            -1.1664011,
            -4.9414186,
            -15.322596,
            -7.9582744,
            -8.191051,
            -3.1933408,
            -3.0985856,
            0.45073137,
            -0.0013709068,
            -0.36371967,
            -8.950722,
            -3.3247178,
            -1.3929626,
            1.9168513,
            -4.635809,
            -0.6696675,
            0.8285293,
            4.939089,
            -4.868449,
            -0.5275812,
            -0.013391352,
            1.6635809,
            2.6952837,
            6.927114,
            -0.6404465,
            7.2710414,
            3.0176885,
            12.669639,
            2.7297084,
            12.557184
          ],
          "children_left": [
            1,
            3,
            5,
            7,
            9,
            11,
            13,
            15,
            17,
            19,
            21,
            23,
            25,
            27,
            29,
            0,
            31,
            33,
            35,
            37,
            39,
            41,
            0,
            43,
            45,
            0,
            0,
            47,
            49,
            51,
            53,
            0,
            55,
            57,
            0,
            59,
            61,
            0,
            63,
            0,
            0,
            0,
            0,
            65,
            67,
            69,
            71,
            73,
            75,
            0,
            77,
            79,
            81,
            83,
            0,
            0,
            0,
            0,
            0,
            0,
            0,
            0,
            0,
            0,
            0,
            0,
            0,
            0,
            0,
            0,
            0,
            0,
            0,
            0,
            0,
            0,
            0,
            0,
            0,
            0,
            0,
            0,
            0,
            0,
            0
          ],
          "children_right": [
            2,
            4,
            6,
            8,
            10,
            12,
            14,
            16,
            18,
            20,
            22,
            24,
            26,
            28,
            30,
            0,
            32,
            34,
            36,
            38,
            40,
            42,
            0,
            44,
            46,
            0,
            0,
            48,
            50,
            52,
            54,
            0,
            56,
            58,
            0,
            60,
            62,
            0,
            64,
            0,
            0,
            0,
            0,
            66,
            68,
            70,
            72,
            74,
            76,
            0,
            78,
            80,
            82,
            84,
            0,
            0,
            0,
            0,
            0,
            0,
            0,
            0,
            0,
            0,
            0,
            0,
            0,
            0,
            0,
            0,
            0,
            0,
            0,
            0,
            0,
            0,
            0,
            0,
            0,
            0,
            0,
            0,
            0,
            0,
            0
          ],
          "default_left": [
            false,
            false,
            false,
            false,
            false,
            false,
            false,
            false,
            false,
            false,
            false,
            false,
            false,
            false,
            false,
            false,
            false,
            false,
            false,
            false,
            false,
            false,
            false,
            false,
            false,
            false,
            false,
            false,
            false,
            false,
            false,
            false,
            false,
            false,
            false,
            false,
            false,
            false,
            false,
            false,
            false,
            false,
            false,
            false,
            false,
            false,
            false,
            false,
            false,
            false,
            false,
            false,
            false,
            false,
            false,
            false,
            false,
            false,
            false,
            false,
            false,
            false,
            false,
            false,
            false,
            false,
            false,
            false,
            false,
            false,
            false,
            false,
            false,
            false,
            false,
            false,
            false,
            false,
            false,
            false,
            false,
            false,
            false,
            false,
            false
          ],
          "leaf_values": {
            "type": "scalar",
            "values": [
              -0.05245949,
              -81.6317,
              54.55887,
              -103.83655,
              1.8539883,
              -4.7999554,
              99.36262,
              -152.19994,
              -72.993675,
              -21.217005,
              51.532143,
              -23.310402,
              102.235115,
              6.7317214,
              124.96876,
              -17.837763,
              -77.54735,
              -117.87993,
              -52.606056,
              -32.880985,
              4.021559,
              11.0247135,
              8.836467,
              -43.24356,
              10.099153,
              11.484927,
              0.6968027,
              -25.301897,
              51.53236,
              95.72572,
              178.13673,
              -9.984851,
              -44.196953,
              -126.98656,
              -0.88534796,
              -73.06972,
              -15.8214245,
              -4.123244,
              -2.433937,
              -1.2748476,
              1.9451075,
              -0.26454645,
              1.6463261,
              -60.331158,
              9.152775,
              -24.65109,
              29.528532,
              -43.23694,
              12.409901,
              0.13917208,
              59.657177,
              43.35914,
              113.51486,
              118.474075,
              22.463562,
              -1.1664011,
              -4.9414186,
              -15.322596,
              -7.9582744,
              -8.191051,
              -3.1933408,
              -3.0985856,
              0.45073137,
              -0.0013709068,
              -0.36371967,
              -8.950722,
              -3.3247178,
              -1.3929626,
              1.9168513,
              -4.635809,
              -0.6696675,
              0.8285293,
              4.939089,
              -4.868449,
              -0.5275812,
              -0.013391352,
              1.6635809,
              2.6952837,
              6.927114,
              -0.6404465,
              7.2710414,
              3.0176885,
              12.669639,
              2.7297084,
              12.557184
            ]
          },
          "categories": {
            "node_indices": [],
            "category_sets": []
          },
          "linear_coefficients": {
            "node_indices": [],
            "coefficients": []
          },
          "gains": null,
          "covers": null
        },
        {
          "num_nodes": 89,
          "split_indices": [
            1,
            5,
            5,
            1,
            2,
            7,
            7,
            7,
            6,
            2,
            4,
            4,
            1,
            3,
            1,
            0,
            1,
            3,
            0,
            0,
            5,
            1,
            0,
            6,
            4,
            0,
            4,
            3,
            0,
            4,
            0,
            0,
            0,
            0,
            1,
            7,
            0,
            4,
            7,
            0,
            0,
            2,
            0,
            0,
            0,
            5,
            5,
            0,
            7,
            0,
            0,
            2,
            0,
            0,
            0,
            0,
            0,
            0,
            0,
            0,
            0,
            0,
            0,
            0,
            0,
            0,
            0,
            0,
            0,
            0,
            0,
            0,
            0,
            0,
            0,
            0,
            0,
            0,
            0,
            0,
            0,
            0,
            0,
            0,
            0,
            0,
            0,
            0,
            0
          ],
          "thresholds": [
            -0.12578692,
            0.55979043,
            0.23561455,
            -1.0097307,
            0.32416636,
            0.595157,
            -0.68198425,
            0.31978193,
            -0.60021687,
            -0.5574918,
            -0.14408755,
            0.059218433,
            0.08187414,
            0.47323763,
            0.70117277,
            -0.7184073,
            -1.4400508,
            1.0240625,
            0.20292301,
            -1.0623037,
            0.94955415,
            -0.8639908,
            8.247369,
            0.6308117,
            0.44770855,
            0.29355794,
            0.47259748,
            -1.2946814,
            6.9079967,
            -0.75427586,
            -1.0651137,
            -4.475923,
            1.6137112,
            -9.235987,
            -1.3118362,
            -0.48388582,
            -0.8410805,
            0.8524333,
            0.81350964,
            -1.1177001,
            -3.982201,
            -0.44651496,
            -0.6115178,
            -0.25131914,
            1.536571,
            -0.7591327,
            -0.60136765,
            8.138911,
            0.11567464,
            -3.1054316,
            -0.40246043,
            0.22213377,
            14.392046,
            -1.3471262,
            -1.2002964,
            -1.2803044,
            0.2005692,
            8.235576,
            18.599895,
            -17.073057,
            -4.8269305,
            -1.1080811,
            -4.570812,
            -14.045712,
            -7.2950854,
            -7.426552,
            -2.9378734,
            -2.6311235,
            0.7394127,
            -0.23122399,
            -2.1592515,
            -0.66708654,
            1.8154337,
            -8.145157,
            -3.5130641,
            -0.32150006,
            3.2347176,
            0.07593132,
            3.6938455,
            2.1861763,
            7.30859,
            -2.568061,
            -0.5012022,
            0.1322135,
            2.3376849,
            -1.788422,
            5.066506,
            6.9271502,
            13.354001
          ],
          "children_left": [
            1,
            3,
            5,
            7,
            9,
            11,
            13,
            15,
            17,
            19,
            21,
            23,
            25,
            27,
            29,
            31,
            33,
            35,
            37,
            39,
            41,
            43,
            0,
            45,
            47,
            49,
            51,
            53,
            0,
            55,
            57,
            0,
            59,
            0,
            61,
            63,
            0,
            65,
            67,
            0,
            0,
            69,
            71,
            0,
            0,
            73,
            75,
            0,
            77,
            0,
            0,
            79,
            0,
            81,
            83,
            85,
            87,
            0,
            0,
            0,
            0,
            0,
            0,
            0,
            0,
            0,
            0,
            0,
            0,
            0,
            0,
            0,
            0,
            0,
            0,
            0,
            0,
            0,
            0,
            0,
            0,
            0,
            0,
            0,
            0,
            0,
            0,
            0,
            0
          ],
          "children_right": [
            2,
            4,
            6,
            8,
            10,
            12,
            14,
            16,
            18,
            20,
            22,
            24,
            26,
            28,
            30,
            32,
            34,
            36,
            38,
            40,
            42,
            44,
            0,
            46,
            48,
            50,
            52,
            54,
            0,
            56,
            58,
            0,
            60,
            0,
            62,
            64,
            0,
            66,
            68,
            0,
            0,
            70,
            72,
            0,
            0,
            74,
            76,
            0,
            78,
            0,
            0,
            80,
            0,
            82,
            84,
            86,
            88,
            0,
            0,
            0,
            0,
            0,
            0,
            0,
            0,
            0,
            0,
            0,
            0,
            0,
            0,
            0,
            0,
            0,
            0,
            0,
            0,
            0,
            0,
            0,
            0,
            0,
            0,
            0,
            0,
            0,
            0,
            0,
            0
          ],
          "default_left": [
            false,
            false,
            false,
            false,
            false,
            false,
            false,
            false,
            false,
            false,
            false,
            false,
            false,
            false,
            false,
            false,
            false,
            false,
            false,
            false,
            false,
            false,
            false,
            false,
            false,
            false,
            false,
            false,
            false,
            false,
            false,
            false,
            false,
            false,
            false,
            false,
            false,
            false,
            false,
            false,
            false,
            false,
            false,
            false,
            false,
            false,
            false,
            false,
            false,
            false,
            false,
            false,
            false,
            false,
            false,
            false,
            false,
            false,
            false,
            false,
            false,
            false,
            false,
            false,
            false,
            false,
            false,
            false,
            false,
            false,
            false,
            false,
            false,
            false,
            false,
            false,
            false,
            false,
            false,
            false,
            false,
            false,
            false,
            false,
            false,
            false,
            false,
            false,
            false
          ],
          "leaf_values": {
            "type": "scalar",
            "values": [
              -0.041005548,
              -74.27999,
              49.656506,
              -94.57991,
              2.0241547,
              11.241217,
              107.845566,
              -138.3937,
              -66.62598,
              -19.389002,
              48.08197,
              -13.017764,
              87.43681,
              26.889587,
              123.364525,
              -161.58914,
              -71.8042,
              -108.10579,
              -47.81319,
              -36.910675,
              -3.824123,
              10.267687,
              8.247369,
              -38.193386,
              25.858955,
              -25.303038,
              111.671646,
              4.966628,
              6.9079967,
              92.01913,
              160.3601,
              -4.475923,
              -166.09355,
              -9.235987,
              -40.99882,
              -116.40435,
              -0.8410805,
              -66.36192,
              -14.459937,
              -1.1177001,
              -3.982201,
              -14.342853,
              10.280319,
              -0.25131914,
              1.536571,
              -53.587677,
              12.233188,
              8.138911,
              13.459977,
              -3.1054316,
              -0.40246043,
              54.25581,
              14.392046,
              -20.461756,
              19.230333,
              39.86087,
              111.1513,
              8.235576,
              18.599895,
              -17.073057,
              -4.8269305,
              -1.1080811,
              -4.570812,
              -14.045712,
              -7.2950854,
              -7.426552,
              -2.9378734,
              -2.6311235,
              0.7394127,
              -0.23122399,
              -2.1592515,
              -0.66708654,
              1.8154337,
              -8.145157,
              -3.5130641,
              -0.32150006,
              3.2347176,
              0.07593132,
              3.6938455,
              2.1861763,
              7.30859,
              -2.568061,
              -0.5012022,
              0.1322135,
              2.3376849,
              -1.788422,
              5.066506,
              6.9271502,
              13.354001
            ]
          },
          "categories": {
            "node_indices": [],
            "category_sets": []
          },
          "linear_coefficients": {
            "node_indices": [],
            "coefficients": []
          },
          "gains": null,
          "covers": null
        },
        {
          "num_nodes": 87,
          "split_indices": [
            1,
            5,
            5,
            1,
            2,
            7,
            7,
            7,
            6,
            2,
            4,
            4,
            1,
            3,
            1,
            0,
            1,
            3,
            0,
            0,
            5,
            1,
            0,
            6,
            4,
            0,
            4,
            3,
            0,
            3,
            6,
            0,
            0,
            0,
            1,
            7,
            0,
            4,
            7,
            2,
            0,
            0,
            0,
            7,
            5,
            0,
            3,
            0,
            0,
            2,
            0,
            0,
            0,
            0,
            0,
            1,
            0,
            0,
            0,
            0,
            0,
            0,
            0,
            0,
            0,
            0,
            0,
            0,
            0,
            0,
            0,
            0,
            0,
            0,
            0,
            0,
            0,
            0,
            0,
            0,
            0,
            0,
            0,
            0,
            0,
            0,
            0
          ],
          "thresholds": [
            -0.12578692,
            0.55979043,
            0.23561455,
            -1.0097307,
            0.32416636,
            0.595157,
            -0.68198425,
            0.31978193,
            -0.60021687,
            -0.5574918,
            -0.14408755,
            0.059218433,
            0.08187414,
            0.47323763,
            0.48650163,
            -0.7184073,
            -1.4400508,
            1.0240625,
            0.20292301,
            -3.4069593,
            0.94955415,
            -0.8639908,
            7.697544,
            0.6308117,
            0.44770855,
            0.29355794,
            0.47259748,
            -1.2946814,
            6.4474635,
            -1.6064463,
            -0.8612842,
            -4.252127,
            -15.085296,
            -8.543288,
            -1.3118362,
            -0.48388582,
            -0.7990264,
            0.8524333,
            0.5820977,
            -0.44651496,
            -0.6115178,
            -0.23875318,
            1.4341329,
            -0.20358036,
            -0.6022121,
            7.528493,
            -0.019016208,
            -2.898403,
            -0.3823374,
            0.22213377,
            13.112752,
            -1.3471262,
            -1.2002964,
            -1.699001,
            0.2005692,
            1.0441608,
            -0.8275902,
            -1.052677,
            -4.228001,
            -12.8752365,
            -6.6871605,
            -6.733407,
            -2.7028434,
            -2.6074677,
            0.40772834,
            -0.21580906,
            -2.0153015,
            -0.63373226,
            1.6944048,
            -6.2049747,
            -1.9694331,
            -0.6091059,
            2.6491468,
            -0.09682872,
            3.232964,
            2.022213,
            6.760446,
            -2.439658,
            -0.47614202,
            0.12560283,
            2.1623585,
            5.640644,
            9.746744,
            2.9598234,
            7.3278284,
            7.0336885,
            17.290346
          ],
          "children_left": [
            1,
            3,
            5,
            7,
            9,
            11,
            13,
            15,
            17,
            19,
            21,
            23,
            25,
            27,
            29,
            31,
            33,
            35,
            37,
            0,
            39,
            41,
            0,
            43,
            45,
            47,
            49,
            51,
            0,
            53,
            55,
            0,
            0,
            0,
            57,
            59,
            0,
            61,
            63,
            65,
            67,
            0,
            0,
            69,
            71,
            0,
            73,
            0,
            0,
            75,
            0,
            77,
            79,
            0,
            81,
            83,
            85,
            0,
            0,
            0,
            0,
            0,
            0,
            0,
            0,
            0,
            0,
            0,
            0,
            0,
            0,
            0,
            0,
            0,
            0,
            0,
            0,
            0,
            0,
            0,
            0,
            0,
            0,
            0,
            0,
            0,
            0
          ],
          "children_right": [
            2,
            4,
            6,
            8,
            10,
            12,
            14,
            16,
            18,
            20,
            22,
            24,
            26,
            28,
            30,
            32,
            34,
            36,
            38,
            0,
            40,
            42,
            0,
            44,
            46,
            48,
            50,
            52,
            0,
            54,
            56,
            0,
            0,
            0,
            58,
            60,
            0,
            62,
            64,
            66,
            68,
            0,
            0,
            70,
            72,
            0,
            74,
            0,
            0,
            76,
            0,
            78,
            80,
            0,
            82,
            84,
            86,
            0,
            0,
            0,
            0,
            0,
            0,
            0,
            0,
            0,
            0,
            0,
            0,
            0,
            0,
            0,
            0,
            0,
            0,
            0,
            0,
            0,
            0,
            0,
            0,
            0,
            0,
            0,
            0,
            0,
            0
          ],
          "default_left": [
            false,
            false,
            false,
            false,
            false,
            false,
            false,
            false,
            false,
            false,
            false,
            false,
            false,
            false,
            false,
            false,
            false,
            false,
            false,
            false,
            false,
            false,
            false,
            false,
            false,
            false,
            false,
            false,
            false,
            false,
            false,
            false,
            false,
            false,
            false,
            false,
            false,
            false,
            false,
            false,
            false,
            false,
            false,
            false,
            false,
            false,
            false,
            false,
            false,
            false,
            false,
            false,
            false,
            false,
            false,
            false,
            false,
            false,
            false,
            false,
            false,
            false,
            false,
            false,
            false,
            false,
            false,
            false,
            false,
            false,
            false,
            false,
            false,
            false,
            false,
            false,
            false,
            false,
            false,
            false,
            false,
            false,
            false,
            false,
            false,
            false,
            false
          ],
          "leaf_values": {
            "type": "scalar",
            "values": [
              0.0014415499,
              -67.74753,
              45.354046,
              -86.30518,
              1.9989942,
              10.435238,
              98.24233,
              -126.27479,
              -60.803333,
              -17.93795,
              44.86254,
              -11.660484,
              79.825294,
              24.901587,
              112.28794,
              -146.98175,
              -66.48814,
              -99.1437,
              -43.44041,
              -3.4069593,
              -3.5969772,
              9.562231,
              7.697544,
              -34.623905,
              23.79083,
              -23.649708,
              102.09694,
              4.3843417,
              6.4474635,
              76.22907,
              138.32568,
              -4.252127,
              -15.085296,
              -8.543288,
              -38.034718,
              -106.70399,
              -0.7990264,
              -60.271225,
              -13.171586,
              -13.3866625,
              9.539374,
              -0.23875318,
              1.4341329,
              -48.660694,
              11.33356,
              7.528493,
              12.302468,
              -2.898403,
              -0.3823374,
              50.186623,
              13.112752,
              -19.438667,
              17.80128,
              -1.699001,
              82.3518,
              58.78658,
              164.4787,
              -1.052677,
              -4.228001,
              -12.8752365,
              -6.6871605,
              -6.733407,
              -2.7028434,
              -2.6074677,
              0.40772834,
              -0.21580906,
              -2.0153015,
              -0.63373226,
              1.6944048,
              -6.2049747,
              -1.9694331,
              -0.6091059,
              2.6491468,
              -0.09682872,
              3.232964,
              2.022213,
              6.760446,
              -2.439658,
              -0.47614202,
              0.12560283,
              2.1623585,
              5.640644,
              9.746744,
              2.9598234,
              7.3278284,
              7.0336885,
              17.290346
            ]
          },
          "categories": {
            "node_indices": [],
            "category_sets": []
          },
          "linear_coefficients": {
            "node_indices": [],
            "coefficients": []
          },
          "gains": null,
          "covers": null
        },
        {
          "num_nodes": 87,
          "split_indices": [
            1,
            5,
            5,
            1,
            2,
            7,
            7,
            7,
            6,
            5,
            4,
            4,
            1,
            0,
            1,
            0,
            1,
            3,
            0,
            4,
            0,
            1,
            0,
            6,
            7,
            0,
            4,
            0,
            0,
            4,
            0,
            3,
            0,
            0,
            1,
            7,
            0,
            4,
            7,
            0,
            0,
            0,
            0,
            0,
            0,
            5,
            5,
            0,
            6,
            0,
            0,
            3,
            1,
            0,
            0,
            2,
            0,
            0,
            0,
            0,
            0,
            0,
            0,
            0,
            0,
            0,
            0,
            0,
            0,
            0,
            0,
            0,
            0,
            0,
            0,
            0,
            0,
            0,
            0,
            0,
            0,
            0,
            0,
            0,
            0,
            0,
            0
          ],
          "thresholds": [
            -0.12578692,
            0.55979043,
            0.39922312,
            -1.0097307,
            0.32416636,
            0.595157,
            -0.68198425,
            0.31978193,
            -0.60021687,
            1.105526,
            -0.14408755,
            0.059218433,
            0.08187414,
            -0.8838574,
            0.70117277,
            1.6137112,
            -1.4400508,
            1.0240625,
            0.20292301,
            -0.50694317,
            -0.6115178,
            -0.8639908,
            7.1843743,
            0.67959774,
            -0.45888427,
            0.29355794,
            0.47259748,
            -1.3471262,
            5.436521,
            -0.09917586,
            14.724733,
            -1.1509936,
            -3.831319,
            -7.9025407,
            -1.3118362,
            -0.48388582,
            -0.7590751,
            0.8524333,
            0.81350964,
            -3.7703896,
            -1.4480139,
            -0.9956752,
            1.5814445,
            -0.2268155,
            1.338524,
            -0.7591327,
            -0.60136765,
            0.76608026,
            0.02688584,
            -2.705176,
            -0.3632205,
            -1.2608839,
            0.3853174,
            -2.3176754,
            -1.2002964,
            -0.73036665,
            0.6982233,
            -5.898248,
            -14.389888,
            -1.0000432,
            -3.9109013,
            -11.8022995,
            -6.1298976,
            -6.1049557,
            -2.4866161,
            -2.2104368,
            0.64764136,
            0.02104931,
            -1.0981501,
            -6.938356,
            -2.7846038,
            -0.29825374,
            2.8254614,
            0.3707802,
            -3.5757096,
            1.2455491,
            6.625685,
            1.3577479,
            6.507085,
            6.3472342,
            13.5314,
            0.11932268,
            0.6769704,
            2.029539,
            5.60114,
            6.661008,
            12.829462
          ],
          "children_left": [
            1,
            3,
            5,
            7,
            9,
            11,
            13,
            15,
            17,
            19,
            21,
            23,
            25,
            27,
            29,
            31,
            33,
            35,
            37,
            39,
            41,
            43,
            0,
            45,
            47,
            49,
            51,
            53,
            0,
            55,
            0,
            57,
            0,
            0,
            59,
            61,
            0,
            63,
            65,
            0,
            67,
            0,
            0,
            0,
            0,
            69,
            71,
            73,
            75,
            0,
            0,
            77,
            79,
            0,
            81,
            83,
            85,
            0,
            0,
            0,
            0,
            0,
            0,
            0,
            0,
            0,
            0,
            0,
            0,
            0,
            0,
            0,
            0,
            0,
            0,
            0,
            0,
            0,
            0,
            0,
            0,
            0,
            0,
            0,
            0,
            0,
            0
          ],
          "children_right": [
            2,
            4,
            6,
            8,
            10,
            12,
            14,
            16,
            18,
            20,
            22,
            24,
            26,
            28,
            30,
            32,
            34,
            36,
            38,
            40,
            42,
            44,
            0,
            46,
            48,
            50,
            52,
            54,
            0,
            56,
            0,
            58,
            0,
            0,
            60,
            62,
            0,
            64,
            66,
            0,
            68,
            0,
            0,
            0,
            0,
            70,
            72,
            74,
            76,
            0,
            0,
            78,
            80,
            0,
            82,
            84,
            86,
            0,
            0,
            0,
            0,
            0,
            0,
            0,
            0,
            0,
            0,
            0,
            0,
            0,
            0,
            0,
            0,
            0,
            0,
            0,
            0,
            0,
            0,
            0,
            0,
            0,
            0,
            0,
            0,
            0,
            0
          ],
          "default_left": [
            false,
            false,
            false,
            false,
            false,
            false,
            false,
            false,
            false,
            false,
            false,
            false,
            false,
            false,
            false,
            false,
            false,
            false,
            false,
            false,
            false,
            false,
            false,
            false,
            false,
            false,
            false,
            false,
            false,
            false,
            false,
            false,
            false,
            false,
            false,
            false,
            false,
            false,
            false,
            false,
            false,
            false,
            false,
            false,
            false,
            false,
            false,
            false,
            false,
            false,
            false,
            false,
            false,
            false,
            false,
            false,
            false,
            false,
            false,
            false,
            false,
            false,
            false,
            false,
            false,
            false,
            false,
            false,
            false,
            false,
            false,
            false,
            false,
            false,
            false,
            false,
            false,
            false,
            false,
            false,
            false,
            false,
            false,
            false,
            false,
            false,
            false
          ],
          "leaf_values": {
            "type": "scalar",
            "values": [
              0.08299542,
              -61.723927,
              41.45719,
              -78.69277,
              2.038846,
              13.715162,
              97.291916,
              -115.02903,
              -55.503426,
              -16.496264,
              41.85844,
              -9.005304,
              76.08941,
              26.719028,
              108.960106,
              -133.42107,
              -61.567318,
              -90.92611,
              -39.484234,
              -25.7805,
              3.5146155,
              8.904852,
              7.1843743,
              -29.717093,
              22.008354,
              -22.104921,
              92.75719,
              -7.6069107,
              5.436521,
              81.3831,
              14.724733,
              -136.97073,
              -3.831319,
              -7.9025407,
              -35.28738,
              -97.81199,
              -0.7590751,
              -54.740746,
              -12.037739,
              -3.7703896,
              -8.701004,
              -0.9956752,
              1.5814445,
              -0.2268155,
              1.338524,
              -43.67537,
              12.337785,
              -3.814397,
              36.772053,
              -2.705176,
              -0.3632205,
              56.12992,
              120.10874,
              -2.3176754,
              5.3086205,
              51.750015,
              106.31165,
              -5.898248,
              -14.389888,
              -1.0000432,
              -3.9109013,
              -11.8022995,
              -6.1298976,
              -6.1049557,
              -2.4866161,
              -2.2104368,
              0.64764136,
              0.02104931,
              -1.0981501,
              -6.938356,
              -2.7846038,
              -0.29825374,
              2.8254614,
              0.3707802,
              -3.5757096,
              1.2455491,
              6.625685,
              1.3577479,
              6.507085,
              6.3472342,
              13.5314,
              0.11932268,
              0.6769704,
              2.029539,
              5.60114,
              6.661008,
              12.829462
            ]
          },
          "categories": {
            "node_indices": [],
            "category_sets": []
          },
          "linear_coefficients": {
            "node_indices": [],
            "coefficients": []
          },
          "gains": null,
          "covers": null
        }
      ],
      "tree_groups": [
        0,
        0,
        0,
        0,
        0
      ],
      "n_groups": 1,
      "base_score": [
        14.289044
      ]
    },
    "config": {
      "objective": {
        "type": "squared_loss"
      },
      "metric": {
        "type": "none"
      },
      "n_trees": 5,
      "learning_rate": 0.1,
      "growth_strategy": {
        "type": "depth_wise",
        "max_depth": 6
      },
      "max_onehot_cats": 4,
      "lambda": 1.0,
      "alpha": 0.0,
      "min_child_weight": 1.0,
      "min_gain": 0.0,
      "min_samples_leaf": 1,
      "subsample": 1.0,
      "colsample_bytree": 1.0,
      "colsample_bylevel": 1.0,
      "binning": {
        "max_bins": 256,
        "sparsity_threshold": 0.3,
        "enable_bundling": true,
        "max_categorical_cardinality": 64,
        "sample_cnt": 200000
      },
      "linear_leaves": null,
      "early_stopping_rounds": null,
      "cache_size": 0,
      "seed": 0,
      "verbosity": "silent",
      "extra": {
        "xgboost_objective": "reg:squarederror"
      }
    },
    "MODEL_TYPE": "gbdt"
  }
}